tree
version=v4
num_class=1
num_tree_per_iteration=1
label_index=0
max_feature_idx=11
objective=binary sigmoid:1
feature_names=Column_0 Column_1 Column_2 Column_3 Column_4 Column_5 Column_6 Column_7 Column_8 Column_9 Column_10 Column_11
feature_infos=[0.00029621715782817901:1.3232775866800428] [-0.0043765961011868332:1.1344535398768762] [-0.015530928690738077:0.90388788889182903] [184.29629629629198:85245306.206896558] [-1983541.7857142859:44412376.896551728] [-2293223.6896551731:28967656.482758619] [0:185.06896551724139] [-0.931034482758621:161.06896551724139] [-2.2068965517241379:45.137931034482762] [680.78571428571013:974760.59999999998] [-6202:584151.16666666663] [-106844.83333333334:190345.90909090909]
tree_sizes=764 776 780 750 753 756 755 772 777 776 767 750 752 751 776 775 754 775 730 760 757 777 753 760 778 764 754 752 779 754 738 780 766 756 768 776 755 734 752 758 747 733 759 775 753 776 757 773 736 755 750 753 782 775 771 754 715 773 733 774 774 780 778 782 778 752 773 780 744 751 753 772 770 708 701 774 775 774 769 776 759 758 779 732 766 755 772 772 746 764 755 760 783 734 761 775 762 778 779

Tree=0
num_leaves=6
num_cat=0
split_feature=0 1 9 5 5
split_gain=18.1433 8.84177 7.67485 4.03723 3.78969
threshold=0.32754834996983567 0.34091952041610196 69414.413793103464 274939.37500000012 1512316.4464285716
decision_type=2 2 2 2 2
left_child=2 3 4 -2 -1
right_child=1 -3 -4 -5 -6
leaf_value=-7.8073398447702171 -7.754481547470383 -7.7433076302633435 -7.582258957357527 -7.479512729340092 -7.7538990249493143
leaf_weight=26.461862565076444 0.33890310043352601 3.8359032341104466 0.13239071812131342 2.0017133820801973 21.32390304497676
leaf_count=61762 791 8953 309 4672 49770
internal_value=-7.75448 -7.61303 -7.77541 -7.51018 -7.78327
internal_weight=0 6.17652 47.9182 2.34062 47.7858
internal_count=126257 14416 111841 5463 111532
is_linear=0
shrinkage=1


Tree=1
num_leaves=6
num_cat=0
split_feature=9 0 11 1 1
split_gain=14.4382 12.0681 17.8758 13.4334 5.52546
threshold=69414.413793103464 0.18688301879568647 15875.034482758625 0.18584392496815572 0.28098092976251166
decision_type=2 2 2 2 2
left_child=1 -1 3 -3 -5
right_child=-2 2 -4 4 -6
leaf_value=-0.050689576110647498 0.2563892720230751 0.34142176398669993 -0.045497626961848912 -0.0037903753626023075 0.1277580204910729
leaf_weight=33.325419620261528 0.23619155216147092 0.74925110902404668 9.8137278960784879 5.8187052861903776 3.5832352990109939
leaf_count=80105 474 1736 22196 13828 8117
internal_value=0 -0.0141226 0.0436125 0.128077 0.0540931
internal_weight=0 53.2903 19.9649 10.1512 9.40194
internal_count=126456 125982 45877 23681 21945
is_linear=0
shrinkage=0.1


Tree=2
num_leaves=6
num_cat=0
split_feature=9 11 8 9 2
split_gain=19.4998 5.00412 10.0729 7.01112 7.8967
threshold=69414.413793103464 17288.757389162562 2.2413793103448287 16745.534482758627 0.076720991442130029
decision_type=2 2 2 2 2
left_child=1 2 -1 4 -4
right_child=-2 -3 3 -5 -6
leaf_value=-0.073201861537908627 0.28855280190741212 -0.063627568603856613 0.081430604513295368 0.10188178937604722 -0.046953036460715768
leaf_weight=10.629984954488462 0.32463033986277778 15.599081167922121 5.5097337338957066 8.2355214050039631 12.01619262396707
leaf_count=26409 505 38042 13731 19429 28426
internal_value=0 -0.0194815 0.00015992 0.035172 -5.54232e-06
internal_weight=0 51.9905 36.3914 25.7614 17.5259
internal_count=126542 126037 87995 61586 42157
is_linear=0
shrinkage=0.1


Tree=3
num_leaves=6
num_cat=0
split_feature=9 0 11 2 9
split_gain=17.4663 9.31637 13.3672 20.0712 8.89076
threshold=69414.413793103464 0.18688301879568647 15476.862068965524 0.18509381955812657 12119.553571428574
decision_type=2 2 2 2 2
left_child=1 -1 3 4 -3
right_child=-2 2 -4 -5 -6
leaf_value=-0.04771103395166737 0.27163307343908216 0 -0.043019750512486202 0.016747310008645804 0.37910650552574343
leaf_weight=31.327223981701536 0.42151292390189965 0.47254406576394359 9.3094732642348372 8.7040014457597845 1.1744943506491834
leaf_count=79979 494 955 22959 19739 2124
internal_value=0 -0.0141623 0.036332 0.10787 0.313501
internal_weight=0 50.9877 19.6605 10.351 1.64704
internal_count=126250 125756 45777 22818 3079
is_linear=0
shrinkage=0.1


Tree=4
num_leaves=6
num_cat=0
split_feature=0 9 2 0 9
split_gain=10.16 6.38182 6.33599 9.81557 4.95064
threshold=0.47806480630832165 69414.413793103464 0.032027825564112634 0.038884541581884126 19095.017241379315
decision_type=2 2 2 2 2
left_child=1 2 3 -1 -2
right_child=4 -3 -4 -5 -6
leaf_value=-0.036743458903202991 0.24048534106437472 0.13172090214832277 -0.050506875004559228 0.18262955001544684 0
leaf_weight=3.4681723187968592 0.33148265510680985 0.4706804018933316 43.290158467250876 1.4761527013033626 1.181045777921099
leaf_count=9177 653 414 109248 3661 2758
internal_value=0 -0.0300801 -0.0374151 0.0521812 0.149378
internal_weight=0 48.7052 48.2345 4.94433 1.51253
internal_count=125911 122500 122086 12838 3411
is_linear=0
shrinkage=0.1


Tree=5
num_leaves=6
num_cat=0
split_feature=0 11 2 2 11
split_gain=19.9193 19.1078 11.4549 6.55097 4.47113
threshold=0.25488640599368068 19807.396551724141 0.27030981891852474 0.055457335575267656 10384.896551724139
decision_type=2 2 2 2 2
left_child=4 2 3 -2 -1
right_child=1 -3 -4 -5 -6
leaf_value=0.019387161053219359 0 -0.029774648016751216 0.056152632654903056 0.36208402446295657 -0.047058944995497121
leaf_weight=15.171092605742158 0.35026723251212244 4.3680575890175533 4.7724864307092503 2.3661523064074572 21.482058065419551
leaf_count=41592 527 10990 10328 5000 57651
internal_value=0 0.121549 0.204183 0.326275 -0.0185531
internal_weight=0 11.857 7.48891 2.71642 36.6532
internal_count=126088 26845 15855 5527 99243
is_linear=0
shrinkage=0.1


Tree=6
num_leaves=6
num_cat=0
split_feature=0 11 5 11 9
split_gain=14.1775 11.7084 8.75957 8.99597 16.4738
threshold=0.32357437102300463 14886.63793103448 1545179.1785714289 11208.965517241386 16745.534482758627
decision_type=2 2 2 2 2
left_child=2 -2 -1 4 -4
right_child=1 -3 3 -5 -6
leaf_value=-0.05732426268992389 0.22272121888428811 0 0.017669456410679248 -0.025726829323760182 0.33266084950893765
leaf_weight=22.396690684661735 3.2371996190049677 4.1624683653353713 7.7724535480665526 10.760134382027898 0.56983262678841118
leaf_count=62328 5364 9476 19581 27902 1196
internal_value=0 0.120208 -0.0161267 0.0304083 0.0997583
internal_weight=0 7.39967 41.4991 19.1024 8.34229
internal_count=125847 14840 111007 48679 20777
is_linear=0
shrinkage=0.1


Tree=7
num_leaves=6
num_cat=0
split_feature=9 9 6 8 8
split_gain=8.31224 7.08096 6.94688 10.7056 8.50505
threshold=69414.413793103464 29607.827586206902 2.4913793103448278 9.9827586206896566 8.017241379310347
decision_type=2 2 2 2 2
left_child=1 2 -1 4 -4
right_child=-2 -3 3 -5 -6
leaf_value=-0.049372509804932706 0.20176821212433893 -0.056547506612182233 0.047662817947263424 -0.042240690777440519 0.21420405553303601
leaf_weight=6.7562246177694751 0.6053088751505119 10.466898167826001 20.722144234518062 7.4286930988018858 2.7376293347624587
leaf_count=19679 501 28818 53418 17231 6555
internal_value=0 0.0086857 0.0299293 0.0506704 0.0831135
internal_weight=0 48.1116 37.6447 30.8885 23.4598
internal_count=126202 125701 96883 77204 59973
is_linear=0
shrinkage=0.1


Tree=8
num_leaves=6
num_cat=0
split_feature=0 11 10 2 11
split_gain=12.5914 6.91475 7.97789 4.71393 4.53077
threshold=0.32357437102300463 13003.913793103451 8759.4827586206902 0.29388809597635546 10586.275862068966
decision_type=2 2 2 2 2
left_child=4 2 -2 -3 -1
right_child=1 3 -4 -5 -6
leaf_value=0.033207764475572429 -0.009240078987821183 0.097155684990417948 0.26646585751823282 -0.047996398389243848 -0.030746281625048052
leaf_weight=17.912821823119884 0.76948355196509366 2.3905643053294625 2.3625735045061447 2.6859760408697184 23.215585065976484
leaf_count=46352 1114 4561 3105 6097 65119
internal_value=0 0.122377 0.209329 0.0201739 -0.00142745
internal_weight=0 8.2086 3.13206 5.07654 41.1284
internal_count=126348 14877 4219 10658 111471
is_linear=0
shrinkage=0.1


Tree=9
num_leaves=6
num_cat=0
split_feature=9 6 3 11 7
split_gain=28.47 6.63559 5.04718 4.49244 5.42308
threshold=69414.413793103464 2.3158866995073901 1034982.8035714288 17288.757389162562 6.8774630541871931
decision_type=2 2 2 2 2
left_child=1 -1 -3 4 -4
right_child=-2 2 3 -5 -6
leaf_value=-0.075037301761191028 0.34545504765153645 0.13290178240382572 -0.010163305132148848 -0.045788656332094717 0.069153460905890404
leaf_weight=7.5443476390209971 0.72595011151861299 1.7471456389757793 16.371231403376445 9.8780392572225519 13.722677373385521
leaf_count=22879 488 4735 38464 30399 29165
internal_value=0 0.000355395 0.0177575 0.00592817 0.026202
internal_weight=0 49.2634 41.7191 39.9719 30.0939
internal_count=126130 125642 102763 98028 67629
is_linear=0
shrinkage=0.1


Tree=10
num_leaves=6
num_cat=0
split_feature=9 0 11 5 6
split_gain=12.1182 3.90947 4.58692 4.17049 4.68766
threshold=69414.413793103464 0.33172333490737732 6478.06896551724 2062474.7652116406 9.4562807881773434
decision_type=2 2 2 2 2
left_child=1 2 -1 -4 -5
right_child=-2 -3 3 4 -6
leaf_value=0.03566285075622018 0.18965520754120377 0.034075627663796564 -0.073466281381895815 0.066706019432303407 -0.042163464420576328
leaf_weight=5.7657389210071406 1.050761435413732 8.0898238744994142 22.045383041433524 4.3563517169968682 9.1442706683592387
leaf_count=14756 497 13685 64477 10798 22279
internal_value=0 -0.0212722 -0.0343175 -0.048268 0
internal_weight=0 49.4016 41.3117 35.546 13.5006
internal_count=126492 125995 112310 97554 33077
is_linear=0
shrinkage=0.1


Tree=11
num_leaves=6
num_cat=0
split_feature=0 10 10 10 8
split_gain=15.7816 4.8829 3.2619 3.33452 5.79195
threshold=0.32357437102300463 4445.4137931034429 8759.4827586206902 19871.689655172417 8.3158866995073915
decision_type=2 2 2 2 2
left_child=1 -1 -2 4 -4
right_child=2 -3 3 -5 -6
leaf_value=0.11818019547395744 -0.010566796351156982 -0.026105343234815965 0.2359717861146205 0.02666089864393429 0
leaf_weight=0.61198187211993982 0.80760200388613057 39.226676522870548 3.0380460866726917 3.9346351071726531 1.6766556897782718
leaf_count=1525 1129 109477 3437 8424 1849
internal_value=0 -0.0175865 0.115458 0.13211 0.180212
internal_weight=0 39.8387 9.45694 8.64934 4.7147
internal_count=125841 111002 14839 13710 5286
is_linear=0
shrinkage=0.1


Tree=12
num_leaves=6
num_cat=0
split_feature=0 9 10 0 6
split_gain=7.53608 4.73371 13.717 10.4662 7.60229
threshold=0.65741898882570604 16745.534482758627 16500.22413793104 0.1607426904469722 18.245689655172416
decision_type=2 2 2 2 2
left_child=1 -1 3 -3 -5
right_child=-2 2 -4 4 -6
leaf_value=-0.023889391969495494 0.20084012114274086 0 -0.0082905445140845618 0.27583980407101866 -0.0056002980081836518
leaf_weight=24.89866140227241 0.28049504524096747 2.5270319208939354 18.178970817141817 2.7905957197363027 0.6702198537532239
leaf_count=60634 509 7223 52185 4434 990
internal_value=0 0.00466926 0.0357576 0.147272 0.227986
internal_weight=0 49.0655 24.1668 5.98785 3.46082
internal_count=125975 125466 64832 12647 5424
is_linear=0
shrinkage=0.1


Tree=13
num_leaves=6
num_cat=0
split_feature=9 0 9 5 5
split_gain=11.2342 7.01726 8.432 5.63595 5.01806
threshold=69414.413793103464 0.47806480630832165 20658.517241379315 1328616.8789682544 1854107.8750000007
decision_type=2 2 2 2 2
left_child=1 3 -3 -1 -2
right_child=4 2 -4 -5 -6
leaf_value=-0.045221160695880835 0.25988508464150017 0.23192095432654145 -0.023511987996698874 0.021943328660321622 0
leaf_weight=20.699024788584211 0.77158379636239149 0.98873349701170754 1.2494256893405689 25.469463918067049 0.51105401990935206
leaf_count=61384 314 775 2658 60988 191
internal_value=0 0.00206294 0.129312 -0.00762778 0.200256
internal_weight=0 48.4066 2.23816 46.1685 1.28264
internal_count=126310 125805 3433 122372 505
is_linear=0
shrinkage=0.1


Tree=14
num_leaves=6
num_cat=0
split_feature=0 11 10 0 10
split_gain=10.1494 8.50885 14.7293 5.31553 5.04343
threshold=0.65741898882570604 6478.06896551724 6897.2758620689647 0.20609152327824856 34947.362068965529
decision_type=2 2 2 2 2
left_child=1 2 -1 -3 -5
right_child=-2 3 -4 4 -6
leaf_value=0.0022815037706315935 0.23615024172909616 -0.036019303744676649 0.30760136458693976 0.055390873512220967 -0.054834286753285902
leaf_weight=5.3032703179633236 0.35892020032042538 23.714859286177671 0.71573147588060226 16.38049946665706 3.360363438652711
leaf_count=13503 500 73478 1631 29869 7568
internal_value=0 0.0116277 0.107959 -0.00431085 0.0311369
internal_weight=0 49.4747 6.019 43.4557 19.7409
internal_count=126549 126049 15134 110915 37437
is_linear=0
shrinkage=0.1


Tree=15
num_leaves=6
num_cat=0
split_feature=11 6 5 9 5
split_gain=9.00703 4.70564 8.0356 9.66686 6.34629
threshold=4198.9433497537038 2.3158866995073901 541538.21428571444 17999.844827586214 175491.46428571432
decision_type=2 2 2 2 2
left_child=-1 -2 3 -3 -5
right_child=1 2 -4 4 -6
leaf_value=0.19007633409538061 -0.072451004125010737 -0.017556896257679908 -0.0069149220092533008 -0.002949276573138827 0.26892310211492032
leaf_weight=0.70243683547596347 6.6649533881718517 2.2411106079234733 38.278331703651929 0.60272100869042367 1.5218696338852167
leaf_count=1502 22587 5656 90335 1654 4103
internal_value=0 -0.00353858 0.00853826 0.115058 0.212314
internal_weight=0 49.309 42.644 4.3657 2.12459
internal_count=125837 124335 101748 11413 5757
is_linear=0
shrinkage=0.1


Tree=16
num_leaves=6
num_cat=0
split_feature=0 9 11 9 0
split_gain=7.09544 7.78158 17.8426 7.70921 4.91192
threshold=0.12636531980804519 16867.67241379312 12229.98275862069 19234.586206896554 0.49191806592347814
decision_type=2 2 2 2 2
left_child=-1 4 3 -3 -2
right_child=1 2 -4 -5 -6
leaf_value=-0.041928830161845822 -0.042986446146489832 0 0.019159105372236501 0.32803639187636674 0.10460445876355842
leaf_weight=17.706194506245083 12.803751895015008 0.95026182624860966 16.037215325632133 1.5294037856074281 0.77163727366132739
leaf_count=55211 28426 1258 38864 1732 439
internal_value=0 0.0334831 0.0734928 0.256403 -0.0198493
internal_weight=0 32.0923 18.5169 2.47967 13.5754
internal_count=125930 70719 41854 2990 28865
is_linear=0
shrinkage=0.1


Tree=17
num_leaves=6
num_cat=0
split_feature=11 0 9 9 9
split_gain=8.16769 7.09497 6.88305 9.86864 7.45586
threshold=4198.9433497537038 0.12854104319535511 12119.553571428574 31839.62931034483 19513.431034482765
decision_type=2 2 2 2 2
left_child=-1 -2 -3 4 -4
right_child=1 2 3 -5 -6
leaf_value=0.17496674413492694 -0.055220549470783621 -0.052485708691818601 0.015136204116476147 -0.03045238141655339 0.15550190076682815
leaf_weight=0.83995509002124791 16.799434401444159 7.3134423161973237 8.84685846563662 8.7308049562270735 7.3019241993752066
leaf_count=1517 55306 16893 16391 20090 16355
internal_value=0 -0.0049103 0.0213151 0.0470857 0.0908185
internal_weight=0 48.9925 32.193 24.8796 16.1488
internal_count=126552 125035 69729 52836 32746
is_linear=0
shrinkage=0.1


Tree=18
num_leaves=6
num_cat=0
split_feature=9 9 11 2 9
split_gain=7.57479 3.94626 9.76364 6.92917 4.7402
threshold=69414.413793103464 16745.534482758627 13082.672413793111 0.1686230805422666 29908.568965517243
decision_type=2 2 2 2 2
left_child=1 -1 3 4 -3
right_child=-2 2 -4 -5 -6
leaf_value=-0.033466077098607667 0.15299993694147873 0.2394414808348897 -0.011391892184377471 0 0
leaf_weight=22.730808749649441 1.4629677273333062 2.1050609703961558 20.006499001246993 2.9419677333062282 0.51605694575118821
leaf_count=60637 485 4900 57053 2776 627
internal_value=0 -0.00359023 0.0214797 0.120759 0.199838
internal_weight=0 48.3004 25.5696 5.56309 2.62112
internal_count=126478 125993 65356 8303 5527
is_linear=0
shrinkage=0.1


Tree=19
num_leaves=6
num_cat=0
split_feature=2 0 1 0 9
split_gain=6.50607 9.3784 4.39306 3.72847 3.60028
threshold=0.032027825564112634 0.027661700899191403 0.12589892631878086 0.26863358193715148 29607.827586206902
decision_type=2 2 2 2 2
left_child=1 -1 -3 -2 -5
right_child=3 2 -4 4 -6
leaf_value=-0.036705912121133964 -0.031392797016831654 0.22684604934031349 0 0.058501704899642765 -0.028041545828210543
leaf_weight=1.8862322373897757 29.275257958623115 1.9500874153163752 0.5244650074164382 10.345909379961084 5.6012204994913182
leaf_count=6557 89681 5581 1043 12863 10748
internal_value=0 0.0990237 0.186774 -0.0100481 0.0253457
internal_weight=0 4.36078 2.47455 45.2224 15.9471
internal_count=126473 13181 6624 113292 23611
is_linear=0
shrinkage=0.1


Tree=20
num_leaves=6
num_cat=0
split_feature=2 10 9 5 3
split_gain=3.50299 4.75178 8.29439 7.52464 6.48855
threshold=0.076720991442130029 10813.586206896553 8746.8620689655163 858402.75000000023 7824744.0000000009
decision_type=2 2 2 2 2
left_child=1 2 -1 -4 -5
right_child=-2 -3 3 4 -6
leaf_value=-0.0090979385612608779 -0.018308784518617002 -0.0090183204890158641 -0.010480533200959707 0.31334002601034033 0
leaf_weight=2.9649079777882417 36.517453944979934 7.3537382507493021 0.80541383563831948 1.1644445941346928 0.47203998737677455
leaf_count=8265 87050 23533 2976 2991 1107
internal_value=0 0.0391331 0.0978744 0.188969 0.256621
internal_weight=0 12.7605 5.40681 2.4419 1.63648
internal_count=125922 38872 15339 7074 4098
is_linear=0
shrinkage=0.1


Tree=21
num_leaves=6
num_cat=0
split_feature=11 9 5 2 6
split_gain=5.16962 13.2183 5.67395 5.07698 4.2609
threshold=15875.034482758625 18952.672413793105 541538.21428571444 0.34348443153590125 2.0357142857142865
decision_type=2 2 2 2 2
left_child=1 -1 -2 4 -3
right_child=2 3 -4 -5 -6
leaf_value=0.0011792431491365971 0.062753174904919204 -0.0053470083893835587 -0.059819906171338359 -0.015445436522892909 0.18248253376424917
leaf_weight=26.122014885986573 3.2769520996225756 0.66362782045325541 11.459528015067916 0.9570937868556938 6.7840944178169593
leaf_count=67976 10707 1898 34161 736 10797
internal_value=0 0.0410416 -0.0254737 0.137616 0.162215
internal_weight=0 34.5268 14.7365 8.40482 7.44772
internal_count=126275 81407 44868 13431 12695
is_linear=0
shrinkage=0.1


Tree=22
num_leaves=6
num_cat=0
split_feature=9 0 9 1 7
split_gain=12.2682 9.03671 9.31412 6.41029 13.1033
threshold=69414.413793103464 0.20005617988834204 29908.568965517243 0.22055059714664299 6.8774630541871931
decision_type=2 2 2 2 2
left_child=1 -1 3 4 -3
right_child=-2 2 -4 -5 -6
leaf_value=-0.036662508727081357 0.19891486586312904 0 -0.045082023441114963 0.032850450572068222 0.29202260174926792
leaf_weight=25.552541931116139 1.6295777154155064 2.3018779663107187 6.0826761617790899 12.691547981710753 1.8354946776235008
leaf_count=84295 491 4115 15615 18867 2772
internal_value=0 0.00192462 0.0466478 0.083814 0.173741
internal_weight=0 48.4641 22.9116 16.8289 4.13737
internal_count=126155 125664 41369 25754 6887
is_linear=0
shrinkage=0.1


Tree=23
num_leaves=6
num_cat=0
split_feature=0 11 9 4 0
split_gain=9.73627 7.92492 18.6851 8.82694 3.66869
threshold=0.65741898882570604 8634.5000000000018 8746.8620689655163 899248.7857142858 0.093601086080158352
decision_type=2 2 2 2 2
left_child=1 2 -1 -4 -3
right_child=-2 4 3 -5 -6
leaf_value=-0.029269470239852664 0.22106719295175883 -0.072993533802789126 -0.016604362722743338 0.23765643162389016 0
leaf_weight=7.1502866805531067 0.46027843980118532 6.8384604716848107 0.99648425323539402 4.1968327738286462 30.727210353288683
leaf_count=20951 469 25118 3417 9264 67111
internal_value=0 0.00678398 0.0714703 0.189561 -0.0154205
internal_weight=0 49.9093 12.3436 5.19332 37.5657
internal_count=126330 125861 33632 12681 92229
is_linear=0
shrinkage=0.1


Tree=24
num_leaves=6
num_cat=0
split_feature=0 11 9 4 4
split_gain=6.27845 5.32791 8.98632 4.70552 3.08414
threshold=0.65741898882570604 8634.5000000000018 8409.6034482758641 899248.7857142858 4685969.1428571446
decision_type=2 2 2 2 2
left_child=1 2 -1 -4 -3
right_child=-2 4 3 -5 -6
leaf_value=-0.034097748397380966 0.15680207026567403 -0.044255767199298982 -0.019861410326882982 0.14272433830968123 0.015292998886870426
leaf_weight=6.2895869222120364 0.63713565748184819 27.452718681146507 1.1097147464897714 5.7187574148847489 9.6990926917351299
leaf_count=18920 499 71520 3866 10679 21248
internal_value=0 -0.00727828 0.0424474 0.111508 -0.0273551
internal_weight=0 50.2699 13.1181 6.82847 37.1518
internal_count=126732 126233 33465 14545 92768
is_linear=0
shrinkage=0.1


Tree=25
num_leaves=6
num_cat=0
split_feature=9 0 8 6 9
split_gain=7.90627 3.85259 2.81057 4.27529 3.47074
threshold=69414.413793103464 0.65741898882570604 2.482758620689657 6.5264778325123167 29607.827586206902
decision_type=2 2 2 2 2
left_child=1 2 -1 4 -4
right_child=-2 -3 3 -5 -6
leaf_value=-0.053156704798346679 0.14126586157297955 0.11213908323741828 0.072310821478883 -0.022884972857312461 -0.037358967512387098
leaf_weight=11.70823203747568 2.0307268558535716 0.67975393973756482 9.3762486741179583 24.539013736706693 1.923380104402894
leaf_count=40388 488 492 23628 54572 6477
internal_value=0 -0.00746298 -0.0142885 0 0.0470081
internal_weight=0 48.2266 47.5469 35.8386 11.2996
internal_count=126045 125557 125065 84677 30105
is_linear=0
shrinkage=0.1


Tree=26
num_leaves=6
num_cat=0
split_feature=10 3 11 9 11
split_gain=9.73859 3.52768 3.26037 10.6123 5.62422
threshold=67780.715517241391 2372580.0714285718 16613.775862068967 16745.534482758627 10586.275862068966
decision_type=2 2 2 2 2
left_child=2 -2 3 -1 -5
right_child=1 -3 -4 4 -6
leaf_value=-0.037773986208652272 0 0.22165936720075785 -0.053447146414373717 0.16962083589752996 0.022765583997783976
leaf_weight=22.818962708552135 0.4513703485863505 0.76404231932247058 11.789562925769131 2.3733179552946231 12.250642316503216
leaf_count=60744 235 289 40786 2059 22129
internal_value=0 0.173511 -0.0112639 0.00250854 0.0658497
internal_weight=0 1.21541 49.2325 37.4429 14.624
internal_count=126242 524 125718 84932 24188
is_linear=0
shrinkage=0.1


Tree=27
num_leaves=6
num_cat=0
split_feature=0 9 1 2 0
split_gain=7.0331 5.36634 6.00417 3.16547 2.97246
threshold=0.65741898882570604 69414.413793103464 0.22441287320775952 0.41570839828582901 0.13181737699505217
decision_type=2 2 2 2 2
left_child=1 4 -3 -2 -1
right_child=3 2 -4 -5 -6
leaf_value=-0.035915535483179106 0.22600685564388803 0.18924117855640982 -0.020664009817765717 0 0.014825931673596048
leaf_weight=15.876796028838724 0.42542105173924838 1.392178253270685 1.1327519849874077 0.39354595268378034 30.626330871658865
leaf_count=57618 216 249 256 284 67559
internal_value=0 0.00662515 0.113412 0.177056 -0.00209053
internal_weight=0 49.0281 2.52493 0.818967 46.5031
internal_count=126182 125682 505 500 125177
is_linear=0
shrinkage=0.1


Tree=28
num_leaves=6
num_cat=0
split_feature=11 9 0 0 4
split_gain=4.03606 6.00288 4.78183 4.60481 4.37499
threshold=8634.5000000000018 10788.258620689661 0.12636531980804519 0.14170580657678727 4823706.05357143
decision_type=2 2 2 2 2
left_child=1 -1 -2 -4 -5
right_child=2 -3 3 4 -6
leaf_value=0.0019228119727046208 -0.067618590781263796 0.14104010733361347 0.12322971810579118 -0.027641601616802732 0.054738799299463653
leaf_weight=10.231372530368388 8.4888034706164017 3.2740497189515727 1.4529616945073964 19.344529717971458 7.4124203938263227
leaf_count=28957 36049 4494 4926 38676 13190
internal_value=0 0.0517717 -0.00834925 0.0107052 -0.000940232
internal_weight=0 13.5054 36.6987 28.2099 26.757
internal_count=126292 33451 92841 56792 51866
is_linear=0
shrinkage=0.1


Tree=29
num_leaves=6
num_cat=0
split_feature=0 2 11 1 9
split_gain=6.14783 7.67376 5.29 4.17103 3.16145
threshold=0.093601086080158352 0.074843324513264906 4715.6379310344864 0.19155416602965003 12520.275862068966
decision_type=2 2 2 2 2
left_child=-1 3 -3 4 -2
right_child=1 2 -4 -5 -6
leaf_value=-0.056304173395952756 0 0.14586541888891674 -0.002370912828908995 -0.0078669888302906488 0.20846970649054325
leaf_weight=10.399259748410257 0.41501812713249808 0.73747092227858857 35.364501131494762 0.72990178409963835 2.1666200725958333
leaf_count=39175 863 1103 79177 1086 4189
internal_value=0 0.024158 0.00605183 0.139395 0.179273
internal_weight=0 39.4135 36.102 3.31154 2.58164
internal_count=125593 86418 80280 6138 5052
is_linear=0
shrinkage=0.1


Tree=30
num_leaves=6
num_cat=0
split_feature=2 6 4 4 5
split_gain=3.38223 4.235 6.50614 3.35124 6.39227
threshold=0.029659772991882317 3.6206896551724137 1870216.9107142861 3198523.9285714291 2758717.3571428577
decision_type=2 2 2 2 2
left_child=1 -1 -3 -2 -5
right_child=3 2 -4 4 -6
leaf_value=-0.02335877919036522 -0.022006435401429974 0.22450487455873094 0 0.10584429424156246 -0.0059824291823798231
leaf_weight=1.2435994441548239 26.765026188870252 1.0520871335029371 1.5288062756735596 5.6093319042047396 13.425623311282832
leaf_count=5170 74463 2572 3654 12177 28003
internal_value=0 0.0824 0.134141 0 0.0307282
internal_weight=0 3.82449 2.58089 45.8 19.035
internal_count=126039 11396 6226 114643 40180
is_linear=0
shrinkage=0.1


Tree=31
num_leaves=6
num_cat=0
split_feature=0 11 9 8 5
split_gain=3.94317 4.83674 8.75677 2.81858 3.3655
threshold=0.65741898882570604 7179.7068965517255 8409.6034482758641 2.2413793103448287 541538.21428571444
decision_type=2 2 2 2 2
left_child=1 2 -1 -3 -5
right_child=-2 3 -4 4 -6
leaf_value=-0.0083640779337402354 0.1298228545594759 -0.056333012864109404 0.17157616139487708 0.093653099372512399 -0.0056865948990854074
leaf_weight=5.1085631960449964 0.92229882662650098 8.1106569998592004 2.7043264446547255 1.9495624898263475 31.376334534099442
leaf_count=16966 505 29629 4046 4368 70923
internal_value=0 0.0041845 0.0688897 -0.00915027 0.00312121
internal_weight=0 49.2494 7.81289 41.4366 33.3259
internal_count=126437 125932 21012 104920 75291
is_linear=0
shrinkage=0.1


Tree=32
num_leaves=6
num_cat=0
split_feature=9 9 6 8 5
split_gain=5.33172 5.10557 4.93652 5.02715 5.05138
threshold=69414.413793103464 27480.620689655178 12.561576354679806 3.8947044334975365 688883.37500000012
decision_type=2 2 2 2 2
left_child=1 2 3 4 -1
right_child=-2 -3 -4 -5 -6
leaf_value=0.053677558896133903 0.11451549071141778 -0.054748225711454185 -0.035021197247601797 0.080669677844987409 -0.052843513416044846
leaf_weight=6.8285154956684 2.9455023254267862 9.9677920628091652 9.4643996392624086 13.833803316418196 7.3778521438653115
leaf_count=25676 518 32728 17973 29276 19803
internal_value=0 0.00190968 0.0201437 0.0415383 0
internal_weight=0 47.4724 37.5046 28.0402 14.2064
internal_count=125974 125456 92728 74755 45479
is_linear=0
shrinkage=0.1


Tree=33
num_leaves=6
num_cat=0
split_feature=5 10 11 5 9
split_gain=3.82874 5.5968 4.16727 3.31065 2.18792
threshold=541538.21428571444 13093.724137931038 4715.6379310344864 187016.00000000003 29908.568965517243
decision_type=2 2 2 2 2
left_child=1 -1 -2 -3 -4
right_child=2 3 4 -5 -6
leaf_value=-0.02640190747794351 0.090638610254056701 0 -0.0094585889439209002 0.14380267046918518 -0.066920774241259445
leaf_weight=4.081309326895278 1.4578986818814872 2.0892167135971249 31.657903347062529 3.6266496421885677 8.2027462843689118
leaf_count=14520 2082 7489 71278 9119 21714
internal_value=0 0.0485401 -0.0160125 0.102624 -0.0249467
internal_weight=0 9.79718 41.3185 5.71587 39.8606
internal_count=126202 31128 95074 16608 92992
is_linear=0
shrinkage=0.1


Tree=34
num_leaves=6
num_cat=0
split_feature=0 1 4 6 0
split_gain=4.78531 6.91222 4.45376 6.54809 4.47334
threshold=0.093601086080158352 0.098453760464095333 3198523.9285714291 10.482758620689658 0.49191806592347814
decision_type=2 2 2 2 2
left_child=-1 -2 4 -4 -3
right_child=1 2 3 -5 -6
leaf_value=-0.055861349652788106 0.12619052116892124 -0.046078740517740364 0.11250588015755369 -0.0066811793755818865 0.071800223166283969
leaf_weight=10.274357500413315 3.174650948298221 19.16559709121066 5.3762452410519463 10.310587777668841 1.842353663581888
leaf_count=39287 7167 48878 9224 19707 1807
internal_value=0 0.0156156 0 0.0385158 -0.0285468
internal_weight=0 39.8694 36.6948 15.6868 21.008
internal_count=126070 86783 79616 28931 50685
is_linear=0
shrinkage=0.1


Tree=35
num_leaves=6
num_cat=0
split_feature=11 9 7 4 11
split_gain=5.69206 5.26665 3.07709 2.54813 4.36072
threshold=4715.6379310344864 69414.413793103464 2.035098522167488 1144604.3750000002 10586.275862068966
decision_type=2 2 2 2 2
left_child=1 -1 -2 -4 -5
right_child=2 -3 3 4 -6
leaf_value=-0.00085054333692325822 -0.07169078294202956 0.20558113628342634 0.048567963248059322 0.023804842133258314 -0.042689822963402936
leaf_weight=1.558483930624788 6.4205846662953254 0.54589643329381932 5.7760347849834934 14.547292552619181 21.414521204074845
leaf_count=2948 25822 6 15317 29631 52294
internal_value=0 0.109261 -0.015416 -0.00292488 -0.0145299
internal_weight=0 2.10438 48.1584 41.7378 35.9618
internal_count=126018 2954 123064 97242 81925
is_linear=0
shrinkage=0.1


Tree=36
num_leaves=6
num_cat=0
split_feature=11 0 8 0 3
split_gain=6.3579 3.21988 3.22741 3.90614 2.99055
threshold=4198.9433497537038 0.27637786683424481 1.1403940886699508 0.38739028095897965 499502.37103174609
decision_type=2 2 2 2 2
left_child=-1 -2 3 -3 -5
right_child=1 2 -4 4 -6
leaf_value=0.13935749682446325 -0.020698527639862099 -0.0074983847506393522 0.0072166207832316913 0 0.23259367384852656
leaf_weight=1.5995083074958518 31.370080834662076 0.71986115548498009 15.194486954038437 0.34957048240175936 0.3817786803265335
leaf_count=1453 102250 1589 19635 502 472
internal_value=0 -0.0011313 0.0312779 0.123233 0.186674
internal_weight=0 48.0158 16.6457 1.45121 0.731349
internal_count=125901 124448 22198 2563 974
is_linear=0
shrinkage=0.1


Tree=37
num_leaves=6
num_cat=0
split_feature=0 11 9 2 1
split_gain=6.98121 6.65954 5.5931 2.8272 2.50346
threshold=0.65741898882570604 6478.06896551724 8746.8620689655163 0.41570839828582901 0.32091213470295793
decision_type=2 2 2 2 2
left_child=1 2 -1 -2 -3
right_child=3 4 -4 -5 -6
leaf_value=0 0.19079045615252366 -0.040325404102301773 0.15461970224901858 0 0.014931105685140384
leaf_weight=4.4189642117562462 0.69294819270726182 33.877702646583202 2.1640742825111374 0.45956668414874002 7.9914661782895555
leaf_count=13845 216 100534 1226 284 10208
internal_value=0 -0.012231 0.0681383 0.145538 -0.0283789
internal_weight=0 48.4522 6.58304 1.15251 41.8692
internal_count=126313 125813 15071 500 110742
is_linear=0
shrinkage=0.1


Tree=38
num_leaves=6
num_cat=0
split_feature=8 1 0 11 0
split_gain=4.7213 6.7915 11.986 6.73189 5.60513
threshold=3.3158866995073888 0.22441287320775952 0.20609152327824856 17177.896551724141 0.47806480630832165
decision_type=2 2 2 2 2
left_child=4 2 -2 -4 -1
right_child=1 -3 3 -5 -6
leaf_value=-0.048760885119902807 0.015731261908249871 -0.017528082719883941 0.22478356839953856 0 0.093263684453373352
leaf_weight=14.433698687178547 15.689143335293922 11.915779969094727 4.0663036230253047 1.337434587847383 1.4383613477984898
leaf_count=52667 47595 17814 3228 3689 1291
internal_value=0 0.0379266 0.070491 0.178361 -0.0246735
internal_weight=0 33.0087 21.0929 5.40374 15.8721
internal_count=126284 72326 54512 6917 53958
is_linear=0
shrinkage=0.1


Tree=39
num_leaves=6
num_cat=0
split_feature=2 0 9 5 6
split_gain=6.13101 6.7381 6.17114 5.43938 5.98002
threshold=0.076720991442130029 0.073450050940594327 35626.482758620696 733765.85714285728 2.7586206896551739
decision_type=2 2 2 2 2
left_child=1 -1 -3 4 -2
right_child=3 2 -4 -5 -6
leaf_value=0 -0.025945018932374858 0.18260319819938176 -0.018461918613913091 -0.031905425899547049 0.11142729047294866
leaf_weight=7.0506821734670648 4.0398843499933701 3.9446054675427149 1.0531040823188957 27.988751684395538 4.8964492195518687
leaf_count=29330 15236 7143 2512 61975 10205
internal_value=0 0.0677427 0.138752 -0.00918023 0.0504434
internal_weight=0 12.0484 4.99771 36.9251 8.93633
internal_count=126401 38985 9655 87416 25441
is_linear=0
shrinkage=0.1


Tree=40
num_leaves=6
num_cat=0
split_feature=10 0 4 3 10
split_gain=3.96566 2.59576 4.40484 6.92447 2.87241
threshold=67780.715517241391 0.29614620272712594 3599943.3035714291 12020336.357758624 15856.120689655176
decision_type=2 2 2 2 2
left_child=1 -1 -3 4 -4
right_child=-2 2 3 -5 -6
leaf_value=-0.015620669747845853 0.11198513450335608 -0.0072314571316746947 0.20711846974273282 -0.020001606704611076 0
leaf_weight=32.793269506735669 1.5847195576425281 9.3027107376183249 1.8622794773255003 2.3580104649299756 1.4668640869786029
leaf_count=107030 496 11972 1243 3264 2324
internal_value=0 0 0.0322949 0.0902243 0.158254
internal_weight=0 47.7831 14.9899 5.68715 3.32914
internal_count=126329 125833 18803 6831 3567
is_linear=0
shrinkage=0.1


Tree=41
num_leaves=6
num_cat=0
split_feature=0 8 6 5 9
split_gain=3.22306 5.07442 4.74255 4.43641 2.66557
threshold=0.65741898882570604 2.482758620689657 3.6668719211822656 657086.03571428591 17875.620689655178
decision_type=2 2 2 2 2
left_child=1 -1 3 4 -3
right_child=-2 2 -4 -5 -6
leaf_value=-0.06410342684687502 0.097098776906803519 0 -0.00031356419338311877 0 0.23832744980470949
leaf_weight=10.230006822341236 1.3664874443784345 0.29378601409553029 35.507718454187852 1.3977468807061084 0.34488217863690807
leaf_count=40668 481 783 79753 4167 656
internal_value=0 -0.0068647 0.00960328 0.115292 0.19763
internal_weight=0 47.7741 37.5441 2.03642 0.638668
internal_count=126508 126027 85359 5606 1439
is_linear=0
shrinkage=0.1


Tree=42
num_leaves=6
num_cat=0
split_feature=1 11 5 0 11
split_gain=6.24497 5.92597 6.81944 6.86633 6.74028
threshold=0.22055059714664299 17288.757389162562 1545179.1785714289 0.12636531980804519 9240.844827586212
decision_type=2 2 2 2 2
left_child=1 2 -1 -4 -5
right_child=-2 -3 3 4 -6
leaf_value=0 -0.037142746256678558 -0.043229189408637209 0.0044106800433430567 0.0058959115055668984 0.20920731394071768
leaf_weight=11.307578781874332 17.763047473097686 5.8192295719927634 6.1121551833348331 3.0606022534484509 4.7435144594273879
leaf_count=40804 29287 25844 17850 4704 7479
internal_value=0 0.0338467 0.0552962 0.0979538 0.151092
internal_weight=0 31.0431 25.2239 13.9163 7.80412
internal_count=125968 96681 70837 30033 12183
is_linear=0
shrinkage=0.1


Tree=43
num_leaves=6
num_cat=0
split_feature=11 10 7 10 0
split_gain=3.44319 5.51376 4.51996 3.57056 3.54962
threshold=15074.350369458132 18124.500000000011 3.6668719211822656 22370.206896551728 0.1607426904469722
decision_type=2 2 2 2 2
left_child=1 4 3 -2 -1
right_child=2 -3 -4 -5 -6
leaf_value=-0.013042083394072016 -0.030261255278384098 0.14745394568545855 -0.05305961832681097 0.10426132900809203 0.049006525219991853
leaf_weight=13.520780469079908 1.5448661629634433 2.664604029567271 9.5402890438708692 2.7309310725649993 19.055494041684142
leaf_count=47573 6813 2924 30738 11142 26861
internal_value=0 0.0399875 -0.0147527 0.0523471 0.0223723
internal_weight=0 35.2409 13.8161 4.2758 32.5763
internal_count=126051 77358 48693 17955 74434
is_linear=0
shrinkage=0.1


Tree=44
num_leaves=6
num_cat=0
split_feature=0 9 10 3 5
split_gain=4.60623 9.02187 4.10433 4.46291 4.02804
threshold=0.47806480630832165 20658.517241379315 20900.310344827591 6470743.80357143 1631375.7480158734
decision_type=2 2 2 2 2
left_child=2 4 -1 -4 -2
right_child=1 -3 3 -5 -6
leaf_value=-0.024948159899213684 0.23303623156619083 -0.039708290183161965 -0.0059776580670056062 0.11162207000945108 0
leaf_weight=35.874147885435377 1.2731511348392808 2.0577365666249534 5.9860199538452417 3.4413309231822495 0.98539197299396608
leaf_count=89415 392 2709 23174 10561 375
internal_value=0 0.0835364 -0.00851387 0.0432469 0.176692
internal_weight=0 4.31628 45.3015 9.42735 2.25854
internal_count=126626 3476 123150 33735 767
is_linear=0
shrinkage=0.1


Tree=45
num_leaves=6
num_cat=0
split_feature=11 9 5 11 8
split_gain=5.37473 8.19848 3.84795 5.75513 2.90615
threshold=6478.06896551724 8746.8620689655163 541538.21428571444 12843.465517241386 3.6668719211822656
decision_type=2 2 2 2 2
left_child=1 -1 3 -2 -5
right_child=2 -3 -4 4 -6
leaf_value=-0.010721148942872009 -0.037611961954834426 0.17088640313498371 -0.028211352116763413 0.12803728868459732 -0.010542785362820106
leaf_weight=4.1709062977606655 3.5294870119978423 2.5742237939703045 34.755740573127696 4.011815508500149 0.80530564965738438
leaf_count=13756 12303 1204 84337 13352 1337
internal_value=0 0.0737993 -0.0126503 0.0404009 0.100272
internal_weight=0 6.74513 43.1023 8.34661 4.81712
internal_count=126289 14960 111329 26992 14689
is_linear=0
shrinkage=0.1


Tree=46
num_leaves=6
num_cat=0
split_feature=1 0 3 6 9
split_gain=3.98589 6.61351 4.50219 4.21996 4.08234
threshold=0.035064203916945598 0.027661700899191403 1034982.8035714288 3.2413793103448287 17242.350369458134
decision_type=2 2 2 2 2
left_child=1 -1 4 -3 -2
right_child=2 3 -4 -5 -6
leaf_value=-0.026621770278286036 -0.007367332216212834 -0.00075407606032065365 0 0.21664739249813683 0.14002967281832499
leaf_weight=1.3790989413100754 1.7946503506427678 0.54812057677190784 40.824432434801565 1.7502506229429853 2.8882683967167395
leaf_count=6447 8717 1941 96644 3607 8381
internal_value=0 0.105279 0.0115964 0.174298 0.0889995
internal_weight=0 3.67747 45.5074 2.29837 4.68292
internal_count=125737 11995 113742 5548 17098
is_linear=0
shrinkage=0.1


Tree=47
num_leaves=6
num_cat=0
split_feature=5 0 9 11 1
split_gain=8.0339 6.52641 5.36132 4.2273 6.35195
threshold=2153813.9107142864 0.65741898882570604 17242.350369458134 14979.534482758618 0.097552136069028225
decision_type=2 2 2 2 2
left_child=1 2 -1 4 -4
right_child=-2 -3 3 -5 -6
leaf_value=-0.037844508401702344 -0.056747702423134795 0.15852352376292822 -0.034493420918951266 -0.0016185131601327688 0.13211708297819844
leaf_weight=13.199620726813015 19.617307569285913 1.3732516755117092 1.7381082062056545 8.6892074331699387 5.895532800219371
leaf_count=43658 40361 339 3811 31638 5939
internal_value=0 0.0216376 0.004808 0.0425692 0.0892002
internal_weight=0 30.8957 29.5225 16.3228 7.63364
internal_count=125746 85385 85046 41388 9750
is_linear=0
shrinkage=0.1


Tree=48
num_leaves=6
num_cat=0
split_feature=11 10 8 0 1
split_gain=2.84149 3.52628 2.98021 2.28183 2.50516
threshold=17288.757389162562 18124.500000000011 3.6317733990147794 0.12636531980804519 0.32565996781996798
decision_type=2 2 2 2 2
left_child=1 -1 -3 -4 -5
right_child=-2 2 3 4 -6
leaf_value=0.0001087404177356008 -0.040148972882977509 -0.0037991948476786778 0 0.17286102938889653 0
leaf_weight=34.274908705756388 10.419484403537352 1.6565438084580808 0.51001789545262033 2.2670790243864762 0.43723963924276166
leaf_count=80114 38465 3555 1657 2307 430
internal_value=0 0.0146348 0.0812193 0.121253 0.146378
internal_weight=0 39.1458 4.87088 3.21434 2.70432
internal_count=126528 88063 7949 4394 2737
is_linear=0
shrinkage=0.1


Tree=49
num_leaves=6
num_cat=0
split_feature=5 10 9 6 8
split_gain=3.14643 4.13934 5.25198 4.42304 3.92783
threshold=1580991.2321428573 13354.689655172415 13314.741379310342 5.3509852216748781 0.62068965517241426
decision_type=2 2 2 2 2
left_child=4 2 3 -2 -1
right_child=1 -3 -4 -5 -6
leaf_value=0.078032557128144886 0.12315144310512503 0 0.14667373621682289 -0.01869557063306761 -0.027064967993101693
leaf_weight=2.2743246608879444 1.0059987137574369 13.173857222202058 4.3048305701231575 7.2116479668402462 21.501430280783097
leaf_count=9388 2457 31243 5332 15843 61873
internal_value=0 0.0376845 0.0749348 0.0124034 -0.0101362
internal_weight=0 25.6963 12.5225 8.21765 23.7758
internal_count=126136 54875 23632 18300 71261
is_linear=0
shrinkage=0.1


Tree=50
num_leaves=6
num_cat=0
split_feature=2 0 4 7 6
split_gain=4.08074 4.4291 3.7854 3.74955 3.63974
threshold=0.032027825564112634 0.027661700899191403 3395233.6250000005 5.4827586206896575 12.982758620689657
decision_type=2 2 2 2 2
left_child=1 -1 3 -2 -4
right_child=2 -3 4 -5 -6
leaf_value=-0.024983934915465161 0 0.12959280983092197 0.072146285571352775 -0.075277892983680775 -0.0072913982698803144
leaf_weight=1.3096641784868541 18.470599235359263 3.5335328076398582 9.3649888745494554 7.5537117498461148 9.1197479071270191
leaf_count=6462 58265 6529 17679 17623 19903
internal_value=0 0.0843508 0 -0.0236262 0.033168
internal_weight=0 4.8432 44.509 26.0243 18.4847
internal_count=126461 12991 113470 75888 37582
is_linear=0
shrinkage=0.1


Tree=51
num_leaves=6
num_cat=0
split_feature=4 2 4 4 6
split_gain=7.73582 4.13213 5.59513 4.49525 5.43843
threshold=1870216.9107142861 0.074843324513264906 1128897.2500000002 956719.92857142875 2.4913793103448278
decision_type=2 2 2 2 2
left_child=1 2 -1 4 -3
right_child=-2 3 -4 -5 -6
leaf_value=0 -0.027436847698754843 -0.019664373766830473 0.1882009350478811 -0.043644198024501403 0.11793601955737319
leaf_weight=3.465233061531765 31.024916504298744 3.5775865614050399 2.3827814464384574 5.870506858031149 4.2694424364817678
leaf_count=14173 66335 13428 6462 17442 8185
internal_value=0 0.0497407 0.109857 0.0108926 0.0577389
internal_weight=0 19.5656 5.84801 13.7175 7.84703
internal_count=126025 59690 20635 39055 21613
is_linear=0
shrinkage=0.1


Tree=52
num_leaves=6
num_cat=0
split_feature=1 0 0 0 2
split_gain=2.80361 4.07899 3.93876 2.64351 4.81064
threshold=0.029649234363840319 0.027661700899191403 0.16197475815292872 0.29912683765894849 0.29388809597635546
decision_type=2 2 2 2 2
left_child=1 -1 -3 -2 -5
right_child=3 2 -4 4 -6
leaf_value=-0.024699123738408678 -0.025991204660457807 0.18940895941721669 -0.0061625190919445891 0.077620611401933881 -0.021795873112162207
leaf_weight=1.2979194375584477 30.900290164136095 1.0535289219551485 0.67710350167180866 6.6793097547342759 8.8292292492551478
leaf_count=6434 98990 2209 353 6741 11638
internal_value=0 0.0709591 0.133746 -0.00877972 0.0215742
internal_weight=0 3.02855 1.73063 46.4088 15.5085
internal_count=126365 8996 2562 117369 18379
is_linear=0
shrinkage=0.1


Tree=53
num_leaves=6
num_cat=0
split_feature=1 0 8 5 6
split_gain=4.33272 3.84369 3.34023 4.54175 2.84158
threshold=0.035064203916945598 0.027661700899191403 0.68965517241379304 187016.00000000003 3.2413793103448287
decision_type=2 2 2 2 2
left_child=1 -1 3 -2 -3
right_child=2 4 -4 -5 -6
leaf_value=-0.024518899361257101 -0.010869535856375928 -0.0041968404541842478 -0.021248518034680336 0.16789403271997147 0.15007147209524241
leaf_weight=1.2905130790022656 1.9312075478046602 0.63177349865873145 42.430553462952957 0.53084791388391739 2.676819673506543
leaf_count=6527 7463 1942 105780 807 3572
internal_value=0 0.07495 -0.0126021 0.069902 0.119119
internal_weight=0 4.59911 44.8926 2.46206 3.30859
internal_count=126091 12041 114050 8270 5514
is_linear=0
shrinkage=0.1


Tree=54
num_leaves=6
num_cat=0
split_feature=3 9 4 9 3
split_gain=4.55618 2.9022 2.66485 3.60268 3.31624
threshold=8780230.8392857164 23821.720443349757 4560893.4464285718 11361.017241379313 1034982.8035714288
decision_type=2 2 2 2 2
left_child=2 -2 4 -4 -1
right_child=1 -3 3 -5 -6
leaf_value=0.065883249433994748 -0.075979548856535295 0.013868703534858208 -0.020035242207103014 0.12443450983915882 -0.0058876861437963902
leaf_weight=6.17871789748824 7.838143370638134 3.574197909245413 1.1164439956410195 3.2146535251886235 27.672389967421623
leaf_count=20473 15867 9426 2362 6193 71897
internal_value=0 -0.0457614 0.0216368 0.0835788 0.00839066
internal_weight=0 11.4123 38.1822 4.3311 33.8511
internal_count=126218 25293 100925 8555 92370
is_linear=0
shrinkage=0.1


Tree=55
num_leaves=6
num_cat=0
split_feature=4 7 8 1 0
split_gain=3.07389 4.85148 5.13549 2.48423 3.81015
threshold=9621820.4107142892 9.2807881773399039 8.017241379310347 0.22441287320775952 0.15823303038368469
decision_type=2 2 2 2 2
left_child=1 2 -1 4 -2
right_child=3 -3 -4 -5 -6
leaf_value=0.0074770032258068319 -0.007619119986570261 -0.049611919757822663 0.13260775130191457 0 0.17588144044519374
leaf_weight=33.492781681408815 0.72461281631694863 10.656140144703384 2.0478064144626833 1.4468308283539952 1.4846087165933566
leaf_count=91624 3110 23536 2924 2963 1989
internal_value=0 0.00326127 0.0221704 0.0844495 0.126065
internal_weight=0 46.1967 35.5406 3.65605 2.20922
internal_count=126146 118084 94548 8062 5099
is_linear=0
shrinkage=0.1


Tree=56
num_leaves=6
num_cat=0
split_feature=0 2 9 3 9
split_gain=2.76161 2.99636 4.32921 4.19388 2.42906
threshold=0.093601086080158352 0.11278264099825143 12119.553571428574 4648850.3214285737 56090.68965517242
decision_type=2 2 2 2 2
left_child=-1 2 -2 4 -4
right_child=1 -3 3 -5 -6
leaf_value=-0.040878446654178065 -0.036582773316742569 0 0.16395805550329048 0 0
leaf_weight=8.9060745056558499 1.8755617957285702 30.809766544505692 3.5831611615758447 3.1049948656291235 1.0217722922134269
leaf_count=39347 4959 67921 7402 5604 1224
internal_value=0 0.0155966 0.0594308 0.0908898 0.137137
internal_weight=0 40.3953 9.58549 7.70993 4.60493
internal_count=126457 87110 19189 14230 8626
is_linear=0
shrinkage=0.1


Tree=57
num_leaves=6
num_cat=0
split_feature=5 5 6 6 5
split_gain=1.39067 4.94095 5.46467 3.87762 3.83585
threshold=541538.21428571444 480427.41071428574 4.9827586206896557 3.6668719211822656 1328616.8789682544
decision_type=2 2 2 2 2
left_child=1 2 -1 -3 -2
right_child=4 3 -4 -5 -6
leaf_value=-0.038661068896288481 -0.039690815406015101 0.20875031132595462 0.094266636539692972 -0.001384846986330082 0.026454219939334413
leaf_weight=6.8693964491030766 10.320039809295848 0.87318905899519339 2.917482740849664 0.56279387828544714 28.020995625480282
leaf_count=24224 32136 2071 3979 937 62526
internal_value=0 0.0469931 0.00487844 0.155055 0.00634092
internal_weight=0 11.2229 9.78688 1.43598 38.341
internal_count=125873 31211 28203 3008 94662
is_linear=0
shrinkage=0.1


Tree=58
num_leaves=6
num_cat=0
split_feature=9 1 0 5 5
split_gain=3.68575 4.322 4.70758 3.89875 5.40701
threshold=17875.620689655178 0.18584392496815572 0.093601086080158352 2658633.339285715 480427.41071428574
decision_type=2 2 2 2 2
left_child=-1 2 -2 4 -4
right_child=1 -3 3 -5 -6
leaf_value=-0.018664533554493254 -0.024476072652432609 -0.0037994285970930444 0 0 0.16783621685933875
leaf_weight=23.06272102593357 2.609089069679615 13.575937402743874 2.2141854886576748 3.0327398975932738 5.7395338038440968
leaf_count=65190 14380 23382 4854 6077 12403
internal_value=0 0.033239 0.069792 0.0966347 0.127421
internal_weight=0 27.1715 13.5955 10.9865 7.95372
internal_count=126286 61096 37714 23334 17257
is_linear=0
shrinkage=0.1


Tree=59
num_leaves=6
num_cat=0
split_feature=11 5 6 3 7
split_gain=5.33718 3.12508 2.64022 1.91649 2.67041
threshold=15875.034482758625 541538.21428571444 2.9437781109445282 16844701.058497544 6.3860837438423657
decision_type=2 2 2 2 2
left_child=3 2 -2 4 -1
right_child=1 -3 -4 -5 -6
leaf_value=0.011064617839481206 -0.037018488326335808 -0.067965748362422237 0.076079098203446813 -0.026349876544419427 0.069950320003218533
leaf_weight=19.97715887058439 1.9019242710237438 8.582138690446298 2.3125525355062564 2.6123659453805876 15.608429200918179
leaf_count=52324 7140 34222 3515 4342 24815
internal_value=0 -0.0362933 0.0204002 0.0335644 0.0404454
internal_weight=0 12.7966 4.21448 38.198 35.5856
internal_count=126358 44877 10655 81481 77139
is_linear=0
shrinkage=0.1


Tree=60
num_leaves=6
num_cat=0
split_feature=8 5 8 3 6
split_gain=2.47212 4.22133 3.19572 3.2408 2.29517
threshold=8.1052955665024662 733765.85714285728 8.947660098522169 8518447.4710591156 5.1379310344827607
decision_type=2 2 2 2 2
left_child=1 -1 3 -2 -3
right_child=2 4 -4 -5 -6
leaf_value=0.027725399381099042 0.15175397969339521 0.0022919578196012032 0.0028454407368667671 -0.0089098797045728626 -0.057873668188463047
leaf_weight=13.993715635340775 1.8425762421866232 7.2427713096949473 11.871971061362272 0.7547428848556591 15.47879391090464
leaf_count=38838 2653 22401 27230 1133 34175
internal_value=0 -0.0112942 0.0349976 0.108461 -0.0377674
internal_weight=0 36.7153 14.4693 2.59732 22.7216
internal_count=126430 95414 31016 3786 56576
is_linear=0
shrinkage=0.1


Tree=61
num_leaves=6
num_cat=0
split_feature=8 1 1 9 6
split_gain=2.99321 3.19295 5.83232 4.58116 2.10109
threshold=1.0689655172413794 0.19155416602965003 0.1321574320493076 16745.534482758627 7.8275862068965543
decision_type=2 2 2 2 2
left_child=-1 2 4 -4 -2
right_child=1 -3 3 -5 -6
leaf_value=0.057823422354007573 -0.05356000990928686 -0.043047772371883931 -0.015475225009186688 0.10561758072843869 0.0077861007038730543
leaf_weight=4.6783353890059507 9.6360457113041829 19.762214812526508 3.2806983173286408 6.4354105948914366 7.6383984651620258
leaf_count=15673 34476 34399 10150 11668 20016
internal_value=0 -0.0139227 0.00691509 0.06409 -0.0254733
internal_weight=0 46.7528 26.9906 9.71611 17.2744
internal_count=126382 110709 76310 21818 54492
is_linear=0
shrinkage=0.1


Tree=62
num_leaves=6
num_cat=0
split_feature=1 1 6 0 6
split_gain=2.84687 3.83148 2.0111 6.0453 4.24463
threshold=0.36530313284075855 0.290348233168298 5.4137931034482776 0.14170580657678727 2.9437781109445282
decision_type=2 2 2 2 2
left_child=1 2 3 4 -1
right_child=-2 -3 -4 -5 -6
leaf_value=-0.000595294070333813 -0.057642744670203749 0.076281480240774746 -0.021157565733858612 -0.027644601481193017 0.13585936283040706
leaf_weight=2.5506640893836439 6.0163727411418213 5.142631599919695 24.817975348956679 8.2709615821040625 3.8206542052030272
leaf_count=17028 7070 7971 57792 21042 15331
internal_value=0 0.00739734 -0.00323295 0.0229004 0.086646
internal_weight=0 44.6029 39.4603 14.6423 6.37132
internal_count=126234 119164 111193 53401 32359
is_linear=0
shrinkage=0.1


Tree=63
num_leaves=6
num_cat=0
split_feature=10 10 9 10 9
split_gain=2.31724 3.15597 5.01562 3.64919 3.95207
threshold=67780.715517241391 9686.4655172413786 8409.6034482758641 12833.333128078821 29908.568965517243
decision_type=2 2 2 2 2
left_child=1 2 -1 -3 -5
right_child=-2 3 -4 4 -6
leaf_value=-0.020658132562290057 0.08700695772491604 -0.059050562492664653 0.091159155521685575 0.034990867900376997 -0.039578506099804157
leaf_weight=4.9190772621841443 2.2933034042071077 8.6980763923638715 7.6139629869030614 19.002270685989064 8.6429277071110828
leaf_count=18724 504 19959 15523 43383 27848
internal_value=0 0.00606951 0.0464831 -0.00801136 0.00887392
internal_weight=0 48.8763 12.533 36.3433 27.6452
internal_count=125941 125437 34247 91190 71231
is_linear=0
shrinkage=0.1


Tree=64
num_leaves=6
num_cat=0
split_feature=11 3 2 11 7
split_gain=2.23774 2.65269 2.87551 4.00524 4.15182
threshold=66455.625000000015 1034982.8035714288 0.076720991442130029 10586.275862068966 3.6668719211822656
decision_type=2 2 2 2 2
left_child=1 -1 3 4 -3
right_child=-2 2 -4 -5 -6
leaf_value=0.045490350220277857 0.087037675778809914 -0.030358038542789428 -0.031653234153498348 -0.030157400709343044 0.10658918052989577
leaf_weight=6.6114536746717922 0.9997573286491378 1.5439591928516145 30.753985655541328 5.6519758741997066 5.0686712465976598
leaf_count=20242 505 4917 74303 17150 9075
internal_value=0 -0.00469855 -0.01512 0.0212973 0.0686372
internal_weight=0 49.63 43.0186 12.2646 6.61263
internal_count=126192 125687 105445 31142 13992
is_linear=0
shrinkage=0.1


Tree=65
num_leaves=6
num_cat=0
split_feature=0 6 11 4 9
split_gain=3.54593 5.02321 3.21405 3.63021 5.09662
threshold=0.15823303038368469 4.5186206896551733 11208.965517241386 4444589.2142857155 13102.879310344835
decision_type=2 2 2 2 2
left_child=-1 -2 3 -3 -5
right_child=1 2 -4 4 -6
leaf_value=-0.022268144785811472 -0.025215792893223472 0.022159858737662255 0.014925365603647002 0 0.22258414772802784
leaf_weight=17.885883052666031 9.2782870912706112 6.0188791162727302 13.952724424976621 1.7390676990617069 1.966248519165674
leaf_count=69194 19458 6945 26250 3050 1125
internal_value=0 0.0301331 0.0541611 0.0946952 0.157019
internal_weight=0 32.9552 23.6769 9.7242 3.70532
internal_count=126022 56828 37370 11120 4175
is_linear=0
shrinkage=0.1


Tree=66
num_leaves=6
num_cat=0
split_feature=0 4 10 7 4
split_gain=4.48062 3.71364 5.16506 4.2163 3.89375
threshold=0.65741898882570604 4685969.1428571446 9612.844827586212 3.5264778325123154 3683473.6071428577
decision_type=2 2 2 2 2
left_child=1 2 3 -1 -5
right_child=-2 -3 -4 4 -6
leaf_value=-0.038382222755243382 0.10418007402033794 0.03517977994596632 -0.046864727976197812 0.1059183321099228 -0.028264207734788629
leaf_weight=3.5840122888839669 2.1413193901244076 12.994880451013158 26.234170764022565 5.4600983073396492 1.4057265571027526
leaf_count=14361 493 26655 70957 11450 2330
internal_value=0 -0.00624469 -0.0232629 0.029822 0.0721421
internal_weight=0 49.6789 36.684 10.4498 6.86582
internal_count=126246 125753 99098 28141 13780
is_linear=0
shrinkage=0.1


Tree=67
num_leaves=6
num_cat=0
split_feature=8 8 0 0 4
split_gain=3.08931 5.74904 4.72793 4.60692 4.37072
threshold=5.0350985221674893 3.3158866995073888 0.35917296404429461 0.075489907919816843 7842736.1461640233
decision_type=2 2 2 2 2
left_child=1 -1 3 -3 -2
right_child=4 2 -4 -5 -6
leaf_value=-0.0040183671900970164 -0.042230790010797208 -0.0034413526244368659 -0.028944922763782216 0.14992072531623749 0.045193060950785437
leaf_weight=17.179017129616117 19.350267793874085 1.6498366097512169 1.4596412326427524 5.7767131935070211 5.699917063531756
leaf_count=53913 40262 5147 1474 13774 11724
internal_value=0 0.0284984 0.0864079 0.116072 -0.0186566
internal_weight=0 26.0652 8.88619 7.42655 25.0502
internal_count=126294 74308 20395 18921 51986
is_linear=0
shrinkage=0.1


Tree=68
num_leaves=6
num_cat=0
split_feature=0 8 9 2 9
split_gain=2.47363 4.78488 3.94083 3.56845 3.71482
threshold=0.37569565508424391 1.1403940886699508 13517.298645320205 0.39156311655159287 35626.482758620696
decision_type=2 2 2 2 2
left_child=-1 3 -3 4 -2
right_child=1 2 -4 -5 -6
leaf_value=-0.001859976364668057 0.25152088035145875 0.098567644488406603 -0.033268728830962942 -0.00037075011603813677 0
leaf_weight=42.291533411331329 0.54216005135094547 1.3517965571372768 6.0973593872549827 0.53907583194086328 0.38543456239131046
leaf_count=117085 228 1137 7251 478 403
internal_value=0 0.0508865 0 0.152037 0.201839
internal_weight=0 8.91583 7.44916 1.46667 0.927595
internal_count=126582 9497 8388 1109 631
is_linear=0
shrinkage=0.1


Tree=69
num_leaves=6
num_cat=0
split_feature=0 6 1 11 6
split_gain=3.6173 4.69903 4.62242 4.03104 4.46758
threshold=0.15823303038368469 6.3860837438423657 0.1843977339544802 6950.8448275862111 18.017241379310349
decision_type=2 2 2 2 2
left_child=-1 -2 3 -3 -5
right_child=1 2 -4 4 -6
leaf_value=-0.025931525467652452 -0.014528144891077149 -0.016766097779798442 0.013019667369197999 0.17320946979032828 0
leaf_weight=17.508048484171013 13.720361619631147 0.93007930415479023 13.788566244631509 4.8000113721718662 1.3702141221183408
leaf_count=69206 27406 644 21719 5481 1971
internal_value=0 0.0270408 0.0556739 0.113108 0.138723
internal_weight=0 34.6092 20.8889 7.1003 6.17023
internal_count=126427 57221 29815 8096 7452
is_linear=0
shrinkage=0.1


Tree=70
num_leaves=6
num_cat=0
split_feature=11 8 0 5 4
split_gain=3.27085 5.92189 7.55945 5.4872 3.76602
threshold=10586.275862068966 1.1403940886699508 0.38739028095897965 1357366.8392857146 5115470.4821428582
decision_type=2 2 2 2 2
left_child=3 2 -2 -1 -5
right_child=1 -3 -4 4 -6
leaf_value=-0.020147948660693749 -0.020899473846688069 -0.030534098091991885 0.18523454359323119 0.10505047850822849 0
leaf_weight=8.2062867746899446 2.4087872080672272 25.881653251959506 1.4230473849893313 9.3040665988919482 4.779045157141808
leaf_count=26099 9125 67153 809 15355 7236
internal_value=0 -0.0106482 0.0810019 0.0376308 0.0731133
internal_weight=0 29.7135 3.83183 22.2894 14.0831
internal_count=125777 77087 9934 48690 22591
is_linear=0
shrinkage=0.1


Tree=71
num_leaves=6
num_cat=0
split_feature=0 6 7 4 1
split_gain=2.04182 6.04891 4.4759 5.30557 3.72281
threshold=0.2160469394476959 4.4137931034482776 2.482758620689657 1767718.6964285716 0.22055059714664299
decision_type=2 2 2 2 2
left_child=1 2 -1 -4 -2
right_child=4 -3 3 -5 -6
leaf_value=-0.02191961121119412 0.063054327247418371 -0.05362462994269325 0.15985035964849165 -0.022341402104738384 -0.0096517099814449822
leaf_weight=3.7386757586518824 8.7726475017225329 18.249814896040334 2.5266971942000969 1.2024317874820551 17.312258517133159
leaf_count=23874 7325 52948 8931 3747 29436
internal_value=0 -0.0227086 0.0428369 0.103356 0.0153891
internal_weight=0 25.7176 7.4678 3.72913 26.0849
internal_count=126261 89500 36552 12678 36761
is_linear=0
shrinkage=0.1


Tree=72
num_leaves=6
num_cat=0
split_feature=2 8 0 2 2
split_gain=3.22191 3.41233 2.8585 2.33733 2.11171
threshold=0.16118955670561511 1.1403940886699508 0.38739028095897965 0.41570839828582901 0.1341529574094846
decision_type=2 2 2 2 2
left_child=4 2 -2 -4 -1
right_child=1 -3 3 -5 -6
leaf_value=0.01134453607622002 -0.021408180428841541 -0.035582612993376936 0.15158626493424948 -0.00040265267344715642 0.080414858598399419
leaf_weight=23.776405600945512 1.1671471437548491 20.367852407547616 1.0526025427825514 0.5391741637722588 4.9094403681447139
leaf_count=69192 4261 40104 468 395 11978
internal_value=0 -0.0189988 0.057429 0.11157 0.0289702
internal_weight=0 23.1268 2.75892 1.59178 28.6858
internal_count=126398 45228 5124 863 81170
is_linear=0
shrinkage=0.1


Tree=73
num_leaves=6
num_cat=0
split_feature=0 9 11 5 8
split_gain=2.72483 4.03006 2.1145 2.32889 1.90418
threshold=0.47806480630832165 20658.517241379315 10517.637931034487 1739828.3035714289 2.2413793103448287
decision_type=2 2 2 2 2
left_child=4 2 -2 -4 -1
right_child=1 -3 3 -5 -6
leaf_value=-0.04897807088613311 0 -0.021267774352585547 0.17945217019852786 0 0
leaf_weight=8.6210182161084941 1.0846289377077476 2.3574892132019158 1.4346572378417475 0.38907291140640143 38.094744344714854
leaf_count=35568 352 2709 213 201 87243
internal_value=0 0.0550818 0.112712 0.149433 -0.0110895
internal_weight=0 5.26585 2.90836 1.82373 46.7158
internal_count=126286 3475 766 414 122811
is_linear=0
shrinkage=0.1


Tree=74
num_leaves=6
num_cat=0
split_feature=8 8 6 0 0
split_gain=2.5954 4.58881 5.96427 3.03814 2.98985
threshold=0.68965517241379304 3.3158866995073888 5.1379310344827607 0.11147786966456973 0.35917296404429461
decision_type=2 2 2 2 2
left_child=-1 -2 3 -3 -5
right_child=1 2 -4 4 -6
leaf_value=0.073436441080039674 -0.046224704254811497 0 0 0.18264185327280716 0
leaf_weight=3.4637785289487502 13.5874777682111 1.3066475095765775 30.460916065603669 2.1804832826237548 0.48773621233704023
leaf_count=9929 44206 3618 63880 4254 558
internal_value=0 0 0.01894 0.112116 0.151774
internal_weight=0 48.0233 34.4358 3.97487 2.66822
internal_count=126445 116516 72310 8430 4812
is_linear=0
shrinkage=0.1


Tree=75
num_leaves=6
num_cat=0
split_feature=9 7 7 9 7
split_gain=2.38717 3.09951 3.95887 3.2421 2.93058
threshold=69414.413793103464 6.8774630541871931 8.4562807881773434 23821.720443349757 22.315886699507391
decision_type=2 2 2 2 2
left_child=1 -1 3 -3 -4
right_child=-2 2 4 -5 -6
leaf_value=-0.029088582472753532 0.061681254104089624 0.11462216407322795 -0.024654184888208541 -0.019000269178880404 0.074253795860883459
leaf_weight=26.659851615140724 3.9351721554994574 4.2531873765656227 14.31917072619399 1.0756723475751639 1.7936659304068587
leaf_count=81337 501 6265 29912 3090 5018
internal_value=0 -0.00638672 0.0196173 0.0822046 -0.00430474
internal_weight=0 48.1015 21.4417 5.32886 16.1128
internal_count=126123 125622 44285 9355 34930
is_linear=0
shrinkage=0.1


Tree=76
num_leaves=6
num_cat=0
split_feature=9 11 0 4 6
split_gain=2.82511 3.88591 2.18334 2.11341 4.61926
threshold=8409.6034482758641 8634.5000000000018 0.093601086080158352 3353175.4464285723 12.982758620689657
decision_type=2 2 2 2 2
left_child=-1 -2 -3 -4 -5
right_child=1 2 3 4 -6
leaf_value=-0.051194313861472864 0.063977236404700238 -0.058188608340622172 -0.010471093033616102 0.087579112347936472 -0.014439633285654266
leaf_weight=5.0270605316036372 10.958481644793208 3.7803111659250126 18.437521612864657 6.8329623454374069 6.7500821566427476
leaf_count=18923 14615 25270 43022 10207 14293
internal_value=0 0.0165986 0 0.00929847 0.0376736
internal_weight=0 46.7594 35.8009 32.0206 13.583
internal_count=126330 107407 92792 67522 24500
is_linear=0
shrinkage=0.1


Tree=77
num_leaves=6
num_cat=0
split_feature=6 5 5 5 0
split_gain=2.64577 3.86472 3.1388 5.76216 3.00854
threshold=6.666871921182266 1545179.1785714289 688883.37500000012 274939.37500000012 0.097504074602559956
decision_type=2 2 2 2 2
left_child=1 2 3 -1 -5
right_child=-2 -3 -4 4 -6
leaf_value=-0.044880804157210415 -0.024739567383711757 0.08030329409341809 -0.050848733779210148 -0.017086799611276345 0.1114851619237493
leaf_weight=4.2082946458140267 28.277867229860931 5.5437456867075516 6.9898722819598325 1.0131534330666907 4.927372469821421
leaf_count=16252 56101 12193 24162 6589 10917
internal_value=0 0.0191508 -0.0035847 0.0272769 0.083813
internal_weight=0 22.6824 17.1387 10.1488 5.94053
internal_count=126214 70113 57920 33758 17506
is_linear=0
shrinkage=0.1


Tree=78
num_leaves=6
num_cat=0
split_feature=11 4 6 2 3
split_gain=1.53736 2.95177 3.08049 3.26066 2.22635
threshold=8634.5000000000018 899248.7857142858 6.448275862068968 0.027348989144110273 971272.32142857148
decision_type=2 2 2 2 2
left_child=1 -1 3 -3 -2
right_child=4 2 -4 -5 -6
leaf_value=-0.040959131526461183 0.051360337424009112 -0.012503477731864993 0.0053550710515780269 0.13219860298474115 -0.011772951889069988
leaf_weight=2.1322938719640652 4.9127691949870487 0.86091526274685648 8.6080990198752243 4.3303068724017066 30.985607416814673
leaf_count=9393 13122 1301 12652 10059 79733
internal_value=0 0.0348985 0.0534118 0.103557 0
internal_weight=0 15.9316 13.7993 5.19122 35.8984
internal_count=126260 33405 24012 11360 92855
is_linear=0
shrinkage=0.1


Tree=79
num_leaves=6
num_cat=0
split_feature=7 0 2 8 11
split_gain=3.6335 3.21251 2.99536 2.81808 2.48811
threshold=15.701970443349756 0.20609152327824856 0.10519212944559521 21.913793103448281 66455.625000000015
decision_type=2 2 2 2 2
left_child=2 -2 -1 -3 -4
right_child=1 3 4 -5 -6
leaf_value=0.02014876135325596 -0.015425583935426732 0.13297406734710923 -0.038235318461272025 -0.0085429252939398584 0.059341948346406548
leaf_weight=16.596025726505104 1.9539212223135098 3.3084309389232658 27.690651778928444 0.7488324563273635 0.86578252935942046
leaf_count=50626 6694 4921 62098 1592 385
internal_value=0 0.0631604 -0.0104802 0.103185 -0.0301732
internal_weight=0 6.01118 45.1525 4.05726 28.5564
internal_count=126316 13207 113109 6513 62483
is_linear=0
shrinkage=0.1


Tree=80
num_leaves=6
num_cat=0
split_feature=2 11 5 0 8
split_gain=2.49654 2.84226 3.55512 2.82624 3.75127
threshold=0.11278264099825143 12924.068965517241 858402.75000000023 0.045827129418932626 3.8947044334975365
decision_type=2 2 2 2 2
left_child=1 2 -1 -4 -5
right_child=-2 -3 3 4 -6
leaf_value=-0.016946922958019188 -0.012619288802637661 -0.015003337792805247 0 -0.0028941683135199716 0.13250067066112531
leaf_weight=3.3857356358075803 31.178571206139168 6.7447903009924621 2.4179738723396431 1.6235268268192138 6.5600133481821103
leaf_count=13468 67949 25091 5536 4044 10326
internal_value=0 0.0301907 0.0545783 0.0808536 0.10464
internal_weight=0 20.732 13.9872 10.6015 8.18354
internal_count=126414 58465 33374 19906 14370
is_linear=0
shrinkage=0.1


Tree=81
num_leaves=6
num_cat=0
split_feature=0 11 4 5 11
split_gain=3.11339 3.19224 3.14188 3.07276 2.23398
threshold=0.25488640599368068 8634.5000000000018 3683473.6071428577 1776740.6785714289 10926.068965517241
decision_type=2 2 2 2 2
left_child=1 2 3 -1 -2
right_child=4 -3 -4 -5 -6
leaf_value=0 -0.0010339759433720226 -0.037594400379601094 -0.031886870877500466 0.11646790005021297 0.058359793501829328
leaf_weight=5.6017025842047605 7.681333368127528 17.908323396506603 4.2510918302941709 2.901060183539812 13.880520660710316
leaf_count=18684 6437 69269 7171 4172 20345
internal_value=0 -0.0107831 0.0232016 0.0566682 0.0364772
internal_weight=0 30.6622 12.7539 8.50276 21.5619
internal_count=126078 99296 30027 22856 26782
is_linear=0
shrinkage=0.1


Tree=82
num_leaves=6
num_cat=0
split_feature=7 8 8 11 0
split_gain=2.27319 3.57272 4.59881 2.85978 2.05418
threshold=15.701970443349756 4.4137931034482776 3.8947044334975365 14083.637931034487 0.33561735364211359
decision_type=2 2 2 2 2
left_child=1 2 -1 -2 -4
right_child=3 -3 4 -5 -6
leaf_value=-0.0076578445316867125 0.084338620354597119 -0.041784370380095276 0.12149181650694854 -0.021233776103473045 -0.0035369660954788296
leaf_weight=19.976539362967745 3.9932985346094929 22.369056671626822 2.8263431881059655 2.4266785390063887 0.61239119801030018
leaf_count=61836 5383 44914 5828 7692 581
internal_value=0 -0.0142062 0.0111339 0.0420582 0.0955198
internal_weight=0 45.7843 23.4153 6.41998 3.43873
internal_count=126234 113159 68245 13075 6409
is_linear=0
shrinkage=0.1


Tree=83
num_leaves=6
num_cat=0
split_feature=5 5 9 0 2
split_gain=1.48718 3.77671 3.7635 3.01714 2.92895
threshold=2534419.0535714296 2040898.8750000005 24012.551724137931 0.33561735364211359 0.033657110946096698
decision_type=2 2 2 2 2
left_child=1 -1 3 4 -3
right_child=-2 2 -4 -5 -6
leaf_value=0 -0.018468561928644902 0 -0.021449052141413349 -0.0048383000752877728 0.18077518684796612
leaf_weight=29.84792710993861 16.461355462881329 0.47844953232561227 1.1613018834759712 0.64387878346315108 2.5651595535928209
leaf_count=82782 33750 582 3034 373 5348
internal_value=0 0.0160044 0.0841543 0.123224 0.153012
internal_weight=0 34.6967 4.84879 3.68749 3.04361
internal_count=125869 92119 9337 6303 5930
is_linear=0
shrinkage=0.1


Tree=84
num_leaves=6
num_cat=0
split_feature=0 9 9 3 7
split_gain=2.661 3.34701 1.9511 1.87763 1.71555
threshold=0.47806480630832165 20658.517241379315 69414.413793103464 6470743.80357143 32.844827586206904
decision_type=2 2 2 2 2
left_child=2 -2 4 -4 -1
right_child=1 -3 3 -5 -6
leaf_value=-0.021567226806561056 0.10019066200161271 -0.019034826249678279 -0.0041127603425344852 0.094256901814477531 0.071481189426193747
leaf_weight=42.93838060280541 3.5660284999466958 2.2313458454955253 2.1663851743796836 1.5196177621837703 0.10378701123408873
leaf_count=121766 768 2698 326 116 277
internal_value=0 0.0536743 -0.00985725 0.0443958 -0.0172893
internal_weight=0 5.79737 46.7282 3.686 43.0422
internal_count=125951 3466 122485 442 122043
is_linear=0
shrinkage=0.1


Tree=85
num_leaves=6
num_cat=0
split_feature=5 5 5 9 8
split_gain=1.71954 2.29933 2.7704 2.52099 2.49721
threshold=274939.37500000012 541538.21428571444 480427.41071428574 17999.844827586214 3.5615763546798038
decision_type=2 2 2 2 2
left_child=-1 2 -2 -4 -3
right_child=1 4 3 -5 -6
leaf_value=-0.033055568879207776 0.00045476990369265434 -0.036932100005096002 0 0.17020051932579677 0.019370699316965431
leaf_weight=5.7538677300835834 4.3301400657255718 8.1709556119312747 0.47330446155319794 1.2472814363172799 31.881906705451911
leaf_count=18261 9965 28865 1563 1419 66045
internal_value=0 0.0169507 0.0672122 0.133889 0.0055163
internal_weight=0 46.1036 6.05073 1.72059 40.0529
internal_count=126118 107857 12947 2982 94910
is_linear=0
shrinkage=0.1


Tree=86
num_leaves=6
num_cat=0
split_feature=9 11 7 4 5
split_gain=1.99944 3.09452 2.7545 2.54082 3.49124
threshold=35626.482758620696 3848.0862068965512 2.1034482758620707 2113752.0535714286 1328616.8789682544
decision_type=2 2 2 2 2
left_child=2 -2 -1 4 -4
right_child=1 -3 3 -5 -6
leaf_value=-0.037598152195135841 0.05963975986776468 -0.051125601935857329 0.015536895141963417 0.0072410611077331133 0.13285045095740308
leaf_weight=4.9774400434089321 1.2804508273256932 8.9255561952268163 8.7755318892632186 24.415078528549202 3.3159823551886793
leaf_count=23510 47 21262 24239 49991 7080
internal_value=0 -0.0259257 0.0192362 0.0297802 0.0646114
internal_weight=0 10.206 41.484 36.5066 12.0915
internal_count=126129 21309 104820 81310 31319
is_linear=0
shrinkage=0.1


Tree=87
num_leaves=6
num_cat=0
split_feature=7 4 2 7 4
split_gain=6.36115 2.4183 3.13508 2.09956 3.04118
threshold=3.701970443349754 9621820.4107142892 0.028084718341511172 3.482758620689657 1096510.5357142859
decision_type=2 2 2 2 2
left_child=3 2 -2 4 -1
right_child=1 -3 -4 -5 -6
leaf_value=0.050740136980754406 0.037000752361146243 0.032305705418853213 -0.046047704966835031 0.12789323927871105 -0.037718172887563378
leaf_weight=10.165068093039734 3.2039970316145618 4.0305670673624254 29.921537741440261 1.3843375004107645 3.5416243847448632
leaf_count=34091 4378 7959 63296 2942 13978
internal_value=0 -0.0251704 -0.034995 0.0481488 0.0227237
internal_weight=0 37.1561 33.1255 15.091 13.7067
internal_count=126644 75633 67674 51011 48069
is_linear=0
shrinkage=0.1


Tree=88
num_leaves=6
num_cat=0
split_feature=5 5 8 6 9
split_gain=3.84308 4.61779 2.68105 6.1764 3.792
threshold=541538.21428571444 520343.12367724866 2.5264778325123154 2.4913793103448278 29607.827586206902
decision_type=2 2 2 2 2
left_child=1 2 3 -1 -5
right_child=-2 -3 -4 4 -6
leaf_value=-0.029056691833968581 -0.013215662509566751 0.16734030013082984 -0.048867476478582667 0.16181560859166449 0
leaf_weight=4.2748450105827889 39.648087772508006 0.9010283632269428 2.7180037459620516 2.4816475455882032 1.3841576875529424
leaf_count=19938 95125 990 4093 4325 1676
internal_value=0 0.0479896 0.0114511 0.042154 0.114475
internal_weight=0 11.7597 10.8587 8.14065 3.86581
internal_count=126147 31022 30032 25939 6001
is_linear=0
shrinkage=0.1


Tree=89
num_leaves=6
num_cat=0
split_feature=0 8 4 11 7
split_gain=1.61235 2.12151 3.69005 2.24766 1.93983
threshold=0.40849825952329583 1.1403940886699508 3867578.3571428577 12156.534482758618 4.7931034482758639
decision_type=2 2 2 2 2
left_child=4 3 -3 -2 -1
right_child=1 2 -4 -5 -6
leaf_value=0.014081728180729267 -0.0040488795067015471 -0.056131504816007996 0.069839007346668147 0.13616978722063075 -0.026472499819969103
leaf_weight=17.63263498888773 0.59122818757896212 3.4543963057330984 2.3642705925303744 1.2382687532517591 25.172492796908045
leaf_count=61324 227 3860 2356 586 58350
internal_value=0 0.0367448 0 0.0966984 -0.00868011
internal_weight=0 7.64816 5.81867 1.8295 42.8051
internal_count=126703 7029 6216 813 119674
is_linear=0
shrinkage=0.1


Tree=90
num_leaves=6
num_cat=0
split_feature=4 9 9 4 5
split_gain=2.55242 4.35572 3.03276 2.15665 4.97696
threshold=7842736.1461640233 23079.500000000004 29908.568965517243 1956311.4181034486 1328616.8789682544
decision_type=2 2 2 2 2
left_child=3 -2 -3 4 -1
right_child=1 2 -4 -5 -6
leaf_value=-0.0010873373807332562 -0.0040730749230485225 0.18903833351008215 0 -0.021997210316509114 0.10883142456191518
leaf_weight=18.445598139858706 3.739326289145537 1.0519804217292406 1.3631548801604365 23.544354222027323 3.1834244811598174
leaf_count=55791 6975 1991 3048 52386 6194
internal_value=0 0.0596055 0.130395 -0.000783386 0.0199534
internal_weight=0 6.15446 2.41514 45.1734 21.629
internal_count=126385 12014 5039 114371 61985
is_linear=0
shrinkage=0.1


Tree=91
num_leaves=6
num_cat=0
split_feature=0 10 10 1 4
split_gain=2.74327 4.52515 2.85464 3.5532 2.18075
threshold=0.29614620272712594 7244.8257389162545 6897.2758620689647 0.054935327057573903 12778183.204433499
decision_type=2 2 2 2 2
left_child=1 2 -1 -4 -3
right_child=-2 4 3 -5 -6
leaf_value=0 0.020866169010632943 -0.051559607473922575 0.18869713801583313 -0.0051921519601604146 0.03537618431653939
leaf_weight=4.7485675835087013 17.325563702042928 25.585706383177243 0.36297750969242748 0.65341594272831571 1.2198112298283366
leaf_count=14095 18800 87998 490 1822 2690
internal_value=0 -0.0256943 0.0416894 0.121591 -0.0437617
internal_weight=0 32.5705 5.76496 1.01639 26.8055
internal_count=125895 107095 16407 2312 90688
is_linear=0
shrinkage=0.1


Tree=92
num_leaves=6
num_cat=0
split_feature=11 10 1 6 0
split_gain=1.68851 3.44503 3.64865 2.8935 2.68991
threshold=13082.672413793111 10660.844827586212 0.06865074628348504 5.947660098522169 0.14170580657678727
decision_type=2 2 2 2 2
left_child=1 -1 -3 4 -2
right_child=3 2 -4 -5 -6
leaf_value=-0.0076114707733111438 0.091458709015149464 -0.029785577888242706 0.075225442618141736 -0.048108089027067313 -0.0079962120109909485
leaf_weight=16.707567455450775 1.9864921701955625 2.4064923750302105 12.494224772352025 10.324066570834473 6.1475325702413102
leaf_count=40737 12822 6280 18766 32082 15299
internal_value=0 0.0210353 0.0536946 -0.0148235 0.0231317
internal_weight=0 31.6083 14.9007 18.4581 8.13402
internal_count=125986 65783 25046 60203 28121
is_linear=0
shrinkage=0.1


Tree=93
num_leaves=6
num_cat=0
split_feature=6 7 0 5 0
split_gain=2.14896 3.32544 2.49983 3.78541 2.45778
threshold=4.7586206896551726 5.4827586206896575 0.18257865265128273 1357366.8392857146 0.15823303038368469
decision_type=2 2 2 2 2
left_child=-1 2 3 -2 -3
right_child=1 4 -4 -5 -6
leaf_value=-0.03148237371308385 0 -0.051370528753399029 0 0.15754139427697192 0.010767257265723886
leaf_weight=16.021284250033204 1.4931384833471368 7.0901300237146669 5.3274200385130825 2.1830375692916277 18.5080267965659
leaf_count=52249 6121 27171 6839 5865 27930
internal_value=0 0.0106166 0.0578015 0.105594 -0.00675046
internal_weight=0 34.6018 9.0036 3.67618 25.5982
internal_count=126175 73926 18825 11986 55101
is_linear=0
shrinkage=0.1


Tree=94
num_leaves=6
num_cat=0
split_feature=2 1 8 5 4
split_gain=3.14375 5.45057 1.96265 1.93021 3.35797
threshold=0.057204673918799305 0.21348992165876393 9.4562807881773434 520343.12367724866 2984074.5178571437
decision_type=2 2 2 2 2
left_child=3 2 -2 -1 -5
right_child=1 -3 -4 4 -6
leaf_value=-0.018926941136753195 -0.065751733861765305 0.019978532717837269 0 0.099133899611126786 -0.0042611354137862953
leaf_weight=2.2979152382213206 16.410581876978544 17.862857292595436 4.4111024033772983 5.392427062864952 3.6907898976951401
leaf_count=8620 54258 30785 13124 12122 7256
internal_value=0 -0.0175465 -0.0511175 0.0383707 0.058489
internal_weight=0 38.6845 20.8217 11.3811 9.08322
internal_count=126165 98167 67382 27998 19378
is_linear=0
shrinkage=0.1


Tree=95
num_leaves=6
num_cat=0
split_feature=9 6 9 0 5
split_gain=3.0819 4.07585 4.2237 5.2751 3.57515
threshold=16745.534482758627 18.245689655172416 35626.482758620696 0.12636531980804519 175491.46428571432
decision_type=2 2 2 2 2
left_child=-1 2 3 -2 -5
right_child=1 -3 -4 4 -6
leaf_value=-0.021402658330124578 -0.026765177693128125 -0.045263253140295077 -0.0077495721394780009 -0.018937381885731332 0.11383427087924161
leaf_weight=21.219792758307449 2.7491814164986925 4.2615465628696247 8.2250636661574372 1.0659496218868287 11.757483416715329
leaf_count=60781 17436 9876 18678 2180 17569
internal_value=0 0.0268687 0.044144 0.0725745 0.0981846
internal_weight=0 28.0592 23.7977 15.5726 12.8234
internal_count=126520 65739 55863 37185 19749
is_linear=0
shrinkage=0.1


Tree=96
num_leaves=6
num_cat=0
split_feature=5 11 5 1 4
split_gain=2.29427 6.07449 4.33845 3.93951 3.60174
threshold=733765.85714285728 11208.965517241386 99431.446428571464 0.092999147953251052 4444589.2142857155
decision_type=2 2 2 2 2
left_child=2 4 -1 -4 -2
right_child=1 -3 3 -5 -6
leaf_value=-0.04710190560321123 0 -0.048244207925737276 -0.022043250331644733 0.090769569678718728 0.083112234923557973
leaf_weight=2.5825255244053542 12.868377804999911 16.044235198023671 2.4558824192099555 9.9759246076227992 6.2921854672495092
leaf_count=9918 25176 50686 11333 18786 10277
internal_value=0 -0.00437174 0.0393793 0.0647758 0.0308168
internal_weight=0 35.2048 15.0143 12.4318 19.1606
internal_count=126176 86139 40037 30119 35453
is_linear=0
shrinkage=0.1


Tree=97
num_leaves=6
num_cat=0
split_feature=9 1 3 5 6
split_gain=2.47377 2.88922 2.58097 4.18247 2.28022
threshold=9355.9482758620743 0.029649234363840319 5247501.5061576376 7733859.7506157653 5.8774630541871931
decision_type=2 2 2 2 2
left_child=1 -1 -2 4 -4
right_child=2 -3 3 -5 -6
leaf_value=0.055716678906454833 0.0010852226452390146 -0.059533245109348633 -0.0079621320705996357 -0.042160794739670507 0.081819746990853245
leaf_weight=0.93829467715113324 25.655239318955864 6.428911941460683 1.7970546124433955 2.2196822315199816 14.736986588704893
leaf_count=2480 64223 21909 3339 4587 29480
internal_value=0 -0.0309786 0.0244876 0.0510084 0.069336
internal_weight=0 7.36721 44.409 18.7537 16.534
internal_count=126018 24389 101629 37406 32819
is_linear=0
shrinkage=0.1


Tree=98
num_leaves=6
num_cat=0
split_feature=3 4 1 9 0
split_gain=2.30464 1.78848 2.06229 2.33424 2.74956
threshold=16844701.058497544 568765.55357142875 0.22055059714664299 21101.72413793104 0.35917296404429461
decision_type=2 2 2 2 2
left_child=1 -1 -3 -4 -5
right_child=-2 2 3 4 -6
leaf_value=-0.026974804506818901 -0.055602328940750192 0.03687911253751737 -0.038843681737322097 0.088107539226179282 -0.022075597631032156
leaf_weight=6.6491461516689006 3.4433166756389246 27.813022814488249 8.4322581957458151 2.5831491747867394 2.3733121950863278
leaf_count=20586 8402 75242 10767 6477 4567
internal_value=0 0.0131809 0.0217587 -0.00679808 0.0356646
internal_weight=0 47.8509 41.2017 13.3887 4.95646
internal_count=126041 117639 97053 21811 11044
is_linear=0
shrinkage=0.1


end of trees

feature_importances:
Column_0=83
Column_9=78
Column_11=55
Column_5=52
Column_6=37
Column_4=34
Column_8=34
Column_1=30
Column_2=30
Column_10=24
Column_7=21
Column_3=17

parameters:
[boosting: gbdt]
[objective: binary]
[metric: binary_logloss]
[tree_learner: serial]
[device_type: cpu]
[data_sample_strategy: bagging]
[data: ]
[valid: ]
[num_iterations: 1000]
[learning_rate: 0.1]
[num_leaves: 6]
[num_threads: 0]
[seed: 0]
[deterministic: 0]
[force_col_wise: 0]
[force_row_wise: 0]
[histogram_pool_size: -1]
[max_depth: -1]
[min_data_in_leaf: 5]
[min_sum_hessian_in_leaf: 0.001]
[bagging_fraction: 0.676272]
[pos_bagging_fraction: 1]
[neg_bagging_fraction: 1]
[bagging_freq: 1]
[bagging_seed: 3]
[feature_fraction: 0.816]
[feature_fraction_bynode: 1]
[feature_fraction_seed: 2]
[extra_trees: 0]
[extra_seed: 6]
[early_stopping_round: 0]
[first_metric_only: 0]
[max_delta_step: 0]
[lambda_l1: 0.532226]
[lambda_l2: 1.80425]
[linear_lambda: 0]
[min_gain_to_split: 0]
[drop_rate: 0.1]
[max_drop: 50]
[skip_drop: 0.5]
[xgboost_dart_mode: 0]
[uniform_drop: 0]
[drop_seed: 4]
[top_rate: 0.2]
[other_rate: 0.1]
[min_data_per_group: 100]
[max_cat_threshold: 32]
[cat_l2: 10]
[cat_smooth: 10]
[max_cat_to_onehot: 4]
[top_k: 20]
[monotone_constraints: ]
[monotone_constraints_method: basic]
[monotone_penalty: 0]
[feature_contri: ]
[forcedsplits_filename: ]
[refit_decay_rate: 0.9]
[cegb_tradeoff: 1]
[cegb_penalty_split: 0]
[cegb_penalty_feature_lazy: ]
[cegb_penalty_feature_coupled: ]
[path_smooth: 0]
[interaction_constraints: ]
[verbosity: -1]
[saved_feature_importance_type: 0]
[use_quantized_grad: 0]
[num_grad_quant_bins: 4]
[quant_train_renew_leaf: 0]
[stochastic_rounding: 1]
[linear_tree: 0]
[max_bin: 255]
[max_bin_by_feature: ]
[min_data_in_bin: 3]
[bin_construct_sample_cnt: 200000]
[data_random_seed: 1]
[is_enable_sparse: 1]
[enable_bundle: 1]
[use_missing: 1]
[zero_as_missing: 0]
[feature_pre_filter: 0]
[pre_partition: 0]
[two_round: 0]
[header: 0]
[label_column: ]
[weight_column: ]
[group_column: ]
[ignore_column: ]
[categorical_feature: ]
[forcedbins_filename: ]
[precise_float_parser: 0]
[parser_config_file: ]
[objective_seed: 5]
[num_class: 1]
[is_unbalance: 0]
[scale_pos_weight: 1]
[sigmoid: 1]
[boost_from_average: 1]
[reg_sqrt: 0]
[alpha: 0.9]
[fair_c: 1]
[poisson_max_delta_step: 0.7]
[tweedie_variance_power: 1.5]
[lambdarank_truncation_level: 30]
[lambdarank_norm: 1]
[label_gain: ]
[lambdarank_position_bias_regularization: 0]
[eval_at: ]
[multi_error_top_k: 1]
[auc_mu_weights: ]
[num_machines: 1]
[local_listen_port: 12400]
[time_out: 120]
[machine_list_filename: ]
[machines: ]
[gpu_platform_id: -1]
[gpu_device_id: -1]
[gpu_use_dp: 0]
[num_gpu: 1]

end of parameters

pandas_categorical:null
