tree
version=v4
num_class=1
num_tree_per_iteration=1
label_index=0
max_feature_idx=10
objective=binary sigmoid:1
feature_names=Column_0 Column_1 Column_2 Column_3 Column_4 Column_5 Column_6 Column_7 Column_8 Column_9 Column_10
feature_infos=[0:23.983333333333334] [0:23.983333333333334] [0:11.666666666686069] [0:9.4198422878104502] [35.573368072509766:36.5908203125] [-84.884773254394531:-83.651107788085938] [35.54119873046875:36.5908203125] [-84.884773254394531:-83.651107788085938] [0:6] [0.033333333325572312:151.46666666667443] [0.033333333325572312:122.21666666667443]
tree_sizes=563 573 568 568 563 568 562 566 571 562 560 577 575 572 568 581 573 570 565 559 574 571 573 574 567 567 566 573 572 572 566 579 573 570 575 572 573 568 574 580 575 568 575 569 572 570 562 573 569 573 568 570 567 566 568 559 576 568 569 572 567 574 574 567 573 561 571 571 573 570 571 573 571 567 576 571 574 569 574 571 573 574 578 565 576 573 567 578 571 573 575 573 576 573 582 576 560 566 571 577 568 569 572 569 570 571 565 574 583 572 577 567 577 577 569 573 575 573 567 576 568 571 572 570 571 577 572 576 569 575 566 567 574 575 574 574 577 578 577 573 576 575 576 574 574 564 565 573 565 574 577 576 575 566 571 576 582 575 571 578 569 572 579 573 573 565 570 575 573 571 580 575 565 575 572 571 576 575 575 577 566 579 571 568 574 577 577 576 570 570 577 574 572 570 584 579 579 571 570 573 576 575 568 571 576 574 583 571 570 573 572 574 573 573 574 569 576 574 579 582 571 579 576 567 572 577 574 568 572 571 571 561 578 569 579 569 565 577 574 583 570 565 575 573 572 567 580 578 563 577 579 571 573 573 566 575 573 580 579 573 566 566 568 566 565 573 575 575 576 578 576 574 571 572 569 576 573 574 550 571 572 568 571 570 573 573 574 570 576 574 571 567 572 570 572 573 576 562 572 570 568 576 577 571 571 568 570 577 577 576 582 572 574 578 575 577 575 575 575 573 570 579 571 567 571 564 571 576 572 578 572 580 571 575 577 571 577 567 576 569 575 570 573 574 573 576 573 577 578 577 579 567 567 574 571 573 568 578 574 575 576 574 573 569 580 570 573 576 572 569 581 565 568 573 571 565 578 572 567 572 579 571 571 574 578 576 571 573 570 566 578 574 577 575 578 581 576 576 578 580 575 572 577 574 574 572 576 577 578 577 574 573 581 570 577 569 567 579 577 576 572 572 573 569 571 581 576 570 574 578 570 568 580 575 566 577 578 578 569 569 579 571 570 576 582 571 579 565 576 579 578 575 571 576 573 567 568 571 571 572 566 574 579 574 576 576 571 578 571 569 572 564 570 569 568 573 574 571 571 578 573 576 572 572 576 573 579 569 567 572 578 581 570 575 574 579 576 581 573 570 570 581 567 568 568 579 570 576 576 573 573 569 564 567 567 574 577 573 555 579 575 571 556 575 576 582 569 569 577 569 569 577 571 569 574 573 578 577 573 575 573 577 571 572 573 574 578 572 577 581 573 580 579 568 572 576 573 571 581 574 569 572 576 568 579 578 577 575 565 570 568 567 581 573 572 575 574 566 570 572 572 577 581 567 569 570 581 584 569 577 574 569 569 574 570 580 572 573 572 579 571 571 573 565 576 568 570 576 575 566 572 570 578 573 570 579 576 574 573 572 573 580 575 580 579 575 573 576 577 575 577 580 573 568 579 574 581 577 585 580 573 579 570 577 577 572 576 570 573 573 570 571 573 575 579 576 571 571 566 579 570 570 576 576 570 572 573 579 575 572 573 576 577 580 573 573 573 574 572 577 580 568 580 575 575 577 576 577 575 570 570 571 576 580 578 576 581 572 574 581 574 569 570 572 570 579 577 576 575 556 572 579 579 577 566 575 574 574 576 575 567 580 569 570 581 570 572 578 569 575 568 571 569 578 574 582 570 572 580 574 577 577 577 576 579 573 573 577 578 565 580 575 567 574 573 571 576 570 566 578 570 578 567 579 576 579 572 571 576 570 579 575 570 572 574 578 575 571 573 574 576 583 573 579 576 583 575 575 578 579 583 568 572 569 581 574 570 575 566 575 578 574 572 570 574 566 575 575 575 578 576 579 573 581 574 581 573 571 570 573 575 575 575 580 572 567 576 574 581 569 574 573 581 569 574 575 576 579 573 579 579 580 577 589 574 576 583 575 581 568 582 571 579 582 572 577 571 576 575 576 569 579 578 567 582 573 575 569 567 566 565 567 566 566 580 579 567 576 577 582 584 580 572 568 566 579 574 574 568 569 570 574 576 570 579 571 577 581 567 574 578 567 577 571 578 571 567 569 574 569 570 579 582 578 582 569 572 577 572 576 567 575 573 573 576 576 574 576 577 574 579 578 577 576 577 578 574 577 571 579 568 583 584 568 574 581 569 573 572 578 577 578 576 579 573 576 577 573 582 578 570 582 568 571 584 568 577 573 586 572 574 581 573 580 583 567 580 576 579 575 579 581 577 572 579 574 580 580 574 572 579 575 575 575 573 585 580 580 575 576

Tree=0
num_leaves=4
num_cat=0
split_feature=8 10 2
split_gain=112.766 60.6074 72.703
threshold=3.5000000000000004 12.875000000000002 0.25833333333139313
decision_type=2 2 2
left_child=1 -1 -3
right_child=-2 2 -4
leaf_value=-7.7580517595238287 -7.8327839906526604 -6.9518483808768732 -7.8278840137253116
leaf_weight=380.15632561349776 345.86487079670769 1.8374925157695536 1.7308394068677442
leaf_count=919620 836667 4445 4187
internal_value=-7.79031 -7.75407 -7.35541
internal_weight=0 383.725 3.56833
internal_count=1764919 928252 8632
is_linear=0
shrinkage=1


Tree=1
num_leaves=4
num_cat=0
split_feature=8 8 4
split_gain=91.6829 48.9096 61.588
threshold=3.5000000000000004 1.0000000180025095e-35 35.955904006958015
decision_type=2 2 2
left_child=1 -1 -3
right_child=-2 2 -4
leaf_value=-0.033076765771988814 -0.039982095025588756 -0.001175865295095276 0.089190551805571103
leaf_weight=91.197896254481748 331.49227842927212 132.5056031299755 174.8159007592767
leaf_count=213187 836667 308220 406845
internal_value=0 0.0311755 0.0502528
internal_weight=0 398.519 307.322
internal_count=1764919 928252 715065
is_linear=0
shrinkage=0.1


Tree=2
num_leaves=4
num_cat=0
split_feature=8 0 0
split_gain=74.7802 48.8819 96.8901
threshold=3.5000000000000004 10.158333333333335 6.041666666666667
decision_type=2 2 2
left_child=-1 2 -2
right_child=1 -3 -4
leaf_value=0.026977527163463112 -0.017456968232320232 -0.065164897185200285 0.27556081388841597
leaf_weight=411.69203913313686 93.288971249974566 212.59536796357133 12.625549295480594
leaf_count=928252 245053 558449 33165
internal_value=0 -0.0375342 0.0179437
internal_weight=0 318.51 105.915
internal_count=1764919 836667 278218
is_linear=0
shrinkage=0.1


Tree=3
num_leaves=4
num_cat=0
split_feature=8 0 0
split_gain=61.797 42.9089 59.8069
threshold=3.5000000000000004 10.158333333333335 5.8583333333333343
decision_type=2 2 2
left_child=-1 2 -2
right_child=1 -3 -4
leaf_value=0.023600062305940157 -0.018002541840079711 -0.062818555128717826 0.18041961707765494
leaf_weight=422.93927420963882 90.25453885900788 199.19292873935774 18.048457698605489
leaf_count=928252 241254 558449 36964
internal_value=0 -0.0352959 0.0153455
internal_weight=0 307.496 108.303
internal_count=1764919 836667 278218
is_linear=0
shrinkage=0.1


Tree=4
num_leaves=4
num_cat=0
split_feature=8 9 0
split_gain=54.8715 43.248 237.812
threshold=5.5000000000000009 12.524999999994181 10.025000000000002
decision_type=2 2 2
left_child=1 -1 -3
right_child=-2 2 -4
leaf_value=0.0077536176322274657 -0.064840948057199907 2.0746061507391729 0.069119051340170559
leaf_weight=609.4591196650872 114.04221582654282 0.44425420317565922 6.415478613373125
leaf_count=1431163 318354 897 14505
internal_value=0 0.0106091 0.256541
internal_weight=0 616.319 6.85973
internal_count=1764919 1446565 15402
is_linear=0
shrinkage=0.1


Tree=5
num_leaves=4
num_cat=0
split_feature=8 2 3
split_gain=46.9092 36.4014 32.6858
threshold=5.5000000000000009 2.6583333333255728 1.8126238324498447
decision_type=2 2 2
left_child=1 -1 -3
right_child=-2 2 -4
leaf_value=0.0079348483728240767 -0.062487231746960574 0.84938086283031144 -0.073341814995334847
leaf_weight=623.23810578128905 106.88718440529192 0.76067258618422673 0.58365821294137277
leaf_count=1443471 318354 1770 1324
internal_value=0 0.00914299 0.49264
internal_weight=0 624.582 1.34433
internal_count=1764919 1446565 3094
is_linear=0
shrinkage=0.1


Tree=6
num_leaves=4
num_cat=0
split_feature=0 0 9
split_gain=30.312 207.136 526.677
threshold=10.025000000000002 5.8583333333333343 0.69166666665114473
decision_type=2 2 2
left_child=1 -1 -3
right_child=-2 2 -4
leaf_value=-0.0065758794398278371 -0.016007007570397826 0.14017546699618277 1.6024274692117086
leaf_weight=221.4748846963048 479.60369915494812 27.350688532285861 2.504758046794449
leaf_count=522661 1187932 51499 2827
internal_value=0 0.0268509 0.273149
internal_weight=0 251.33 29.8554
internal_count=1764919 576987 54326
is_linear=0
shrinkage=0.1


Tree=7
num_leaves=4
num_cat=0
split_feature=6 6 4
split_gain=22.7219 51.8838 44.7289
threshold=35.959861755371101 35.967355728149421 36.076534271240241
decision_type=2 2 2
left_child=-1 -2 -3
right_child=1 2 -4
leaf_value=-0.019737580826123285 0.047905165428753421 -0.038830147280584849 0.20440132679141773
leaf_weight=359.84078088818933 212.82982284924947 155.2402699678496 7.740548354224301
leaf_count=877309 506595 363474 17475
internal_value=0 0.01541 -0.0270296
internal_weight=0 375.811 162.981
internal_count=1764853 887544 380949
is_linear=0
shrinkage=0.1


Tree=8
num_leaves=4
num_cat=0
split_feature=8 4 4
split_gain=44.1141 28.8424 62.3076
threshold=4.5000000000000009 35.956417083740241 35.966173171997077
decision_type=2 2 2
left_child=1 -1 -3
right_child=-2 2 -4
leaf_value=-0.014019669913000132 -0.04149859900467389 0.074304730732677238 -0.015617506820416899
leaf_weight=223.18063023872674 201.66498200056958 167.95176916342461 142.1100190494617
leaf_count=518492 586160 354870 305331
internal_value=0 0.0133847 0.0331073
internal_weight=0 533.242 310.062
internal_count=1764853 1178693 660201
is_linear=0
shrinkage=0.1


Tree=9
num_leaves=4
num_cat=0
split_feature=0 1 4
split_gain=22.1791 100.102 69.5709
threshold=10.025000000000002 5.0250000000000012 35.94615554809571
decision_type=2 2 2
left_child=1 -1 -3
right_child=-2 2 -4
leaf_value=-0.012601757426500416 -0.014654017771442721 0.38936001092493455 0.088431845370859519
leaf_weight=202.44298360010725 469.66082908184035 8.8133269272220769 53.4389712336706
leaf_count=477761 1187883 13229 85980
internal_value=0 0.0215299 0.1322
internal_weight=0 264.695 62.2523
internal_count=1764853 576970 99209
is_linear=0
shrinkage=0.1


Tree=10
num_leaves=4
num_cat=0
split_feature=10 4 2
split_gain=19.6681 73.7645 90.7845
threshold=8.9249999999883602 35.873075485229499 0.23333333330811004
decision_type=2 2 2
left_child=-1 2 -2
right_child=1 -3 -4
leaf_value=-0.004497621151664335 1.555252944152216 0.03436834235865082 0.12423196676685554
leaf_weight=711.56192710273899 0.52806297433562832 20.729848608403699 1.2161455931782255
leaf_count=1724920 671 37114 2148
internal_value=0 0.0900917 0.677679
internal_weight=0 22.4741 1.74421
internal_count=1764853 39933 2819
is_linear=0
shrinkage=0.1


Tree=11
num_leaves=4
num_cat=0
split_feature=8 0 8
split_gain=40.0155 87.4469 48.9844
threshold=2.5000000000000004 10.025000000000002 1.0000000180025095e-35
decision_type=2 2 2
left_child=2 -2 -1
right_child=1 -3 -4
leaf_value=-0.036475276489592083 0.034444989909149987 -0.059838850691764395 0.049448421975876448
leaf_weight=92.93482270144159 163.38300024319324 246.60099307808559 230.61598873705952
leaf_count=213185 363225 719454 468989
internal_value=0 -0.0222667 0.0247598
internal_weight=0 409.984 323.551
internal_count=1764853 1082679 682174
is_linear=0
shrinkage=0.1


Tree=12
num_leaves=4
num_cat=0
split_feature=8 1 1
split_gain=35.8677 23.1924 67.6862
threshold=5.5000000000000009 3.8083333333333336 10.125000000000002
decision_type=2 2 2
left_child=1 -1 -3
right_child=-2 2 -4
leaf_value=-0.025918461918819215 -0.058332906023695542 0.10032143224599421 0.00089672027431572123
leaf_weight=159.24124919943279 96.211856207140954 82.614502128446475 395.2008244106255
leaf_count=349365 318382 137096 960010
internal_value=0 0.00710982 0.0181242
internal_weight=0 637.057 477.815
internal_count=1764853 1446471 1097106
is_linear=0
shrinkage=0.1


Tree=13
num_leaves=4
num_cat=0
split_feature=8 5 7
split_gain=32.54 28.4452 32.7268
threshold=3.5000000000000004 -83.934116363525376 -83.919811248779283
decision_type=2 2 2
left_child=1 -1 -3
right_child=-2 2 -4
leaf_value=-0.0083510547099539551 -0.028314427995386211 0.066063769545832776 -0.0216768233210759
leaf_weight=241.98334587927093 278.71493077727791 153.40900809760205 58.652768188389018
leaf_count=510532 836614 297205 120502
internal_value=0 0.0150787 0.0417975
internal_weight=0 454.045 212.062
internal_count=1764853 928239 417707
is_linear=0
shrinkage=0.1


Tree=14
num_leaves=4
num_cat=0
split_feature=8 0 4
split_gain=27.2932 21.6227 42.3424
threshold=5.5000000000000009 4.6250000000000009 35.940408706665046
decision_type=2 2 2
left_child=-1 2 -2
right_child=1 -3 -4
leaf_value=0.0058170582403981388 0.34385955790824863 -0.081713414559087205 -0.028795277035513725
leaf_weight=643.8534224203031 3.4419941748492446 66.440256885180133 18.337918677774724
leaf_count=1446326 11949 243064 63372
internal_value=0 -0.05343 0.0327944
internal_weight=0 88.2202 21.7799
internal_count=1764711 318385 75321
is_linear=0
shrinkage=0.1


Tree=15
num_leaves=4
num_cat=0
split_feature=8 0 8
split_gain=23.5456 19.8184 17.2604
threshold=5.5000000000000009 12.125000000000002 1.0000000180025095e-35
decision_type=2 2 2
left_child=2 -2 -1
right_child=1 -3 -4
leaf_value=-0.035123273315530251 -0.002418069297510221 -0.099519137156997492 0.011807531320616019
leaf_weight=90.996140326373279 42.005250271307887 41.896280381915858 556.60590482907719
leaf_count=213175 126068 192317 1233151
internal_value=0 -0.0510354 0.00520356
internal_weight=0 83.9015 647.602
internal_count=1764711 318385 1446326
is_linear=0
shrinkage=0.1


Tree=16
num_leaves=4
num_cat=0
split_feature=8 0 1
split_gain=22.5124 67.6985 39.0121
threshold=2.5000000000000004 10.158333333333335 4.0083333333333337
decision_type=2 2 2
left_child=2 -2 -1
right_child=1 -3 -4
leaf_value=-0.038355859172180533 0.029406336663324779 -0.054358475729136629 0.038129338402144192
leaf_weight=90.89194777404191 172.03715451489552 219.18947273129015 248.77488514306606
leaf_count=186356 367511 715109 495735
internal_value=0 -0.0175272 0.0176508
internal_weight=0 391.227 339.667
internal_count=1764711 1082620 682091
is_linear=0
shrinkage=0.1


Tree=17
num_leaves=4
num_cat=0
split_feature=6 6 4
split_gain=15.4496 35.546 32.8306
threshold=35.962301254272468 35.967355728149421 36.076534271240241
decision_type=2 2 2
left_child=-1 -2 -3
right_child=1 2 -4
leaf_value=-0.014922792109996023 0.042633757355499034 -0.033706521713226294 0.16024454295685767
leaf_weight=385.02977359968645 193.35207592563529 143.18211796674586 9.0868985602864978
leaf_count=965415 418388 363412 17496
internal_value=0 0.0141938 -0.0219267
internal_weight=0 345.621 152.269
internal_count=1764711 799296 380908
is_linear=0
shrinkage=0.1


Tree=18
num_leaves=4
num_cat=0
split_feature=6 2 3
split_gain=15.0014 43.458 50.0665
threshold=35.872175216674812 0.033333333354676149 0.0030291079237214648
decision_type=2 2 2
left_child=1 2 -1
right_child=-2 -3 -4
leaf_value=1.1765740551047761 -0.0039987235971337149 0.031618065276478133 0.16186309209428706
leaf_weight=0.51078583247727083 701.47399464779301 26.455476856528549 1.7680763936077708
leaf_count=827 1697227 63348 3309
internal_value=0 0.0694641 0.469148
internal_weight=0 28.7343 2.27886
internal_count=1764711 67484 4136
is_linear=0
shrinkage=0.1


Tree=19
num_leaves=4
num_cat=0
split_feature=2 9 9
split_gain=13.972 16.6256 38.8363
threshold=2.6583333333255728 1.1583333333255725 2.5166666666918904
decision_type=2 2 2
left_child=-1 -2 -3
right_child=1 2 -4
leaf_value=-0.0018855460220145951 0.015548888512110087 1.0459778391881871 -0.07288825297876482
leaf_weight=726.86239456765179 1.6989665054861682 0.41977428129757743 0.56169647279602941
leaf_count=1761096 2326 615 674
internal_value=0 0.218448 0.505061
internal_weight=0 2.68044 0.981471
internal_count=1764711 3615 1289
is_linear=0
shrinkage=0.1


Tree=20
num_leaves=4
num_cat=0
split_feature=8 1 1
split_gain=19.2994 17.838 17.7493
threshold=5.5000000000000009 12.141666666666667 4.541666666666667
decision_type=2 2 2
left_child=2 -2 -1
right_child=1 -3 -4
leaf_value=-0.022231980183105203 -0.0038786545692086893 -0.099432369771299114 0.014843224926177149
leaf_weight=177.37281958661333 42.645834290640778 35.881164799837279 473.0332660858403
leaf_count=391864 125995 192390 1054462
internal_value=0 -0.0476911 0.00472812
internal_weight=0 78.527 650.406
internal_count=1764711 318385 1446326
is_linear=0
shrinkage=0.1


Tree=21
num_leaves=4
num_cat=0
split_feature=8 0 0
split_gain=19.9047 60.8934 36.4594
threshold=2.5000000000000004 10.158333333333335 5.8583333333333343
decision_type=2 2 2
left_child=-1 2 -2
right_child=1 -3 -4
leaf_value=0.01713147664033355 0.00012189921243760251 -0.05284511992339308 0.10362791359413633
leaf_weight=347.04521246667719 129.77242249174742 205.80025240423856 45.921405370376306
leaf_count=682044 318669 715234 48762
internal_value=0 -0.0159543 0.0272679
internal_weight=0 381.494 175.694
internal_count=1764709 1082665 367431
is_linear=0
shrinkage=0.1


Tree=22
num_leaves=4
num_cat=0
split_feature=8 6 5
split_gain=17.4039 26.0931 34.3556
threshold=4.5000000000000009 35.956212997436531 -83.919811248779283
decision_type=2 2 2
left_child=1 -1 -3
right_child=-2 2 -4
leaf_value=-0.018206966230534246 -0.028498363502964138 0.041209191027962236 -0.040271333688200434
leaf_weight=224.42781627761724 167.70331220146909 273.11946933226136 63.65240534892655
leaf_count=511620 586002 528572 138515
internal_value=0 0.00819614 0.0257926
internal_weight=0 561.2 336.772
internal_count=1764709 1178707 667087
is_linear=0
shrinkage=0.1


Tree=23
num_leaves=4
num_cat=0
split_feature=5 4 8
split_gain=15.077 32.3068 36.7828
threshold=-83.934116363525376 35.967355728149421 2.5000000000000004
decision_type=2 2 2
left_child=-1 2 -2
right_child=1 -3 -4
leaf_value=-0.013953497230849505 0.071563829908514856 -0.035138364999939518 -0.0047707362049077282
leaf_weight=382.86069690273143 126.30129440221936 94.033760689009796 125.93076600546192
leaf_count=958439 213343 243649 349278
internal_value=0 0.0148343 0.0334792
internal_weight=0 346.266 252.232
internal_count=1764709 806270 562621
is_linear=0
shrinkage=0.1


Tree=24
num_leaves=4
num_cat=0
split_feature=8 0 6
split_gain=14.034 17.31 27.0337
threshold=5.5000000000000009 4.6250000000000009 35.940599441528327
decision_type=2 2 2
left_child=-1 2 -2
right_child=1 -3 -4
leaf_value=0.0042588793100048778 0.24359257985824609 -0.075315700144622286 -0.02578069899682588
leaf_weight=658.05799709742132 4.5072114065988016 49.193266950518591 17.585047977336217
leaf_count=1446444 12303 243040 62922
internal_value=0 -0.0423903 0.0309326
internal_weight=0 71.2855 22.0923
internal_count=1764709 318265 75225
is_linear=0
shrinkage=0.1


Tree=25
num_leaves=4
num_cat=0
split_feature=6 2 9
split_gain=12.9988 33.0613 62.7418
threshold=35.872175216674812 0.26666666669189004 3.9416666666511451
decision_type=2 2 2
left_child=1 2 -1
right_child=-2 -3 -4
leaf_value=0.05961877844190594 -0.0031041093194961056 -0.0055764840875412542 0.64341399062284255
leaf_weight=6.8060385944263562 699.06580961191503 21.159864620873122 2.3412255670700688
leaf_count=14349 1697200 50937 2223
internal_value=0 0.0635706 0.220104
internal_weight=0 30.3071 9.14726
internal_count=1764709 67509 16572
is_linear=0
shrinkage=0.1


Tree=26
num_leaves=4
num_cat=0
split_feature=8 10 0
split_gain=12.8299 151.305 67.9671
threshold=1.0000000180025095e-35 6.3999999999941801 22.591666666666672
decision_type=2 2 2
left_child=1 -1 -3
right_child=-2 2 -4
leaf_value=-0.050201451791177444 0.0047628307163920048 1.4552728567141227 -0.065070928779648166
leaf_weight=92.5008664803172 635.48151172978396 0.76862530634389148 0.39537099929293618
leaf_count=211318 1551502 1191 698
internal_value=0 -0.034842 1.00738
internal_weight=0 93.6649 1.164
internal_count=1764709 213207 1889
is_linear=0
shrinkage=0.1


Tree=27
num_leaves=4
num_cat=0
split_feature=5 6 8
split_gain=13.0638 29.0768 25.3299
threshold=-83.934116363525376 35.967355728149421 3.5000000000000004
decision_type=2 2 2
left_child=-1 2 -2
right_child=1 -3 -4
leaf_value=-0.013314138310433677 0.051360486234109021 -0.036275802830910135 -0.015239939450767948
leaf_weight=379.72938829858322 178.75783778831828 87.880795431294246 83.741565916818217
leaf_count=958439 292317 234862 279091
internal_value=0 0.0134527 0.0301177
internal_weight=0 350.38 262.499
internal_count=1764709 806270 571408
is_linear=0
shrinkage=0.1


Tree=28
num_leaves=4
num_cat=0
split_feature=10 10 4
split_gain=12.0947 23.6906 18.5881
threshold=1.4916666666686071 1.5083333333313933 35.962301254272468
decision_type=2 2 2
left_child=2 -2 -1
right_child=1 -3 -4
leaf_value=-0.024044550297360984 0.45009310983685347 0.022577423534999044 0.011265737709629178
leaf_weight=298.66797283267078 1.1008252705360053 133.01379779135459 297.2731723055258
leaf_count=797616 2863 293993 670104
internal_value=0 0.0267834 -0.00643252
internal_weight=0 134.115 595.941
internal_count=1764576 296856 1467720
is_linear=0
shrinkage=0.1


Tree=29
num_leaves=4
num_cat=0
split_feature=3 6 7
split_gain=12.3239 24.5582 27.8273
threshold=0.11989584325867948 36.075948715209968 -83.927368164062486
decision_type=2 2 2
left_child=1 -1 -3
right_child=-2 2 -4
leaf_value=0.0032116280950612928 -0.031103627423423937 -0.0016424928369715116 0.43255624853394503
leaf_weight=614.10884098730457 110.15736498492333 3.0510513267363422 2.6452548791276049
leaf_count=1479047 274191 5997 5341
internal_value=0 0.00516479 0.208121
internal_weight=0 619.805 5.69631
internal_count=1764576 1490385 11338
is_linear=0
shrinkage=0.1


Tree=30
num_leaves=4
num_cat=0
split_feature=10 6 6
split_gain=12.3431 76.2251 50.8138
threshold=0.041666666686069227 35.926784515380866 35.919200897216804
decision_type=2 2 2
left_child=1 2 -1
right_child=-2 -3 -4
leaf_value=-0.039335525469454319 -0.0024079570099354922 0.049520534951842131 2.2622805840172977
leaf_weight=0.13971049532119906 711.81413735228125 17.978363091911888 0.053707487910287455
leaf_count=389 1724667 39372 148
internal_value=0 0.0805894 1.44218
internal_weight=0 18.1718 0.193418
internal_count=1764576 39909 537
is_linear=0
shrinkage=0.1


Tree=31
num_leaves=4
num_cat=0
split_feature=8 8 0
split_gain=12.6573 20.9248 50.1788
threshold=1.0000000180025095e-35 2.5000000000000004 10.025000000000002
decision_type=2 2 2
left_child=-1 -2 -3
right_child=1 2 -4
leaf_value=-0.034872732043044558 0.025652946012378105 0.02785517509026585 -0.046399978784633984
leaf_weight=92.142179956455948 273.14771334468969 173.98400685949309 190.36916435108287
leaf_count=213151 468914 363281 719230
internal_value=0 0.00473845 -0.0109457
internal_weight=0 637.501 364.353
internal_count=1764576 1551425 1082511
is_linear=0
shrinkage=0.1


Tree=32
num_leaves=4
num_cat=0
split_feature=9 9 3
split_gain=11.0627 33.8761 25.7678
threshold=1.4916666666686071 1.5083333333313933 0.0076148055404400804
decision_type=2 2 2
left_child=-1 -2 -3
right_child=1 2 -4
leaf_value=-0.0062287172653923044 0.53488596677984013 0.079580315682291972 -0.011514416236967142
leaf_weight=592.6073637759182 1.0834277505418857 47.570631476861308 88.560908688305062
leaf_count=1456945 2845 105729 199057
internal_value=0 0.0252612 0.0203896
internal_weight=0 137.215 136.132
internal_count=1764576 307631 304786
is_linear=0
shrinkage=0.1


Tree=33
num_leaves=4
num_cat=0
split_feature=1 10 2
split_gain=10.183 39.4628 30.8998
threshold=3.5250000000000004 5.758333333331394 1.0000000180025095e-35
decision_type=2 2 2
left_child=-1 -2 -3
right_child=1 2 -4
leaf_value=-0.022005558121531453 0.00070119745105716273 0.47420184760858197 0.093913781777479763
leaf_weight=166.6140013545446 540.71928806200594 2.2100392975553431 20.256986831358518
leaf_count=392400 1345475 2037 24664
internal_value=0 0.00612178 0.13536
internal_weight=0 563.186 22.467
internal_count=1764576 1372176 26701
is_linear=0
shrinkage=0.1


Tree=34
num_leaves=4
num_cat=0
split_feature=8 1 1
split_gain=10.7274 15.8532 39.7618
threshold=5.5000000000000009 4.541666666666667 10.125000000000002
decision_type=2 2 2
left_child=1 -1 -3
right_child=-2 2 -4
leaf_value=-0.022174769449090165 -0.038462543922243561 0.075525869378004096 -0.00018169286233597347
leaf_weight=175.85946023017459 66.724103581458621 83.56932220494491 403.39736985450145
leaf_count=391868 318340 94631 959737
internal_value=0 0.00354326 0.0128369
internal_weight=0 662.826 486.967
internal_count=1764576 1446236 1054368
is_linear=0
shrinkage=0.1


Tree=35
num_leaves=4
num_cat=0
split_feature=8 10 2
split_gain=10.5056 37.6499 37.0739
threshold=1.0000000180025095e-35 3.8000000000174627 0.033333333354676149
decision_type=2 2 2
left_child=1 -1 -3
right_child=-2 2 -4
leaf_value=-0.049432793705998838 0.0042653663184736828 0.53280527642495767 0.012054958119356189
leaf_weight=83.194902500821627 640.91349598351371 2.0324404086568384 3.533090870900196
leaf_count=207923 1551761 1509 3724
internal_value=0 -0.0324043 0.214672
internal_weight=0 88.7604 5.56553
internal_count=1764917 213156 5233
is_linear=0
shrinkage=0.1


Tree=36
num_leaves=4
num_cat=0
split_feature=8 0 5
split_gain=10.0652 15.337 19.5268
threshold=5.5000000000000009 12.125000000000002 -83.918701171874986
decision_type=2 2 2
left_child=-1 2 -2
right_child=1 -3 -4
leaf_value=0.0034314175689663801 -0.022097886383768563 -0.099167768433179967 0.21364681811970099
leaf_weight=665.32515495977714 35.98396139167744 24.825850742672628 3.6823030541054314
leaf_count=1446507 112096 192342 13972
internal_value=0 -0.037883 0.000785484
internal_weight=0 64.4921 39.6663
internal_count=1764917 318410 126068
is_linear=0
shrinkage=0.1


Tree=37
num_leaves=4
num_cat=0
split_feature=3 6 8
split_gain=9.62477 14.9263 32.5259
threshold=0.11989584325867948 36.069278717041023 3.5000000000000004
decision_type=2 2 2
left_child=1 -1 -3
right_child=-2 2 -4
leaf_value=0.0026666289506227922 -0.028127995829446015 0.013056331988147402 0.44675607272673762
leaf_weight=615.91473941144068 105.57065997667814 6.1525656853045785 2.2041748130068299
leaf_count=1476660 274197 8331 5729
internal_value=0 0.00449119 0.13559
internal_weight=0 624.271 8.35674
internal_count=1764917 1490720 14060
is_linear=0
shrinkage=0.1


Tree=38
num_leaves=4
num_cat=0
split_feature=4 4 1
split_gain=8.8212 29.3121 27.8673
threshold=35.967355728149421 35.964027404785163 15.508333333333335
decision_type=2 2 2
left_child=1 -1 -3
right_child=-2 2 -4
leaf_value=-0.0084151611889240873 -0.022080247760141558 0.0072562446249429553 0.092631507307567876
leaf_weight=424.19406201408128 147.33937731628976 94.08156837819115 64.249690878852562
leaf_count=1076711 382084 159970 146152
internal_value=0 0.00529175 0.041979
internal_weight=0 582.525 158.331
internal_count=1764917 1382833 306122
is_linear=0
shrinkage=0.1


Tree=39
num_leaves=4
num_cat=0
split_feature=8 8 0
split_gain=9.07502 17.1938 41.6556
threshold=1.0000000180025095e-35 2.5000000000000004 10.158333333333335
decision_type=2 2 2
left_child=-1 -2 -3
right_child=1 2 -4
leaf_value=-0.030640032580606182 0.022280557540272018 0.023141397084579032 -0.044785303781208902
leaf_weight=86.445959811244393 282.85618145574699 181.35901430818194 179.37039296761941
leaf_count=213156 469019 367507 715235
internal_value=0 0.00383052 -0.0106404
internal_weight=0 643.586 360.729
internal_count=1764917 1551761 1082742
is_linear=0
shrinkage=0.1


Tree=40
num_leaves=4
num_cat=0
split_feature=8 1 5
split_gain=8.43762 13.775 13.4831
threshold=5.5000000000000009 12.141666666666667 -83.918701171874986
decision_type=2 2 2
left_child=-1 2 -2
right_child=1 -3 -4
leaf_value=0.0030013438050527693 -0.021569193700254508 -0.099051087263512527 0.15803640135274502
leaf_weight=668.05769329874602 35.74010875847307 21.821536538205692 4.5206429454192394
leaf_count=1446507 112009 192418 13983
internal_value=0 -0.0354798 -0.000683849
internal_weight=0 62.0823 40.2608
internal_count=1764917 318410 125992
is_linear=0
shrinkage=0.1


Tree=41
num_leaves=4
num_cat=0
split_feature=10 6 3
split_gain=8.31705 30.4938 53.3594
threshold=0.041666666686069227 35.937593460083015 1.0000000180025095e-35
decision_type=2 2 2
left_child=1 2 -1
right_child=-2 -3 -4
leaf_value=1.331483990320717 -0.0020830830389025391 0.033868132768197064 -0.072010369407950525
leaf_weight=0.29431374860723991 709.90130709431105 19.355437459671521 0.54240098386071622
leaf_count=383 1725000 38859 675
internal_value=0 0.062677 0.58888
internal_weight=0 20.1922 0.836715
internal_count=1764917 39917 1058
is_linear=0
shrinkage=0.1


Tree=42
num_leaves=4
num_cat=0
split_feature=6 6 5
split_gain=9.22062 14.5238 23.6437
threshold=35.872175216674812 35.956212997436531 -84.150684356689439
decision_type=2 2 2
left_child=-1 -2 -3
right_child=1 2 -4
leaf_value=0.051600558860096041 -0.022231635144732732 0.14429216382088578 0.0039613410273409084
leaf_weight=32.206329444976291 250.41091566164687 12.138638988893943 435.23828975397919
leaf_count=67546 687208 30636 979313
internal_value=0 -0.00295782 0.00783511
internal_weight=0 697.788 447.377
internal_count=1764703 1697157 1009949
is_linear=0
shrinkage=0.1


Tree=43
num_leaves=4
num_cat=0
split_feature=9 9 2
split_gain=8.47487 20.3579 23.4748
threshold=24.216666666645327 13.208333333313933 0.26666666669189004
decision_type=2 2 2
left_child=1 -1 -3
right_child=-2 2 -4
leaf_value=-0.0011670285962803678 -0.091704089226088956 0.27588320731687915 -0.045409752501967604
leaf_weight=710.73970839729009 9.8414047528785868 5.4363475807913328 3.7188287037570262
leaf_count=1748621 7183 4338 4561
internal_value=0 0.000762228 0.147246
internal_weight=0 719.895 9.15518
internal_count=1764703 1757520 8899
is_linear=0
shrinkage=0.1


Tree=44
num_leaves=4
num_cat=0
split_feature=4 4 5
split_gain=7.94401 21.9839 23.7644
threshold=35.962301254272468 35.966173171997077 -84.04656600952147
decision_type=2 2 2
left_child=-1 -2 -3
right_child=1 2 -4
leaf_value=-0.01093746245665779 0.033457693401757548 0.092377176655800766 -0.028145757435917851
leaf_weight=364.05556157218234 190.13854880878353 18.054250976041658 157.06627146890969
leaf_count=965386 349271 41413 408633
internal_value=0 0.00992992 -0.0156235
internal_weight=0 365.259 175.121
internal_count=1764703 799317 450046
is_linear=0
shrinkage=0.1


Tree=45
num_leaves=4
num_cat=0
split_feature=3 7 2
split_gain=7.71567 14.6439 63.5212
threshold=0.11989584325867948 -84.192691802978501 0.033333333354676149
decision_type=2 2 2
left_child=1 2 -1
right_child=-2 -3 -4
leaf_value=0.80048409137092191 -0.025895036171895053 0.002014332953961656 0.012538372894333426
leaf_weight=1.0186408201916481 102.38486194625875 619.62919046989555 6.1869625919498503
leaf_count=906 274170 1476364 13263
internal_value=0 0.00368714 0.143389
internal_weight=0 626.835 7.2056
internal_count=1764703 1490533 14169
is_linear=0
shrinkage=0.1


Tree=46
num_leaves=4
num_cat=0
split_feature=9 4 4
split_gain=7.79664 80.5374 52.2342
threshold=0.041666666686069227 35.926574707031257 35.92236518859864
decision_type=2 2 2
left_child=1 2 -1
right_child=-2 -3 -4
leaf_value=-0.038807375013583216 -0.0021515368372493622 0.032447092174867909 2.3226380802666071
leaf_weight=0.13670704873220785 709.81063628557604 18.81338793325267 0.047157504210190382
leaf_count=434 1724829 39334 106
internal_value=0 0.062418 1.47965
internal_weight=0 18.9973 0.183865
internal_count=1764703 39874 540
is_linear=0
shrinkage=0.1


Tree=47
num_leaves=4
num_cat=0
split_feature=5 5 4
split_gain=7.5926 22.3778 22.6325
threshold=-83.934116363525376 -83.979236602783189 35.924907684326179
decision_type=2 2 2
left_child=1 2 -1
right_child=-2 -3 -4
leaf_value=-0.025912997963780562 0.0098701096321009429 -0.032008483114011881 0.050665727628312035
leaf_weight=67.265213052691252 362.474079499254 208.56491094377998 90.011873691168148
leaf_count=174835 806313 542835 240720
internal_value=0 -0.0105447 0.0179215
internal_weight=0 365.842 157.277
internal_count=1764703 958390 415555
is_linear=0
shrinkage=0.1


Tree=48
num_leaves=4
num_cat=0
split_feature=8 10 0
split_gain=7.63182 30.9964 57.3312
threshold=1.0000000180025095e-35 3.8000000000174627 10.608333333333336
decision_type=2 2 2
left_child=1 -1 -3
right_child=-2 2 -4
leaf_value=-0.046837659501658899 0.003318200113907615 1.1155196866753074 0.083075176438425061
leaf_weight=77.247360774956178 644.26671634056402 0.38324036111589421 6.4100789921067189
leaf_count=207992 1551491 204 5016
internal_value=0 -0.0286861 0.172917
internal_weight=0 84.0407 6.79332
internal_count=1764703 213212 5220
is_linear=0
shrinkage=0.1


Tree=49
num_leaves=4
num_cat=0
split_feature=9 3 0
split_gain=7.84086 18.2482 29.9164
threshold=1.4916666666686071 0.0033552184189958533 10.025000000000002
decision_type=2 2 2
left_child=-1 2 -2
right_child=1 -3 -4
leaf_value=-0.0052026022471121404 0.20655012989783006 -0.0020491489690585406 0.020881872452099035
leaf_weight=587.15644060230989 12.239053146025979 100.03627834899089 28.853160952305188
leaf_count=1457206 12114 227184 68427
internal_value=0 0.021032 0.0769537
internal_weight=0 141.128 41.0922
internal_count=1764931 307725 80541
is_linear=0
shrinkage=0.1


Tree=50
num_leaves=4
num_cat=0
split_feature=10 0 6
split_gain=8.13407 21.8663 39.0099
threshold=0.050000000017462305 6.041666666666667 35.953527450561531
decision_type=2 2 2
left_child=1 -1 -3
right_child=-2 2 -4
leaf_value=-0.020224478630241721 -0.0031493429807833307 0.34252232318007514 0.039276724881646179
leaf_weight=30.11595301728812 673.52532292208343 5.2539051681305891 19.309740708951722
leaf_count=59861 1652378 9427 43265
internal_value=0 0.0368838 0.106491
internal_weight=0 54.6796 24.5636
internal_count=1764931 112553 52692
is_linear=0
shrinkage=0.1


Tree=51
num_leaves=4
num_cat=0
split_feature=9 9 2
split_gain=7.78373 12.8235 28.3358
threshold=24.216666666645327 10.116666666668609 0.01666666669188999
decision_type=2 2 2
left_child=1 -1 -3
right_child=-2 2 -4
leaf_value=-0.0011269133401653043 -0.090662721789493805 0.33116052185015116 0.020494958562422338
leaf_weight=701.27342122475966 9.1717686660413147 3.4866392167678013 14.449005337948618
leaf_count=1734069 7187 2928 20747
internal_value=0 0.00101994 0.0840209
internal_weight=0 719.209 17.9356
internal_count=1764931 1757744 23675
is_linear=0
shrinkage=0.1


Tree=52
num_leaves=4
num_cat=0
split_feature=7 9 3
split_gain=7.40841 11.2683 13.5399
threshold=-83.906948089599595 9.0833333333430364 0.022111275929538161
decision_type=2 2 2
left_child=-1 -2 -3
right_child=1 2 -4
leaf_value=0.0022521116919258992 -0.060164684419557968 0.33923588303019803 -0.030026643209402844
leaf_weight=688.78100797815569 35.391669920172717 1.4195141133677673 2.4638811684199027
leaf_count=1660709 99227 1391 3604
internal_value=0 -0.042288 0.115321
internal_weight=0 39.2751 3.8834
internal_count=1764931 104222 4995
is_linear=0
shrinkage=0.1


Tree=53
num_leaves=4
num_cat=0
split_feature=6 2 7
split_gain=7.19249 21.4401 45.497
threshold=35.883184432983406 0.25833333333139313 -83.945842742919908
decision_type=2 2 2
left_child=1 2 -1
right_child=-2 -3 -4
leaf_value=0.070035728419018936 -0.0025224573593686586 -0.01486527961497279 0.60901613273401811
leaf_weight=12.559082849409604 689.20924274407298 24.634141080910922 1.5941839364968462
leaf_count=19236 1683359 60339 1997
internal_value=0 0.0416219 0.138743
internal_weight=0 38.7874 14.1533
internal_count=1764931 81572 21233
is_linear=0
shrinkage=0.1


Tree=54
num_leaves=4
num_cat=0
split_feature=9 9 5
split_gain=7.36193 10.9162 16.6188
threshold=24.216666666645327 19.949999999982541 -84.128051757812486
decision_type=2 2 2
left_child=1 -1 -3
right_child=-2 2 -4
leaf_value=0.00010810558082528588 -0.090620881234714151 0.59935774361159289 0.057683435354973694
leaf_weight=715.76778627259046 8.6781527754428662 0.53292269583471386 2.6366423153231144
leaf_count=1755971 7187 359 1414
internal_value=0 0.000954962 0.180282
internal_weight=0 718.937 3.16957
internal_count=1764931 1757744 1773
is_linear=0
shrinkage=0.1


Tree=55
num_leaves=4
num_cat=0
split_feature=2 5 8
split_gain=6.9675 22.7779 10.3963
threshold=1.9249999999883587 -83.891063690185533 1.5000000000000002
decision_type=2 2 2
left_child=-1 -2 -3
right_child=1 2 -4
leaf_value=-0.00107779617168192 0.036508120966932317 -0.041054685231373199 0.84465556967700339
leaf_weight=721.24207903241404 5.7884865867163171 0.14937849433044803 0.34042318988940679
leaf_count=1756097 8166 192 476
internal_value=0 0.103022 0.642678
internal_weight=0 6.27829 0.489802
internal_count=1764931 8834 668
is_linear=0
shrinkage=0.1


Tree=56
num_leaves=4
num_cat=0
split_feature=7 6 6
split_gain=7.48205 11.4132 18.191
threshold=-83.906948089599595 35.963823318481452 35.965196609497077
decision_type=2 2 2
left_child=1 -1 -3
right_child=-2 2 -4
leaf_value=-0.00868930045680316 -0.043334721572979677 0.050229004941248656 -0.0017043516616308462
leaf_weight=399.41273734495917 37.741670141076611 106.37113532218791 183.63488812136347
leaf_count=1041060 104143 180023 439419
internal_value=0 0.00227243 0.0173658
internal_weight=0 689.419 290.006
internal_count=1764645 1660502 619442
is_linear=0
shrinkage=0.1


Tree=57
num_leaves=4
num_cat=0
split_feature=8 4 4
split_gain=6.73806 22.4516 50.1087
threshold=3.5000000000000004 35.94122505187989 35.933639526367195
decision_type=2 2 2
left_child=-1 2 -2
right_child=1 -3 -4
leaf_value=0.006514057549045005 -0.025401092823078938 -0.028844012623830684 0.20128143896503953
leaf_weight=492.98507450451143 28.974699422924459 190.89188625234965 14.4585529692049
leaf_count=928233 107589 678938 49885
internal_value=0 -0.0140752 0.0506562
internal_weight=0 234.325 43.4333
internal_count=1764645 836412 157474
is_linear=0
shrinkage=0.1


Tree=58
num_leaves=4
num_cat=0
split_feature=1 10 5
split_gain=6.97973 20.2167 43.075
threshold=4.4250000000000016 5.758333333331394 -84.134433746337876
decision_type=2 2 2
left_child=-1 -2 -3
right_child=1 2 -4
leaf_value=-0.016500588889471625 0.0013738809962492663 0.42335485013713631 0.04101557198584535
leaf_weight=192.15219922813412 510.29174651992071 3.2062519055398324 21.950211068673525
leaf_count=460542 1282207 1685 20211
internal_value=0 0.00570632 0.0928429
internal_weight=0 535.448 25.1565
internal_count=1764645 1304103 21896
is_linear=0
shrinkage=0.1


Tree=59
num_leaves=4
num_cat=0
split_feature=8 10 1
split_gain=7.01773 21.9958 19.8059
threshold=1.0000000180025095e-35 1.8750000000000002 11.775000000000002
decision_type=2 2 2
left_child=1 -1 -3
right_child=-2 2 -4
leaf_value=-0.051387441317727614 0.0033387124606405003 0.31896868968025222 0.025671028494361432
leaf_weight=68.047187389573082 644.9411655826334 2.6699932038318357 11.732045619297422
leaf_count=191834 1551386 2644 18781
internal_value=0 -0.0276093 0.0838484
internal_weight=0 82.4492 14.402
internal_count=1764645 213259 21425
is_linear=0
shrinkage=0.1


Tree=60
num_leaves=4
num_cat=0
split_feature=4 4 5
split_gain=6.77381 15.5354 111.047
threshold=35.959861755371101 35.960271835327156 -84.009937286376939
decision_type=2 2 2
left_child=-1 2 -2
right_child=1 -3 -4
leaf_value=-0.011021997048817685 2.1158733684892472 0.0061025495607238767 0.068545929224056515
leaf_weight=321.44511359605531 0.071065969270421081 400.5495431818963 5.2507567817738154
leaf_count=877133 176 874078 13258
internal_value=0 0.00840485 0.174862
internal_weight=0 405.871 5.32182
internal_count=1764645 887512 13434
is_linear=0
shrinkage=0.1


Tree=61
num_leaves=4
num_cat=0
split_feature=6 4 5
split_gain=6.24311 16.3787 17.3524
threshold=35.956212997436531 35.94122505187989 -84.04656600952147
decision_type=2 2 2
left_child=1 2 -1
right_child=-2 -3 -4
leaf_value=-0.024273136620736879 0.0070508989367364288 -0.031678512799051692 0.056079934812538368
leaf_weight=50.518233622366097 452.99225968149403 166.65149658939481 56.991178468520957
leaf_count=127491 1009735 475419 152000
internal_value=0 -0.0120619 0.0183461
internal_weight=0 274.161 107.509
internal_count=1764645 754910 279491
is_linear=0
shrinkage=0.1


Tree=62
num_leaves=4
num_cat=0
split_feature=8 1 1
split_gain=6.27227 13.3954 11.0932
threshold=5.5000000000000009 12.141666666666667 4.541666666666667
decision_type=2 2 2
left_child=2 -2 -1
right_child=1 -3 -4
leaf_value=-0.019381484774803427 0.0018380402703636663 -0.098932399052841263 0.010162290170823023
leaf_weight=170.52273293906183 40.233816667700012 19.408187087097758 497.0500601931999
leaf_count=391793 125962 192392 1054498
internal_value=0 -0.0311805 0.00261163
internal_weight=0 59.642 667.573
internal_count=1764645 318354 1446291
is_linear=0
shrinkage=0.1


Tree=63
num_leaves=4
num_cat=0
split_feature=9 9 2
split_gain=6.84473 7.65938 13.4634
threshold=24.216666666645327 19.949999999982541 0.26666666669189004
decision_type=2 2 2
left_child=1 -1 -3
right_child=-2 2 -4
leaf_value=-5.5493084086449269e-05 -0.090024921222872978 0.28426167720198231 -0.089743357457591794
leaf_weight=715.55385287119134 8.2028153199753415 2.2440067943098252 1.450774860975798
leaf_count=1756020 7192 811 965
internal_value=0 0.000706237 0.140398
internal_weight=0 719.249 3.69478
internal_count=1764988 1757796 1776
is_linear=0
shrinkage=0.1


Tree=64
num_leaves=4
num_cat=0
split_feature=8 10 0
split_gain=5.97685 16.0199 27.3569
threshold=1.0000000180025095e-35 1.5083333333313933 10.025000000000002
decision_type=2 2 2
left_child=1 -1 -3
right_child=-2 2 -4
leaf_value=-0.050090608773284861 0.0028794890522758935 0.4411622815630567 0.017261393310404841
leaf_weight=62.273370508861262 646.74940350951147 1.4681726158305561 16.744232760654995
leaf_count=183872 1551854 1126 28136
internal_value=0 -0.0259832 0.0560657
internal_weight=0 80.4858 18.2124
internal_count=1764988 213134 29262
is_linear=0
shrinkage=0.1


Tree=65
num_leaves=4
num_cat=0
split_feature=9 4 0
split_gain=6.73207 30.751 28.9549
threshold=0.041666666686069227 35.926574707031257 12.125000000000002
decision_type=2 2 2
left_child=1 2 -1
right_child=-2 -3 -4
leaf_value=1.3206703317959056 -0.0019183725105408314 0.031020301075884649 0.080079637974462436
leaf_weight=0.15741488959611416 707.3735328609182 19.01991472622467 0.44810878035787027
leaf_count=146 1725080 39370 392
internal_value=0 0.0571516 0.659048
internal_weight=0 19.6254 0.605524
internal_count=1764988 39908 538
is_linear=0
shrinkage=0.1


Tree=66
num_leaves=4
num_cat=0
split_feature=9 9 9
split_gain=6.11109 7.0238 16.9383
threshold=24.216666666645327 1.4916666666686071 1.5083333333313933
decision_type=2 2 2
left_child=1 -1 -3
right_child=-2 2 -4
leaf_value=-0.0041278972804406344 -0.088531843144422362 0.30979342983850522 0.016688208068662953
leaf_weight=581.37211507381653 7.5514776462769069 1.7927849758270884 135.98883726367785
leaf_count=1457264 7192 2838 297694
internal_value=0 0.000684408 0.0209674
internal_weight=0 719.154 137.782
internal_count=1764988 1757796 300532
is_linear=0
shrinkage=0.1


Tree=67
num_leaves=4
num_cat=0
split_feature=4 5 4
split_gain=6.11977 16.2092 89.3248
threshold=35.968875885009773 -84.115642547607408 36.001867294311531
decision_type=2 2 2
left_child=-1 2 -2
right_child=1 -3 -4
leaf_value=0.0040325943737650385 0.57568450231414237 -0.032531888823497827 -0.041350304331522168
leaf_weight=596.52747301380805 2.6987238950823658 115.35119591186231 12.024554883664676
leaf_count=1426265 3952 312607 22164
internal_value=0 -0.0198898 0.0782078
internal_weight=0 130.074 14.7233
internal_count=1764988 338723 26116
is_linear=0
shrinkage=0.1


Tree=68
num_leaves=4
num_cat=0
split_feature=5 1 0
split_gain=5.95144 18.7289 15.5492
threshold=-83.932071685791001 22.158333333333335 0.62500000000000011
decision_type=2 2 2
left_child=-1 2 -2
right_child=1 -3 -4
leaf_value=-0.0084708053922653431 0.11812000826468845 0.083555095417756894 -0.002548976566632586
leaf_weight=399.29959426598725 10.88456159835914 30.880426689585875 285.29865935057751
leaf_count=1038249 24418 75424 626897
internal_value=0 0.0097176 0.00196484
internal_weight=0 327.064 296.183
internal_count=1764988 726739 651315
is_linear=0
shrinkage=0.1


Tree=69
num_leaves=4
num_cat=0
split_feature=9 1 6
split_gain=5.7497 15.0221 38.4682
threshold=0.050000000017462305 6.1250000000000009 35.952230453491218
decision_type=2 2 2
left_child=1 -1 -3
right_child=-2 2 -4
leaf_value=-0.017661885831478194 -0.0028023361580003046 0.31187385903054976 0.019170327302204294
leaf_weight=29.170083999546478 672.25534801856338 5.6600520280881055 19.251150988344307
leaf_count=58803 1652939 10989 42257
internal_value=0 0.0310291 0.0877272
internal_weight=0 54.0813 24.9112
internal_count=1764988 112049 53246
is_linear=0
shrinkage=0.1


Tree=70
num_leaves=4
num_cat=0
split_feature=10 1 0
split_gain=6.33262 14.7946 19.8082
threshold=0.050000000017462305 6.1250000000000009 7.1416666666666684
decision_type=2 2 2
left_child=1 -1 -3
right_child=-2 2 -4
leaf_value=-0.018131826840101613 -0.0033998513843477214 0.22865420448926002 0.034047128830038534
leaf_weight=29.340535641233146 669.26637041012145 6.8277810140716637 20.775319853855763
leaf_count=60499 1652281 5457 46529
internal_value=0 0.0312787 0.0835503
internal_weight=0 56.9436 27.6031
internal_count=1764766 112485 51986
is_linear=0
shrinkage=0.1


Tree=71
num_leaves=4
num_cat=0
split_feature=5 6 4
split_gain=6.09982 17.3929 23.1121
threshold=-83.932071685791001 35.967355728149421 36.076534271240241
decision_type=2 2 2
left_child=-1 -2 -3
right_child=1 2 -4
leaf_value=-0.0089894885508663269 0.022505591496316327 -0.04467104391480415 0.17359549609667851
leaf_weight=396.10170261149688 248.89217540328173 75.888646156334289 4.9770590913176411
leaf_count=1038038 499169 220176 7383
internal_value=0 0.00941636 -0.0308212
internal_weight=0 329.758 80.8657
internal_count=1764766 726728 227559
is_linear=0
shrinkage=0.1


Tree=72
num_leaves=4
num_cat=0
split_feature=8 0 5
split_gain=5.98532 11.8492 20.2473
threshold=5.5000000000000009 4.6250000000000009 -83.919006347656236
decision_type=2 2 2
left_child=-1 2 -2
right_child=1 -3 -4
leaf_value=0.0020946031183530691 -0.014848689703823807 -0.066432869101166858 0.24610991958994877
leaf_weight=667.34865218961932 18.821831896100779 36.125453174674476 3.3173338456981574
leaf_count=1446341 65877 243155 9393
internal_value=0 -0.0312708 0.0261779
internal_weight=0 58.2646 22.1392
internal_count=1764766 318425 75270
is_linear=0
shrinkage=0.1


Tree=73
num_leaves=4
num_cat=0
split_feature=7 2 9
split_gain=5.4134 10.3233 10.7802
threshold=-83.906948089599595 4.8500000000058217 3.9916666666686074
decision_type=2 2 2
left_child=-1 2 -2
right_child=1 -3 -4
leaf_value=0.0014270980181604355 -0.071421689466231217 0.48301356578551646 0.062161213560016186
leaf_weight=689.22567214462833 28.456964766417514 0.16841003332228766 7.478543138204258
leaf_count=1660514 91225 70 12957
internal_value=0 -0.038187 -0.0434159
internal_weight=0 36.1039 35.9355
internal_count=1764766 104252 104182
is_linear=0
shrinkage=0.1


Tree=74
num_leaves=4
num_cat=0
split_feature=9 9 0
split_gain=5.31661 7.22343 22.1022
threshold=24.216666666645327 0.99166666666860703 10.025000000000002
decision_type=2 2 2
left_child=1 -1 -3
right_child=-2 2 -4
leaf_value=-0.0054414686177759316 -0.086742665151604531 0.07730069630901909 -0.0029236238814523315
leaf_weight=538.52906976889062 6.8693948119616826 46.022198997132364 133.46056977611079
leaf_count=1339775 7184 62710 355097
internal_value=0 0.000349281 0.0177117
internal_weight=0 718.012 179.483
internal_count=1764766 1757582 417807
is_linear=0
shrinkage=0.1


Tree=75
num_leaves=4
num_cat=0
split_feature=10 6 1
split_gain=5.26206 9.7137 10.9007
threshold=0.083333333343034624 35.968666076660163 22.94166666666667
decision_type=2 2 2
left_child=1 2 -1
right_child=-2 -3 -4
leaf_value=0.020295271325526457 -0.0044542780338858645 -0.066282370403072791 0.17398962552582486
leaf_weight=112.81000250361467 594.86203612302415 12.241581603149823 4.6095216356843585
leaf_count=226711 1490742 36039 11274
internal_value=0 0.0177629 0.0266295
internal_weight=0 129.661 117.42
internal_count=1764766 274024 237985
is_linear=0
shrinkage=0.1


Tree=76
num_leaves=4
num_cat=0
split_feature=8 0 2
split_gain=5.16056 29.4994 20.1482
threshold=2.5000000000000004 10.158333333333335 0.68333333331975166
decision_type=2 2 2
left_child=-1 -2 -3
right_child=1 2 -4
leaf_value=0.007783324596220248 0.018139989282997846 -0.048666001403724075 0.095704708210576417
leaf_weight=371.4537435802049 186.88047333597206 155.84769746183156 10.112896476613967
leaf_count=682105 367434 674789 40438
internal_value=0 -0.00909922 -0.0397578
internal_weight=0 352.841 165.961
internal_count=1764766 1082661 715227
is_linear=0
shrinkage=0.1


Tree=77
num_leaves=4
num_cat=0
split_feature=4 4 9
split_gain=5.94141 12.7081 23.668
threshold=35.968875885009773 35.968666076660163 0.90833333332557242
decision_type=2 2 2
left_child=1 -1 -3
right_child=-2 2 -4
leaf_value=0.0037485046517358477 -0.019528832635854448 -0.074832514980443923 0.78459851117056578
leaf_weight=597.96018827108492 125.18736700609952 0.63092075431268202 0.37950556885334663
leaf_count=1422824 338653 2662 913
internal_value=0 0.00440793 0.326905
internal_weight=0 598.971 1.01043
internal_count=1765052 1426399 3575
is_linear=0
shrinkage=0.1


Tree=78
num_leaves=4
num_cat=0
split_feature=1 1 9
split_gain=5.25574 9.00765 35.8395
threshold=4.4250000000000016 10.125000000000002 0.45833333331393084
decision_type=2 2 2
left_child=-1 2 -2
right_child=1 -3 -4
leaf_value=-0.014090348271410645 0.0042628170395127059 -0.0016528612820666294 0.14842108025717946
leaf_weight=189.06165631129988 98.578772916051093 416.0622450881383 20.698081717149762
leaf_count=460568 128065 1169341 7078
internal_value=0 0.00529575 0.0294966
internal_weight=0 535.339 119.277
internal_count=1765052 1304484 135143
is_linear=0
shrinkage=0.1


Tree=79
num_leaves=4
num_cat=0
split_feature=9 4 2
split_gain=5.30189 5.22459 12.2875
threshold=24.216666666645327 35.870111465454109 0.033333333354676149
decision_type=2 2 2
left_child=1 2 -1
right_child=-2 -3 -4
leaf_value=0.18325689036022258 -0.086794669180008582 -0.00068573303099535917 0.011729939254908929
leaf_weight=4.9248369501074221 6.7322203097101001 690.09180725293118 22.596759097730683
leaf_count=3473 7200 1693722 60657
internal_value=0 0.00102388 0.043583
internal_weight=0 717.613 27.5216
internal_count=1765052 1757852 64130
is_linear=0
shrinkage=0.1


Tree=80
num_leaves=4
num_cat=0
split_feature=5 6 4
split_gain=5.61953 13.9134 17.1783
threshold=-83.934116363525376 35.967355728149421 36.076534271240241
decision_type=2 2 2
left_child=-1 -2 -3
right_child=1 2 -4
leaf_value=-0.0087699234468280162 0.019058662783068725 -0.041471284140193625 0.13370540912133067
leaf_weight=357.30105868721512 287.81678833560363 73.399722385347559 5.8554380187633788
leaf_count=958730 571437 227370 7515
internal_value=0 0.00884225 -0.0282082
internal_weight=0 367.072 79.2552
internal_count=1765052 806322 234885
is_linear=0
shrinkage=0.1


Tree=81
num_leaves=4
num_cat=0
split_feature=8 0 7
split_gain=5.05762 24.2078 18.244
threshold=2.5000000000000004 10.025000000000002 -84.145633697509751
decision_type=2 2 2
left_child=-1 -2 -3
right_child=1 2 -4
leaf_value=0.0081987423738805066 0.015796959815653482 0.095251252519597068 -0.045389219852544162
leaf_weight=374.24855845942511 188.79420658871095 9.6247988653885823 151.98568166593941
leaf_count=682163 363341 40510 679038
internal_value=0 -0.00851399 -0.0368995
internal_weight=0 350.405 161.61
internal_count=1765052 1082889 719548
is_linear=0
shrinkage=0.1


Tree=82
num_leaves=4
num_cat=0
split_feature=8 9 1
split_gain=5.2262 13.7828 10.3475
threshold=1.0000000180025095e-35 1.8583333333372141 22.108333333333338
decision_type=2 2 2
left_child=1 -1 -2
right_child=2 -3 -4
leaf_value=-0.044329103551154617 -0.0011683738104887103 0.061426027582559106 0.041004938787601468
leaf_weight=64.173562165109615 581.2470375338562 15.046694116783327 64.437891239380406
leaf_count=182115 1374089 31082 177766
internal_value=0 -0.0241305 0.00305193
internal_weight=0 79.2203 645.685
internal_count=1765052 213197 1551855
is_linear=0
shrinkage=0.1


Tree=83
num_leaves=4
num_cat=0
split_feature=10 10 9
split_gain=5.13159 7.52447 7.31834
threshold=23.399999999994183 20.208333333313934 19.949999999982541
decision_type=2 2 2
left_child=1 -1 -3
right_child=-2 2 -4
leaf_value=0.0003875067063143136 -0.077059304296543729 0.051833198660003937 0.44483491448408929
leaf_weight=714.66545416675581 8.3201882888461096 1.5520486194582184 0.52000990391388757
leaf_count=1758807 4649 1537 59
internal_value=0 0.000966764 0.1823
internal_weight=0 716.738 2.07206
internal_count=1765052 1760403 1596
is_linear=0
shrinkage=0.1


Tree=84
num_leaves=4
num_cat=0
split_feature=6 7 9
split_gain=5.16707 15.5509 13.2039
threshold=35.956212997436531 -83.916320800781236 0.69166666665114473
decision_type=2 2 2
left_child=-1 2 -2
right_child=1 -3 -4
leaf_value=-0.010851817075032905 0.0022917206246189517 -0.053703180838906656 0.04426489845421358
leaf_weight=272.57315968678085 315.52199337424099 38.904356702974837 98.104580164397703
leaf_count=754906 667214 120626 222111
internal_value=0 0.00657087 0.0122649
internal_weight=0 452.531 413.627
internal_count=1764857 1009951 889325
is_linear=0
shrinkage=0.1


Tree=85
num_leaves=4
num_cat=0
split_feature=3 5 6
split_gain=5.12501 8.09441 9.98712
threshold=0.11989584325867948 -84.115642547607408 35.839078903198249
decision_type=2 2 2
left_child=-1 -2 -3
right_child=1 2 -4
leaf_value=0.0033045206365044121 0.028068340269771522 0.056632946633570116 -0.052484344068812187
leaf_weight=628.02351142270709 24.594064731487379 9.4901107732366636 63.159935277035402
leaf_count=1490618 63501 24947 185791
internal_value=0 -0.0213424 -0.0381055
internal_weight=0 97.2441 72.65
internal_count=1764857 274239 210738
is_linear=0
shrinkage=0.1


Tree=86
num_leaves=4
num_cat=0
split_feature=1 9 9
split_gain=5.09009 10.2088 22.0117
threshold=3.5250000000000004 7.0666666666802493 14.083333333343036
decision_type=2 2 2
left_child=1 -1 -3
right_child=-2 2 -4
leaf_value=-0.019877033404788979 0.0043831948598127609 0.57091629444557268 0.0066235960639143407
leaf_weight=153.45862819490867 568.40971701085437 0.71548175721545648 2.7637841449723055
leaf_count=390503 1372504 1130 720
internal_value=0 -0.0159496 0.148514
internal_weight=0 156.938 3.47927
internal_count=1764857 392353 1850
is_linear=0
shrinkage=0.1


Tree=87
num_leaves=4
num_cat=0
split_feature=5 7 6
split_gain=4.94735 11.8496 18.2656
threshold=-83.932071685791001 -83.979236602783189 35.933639526367195
decision_type=2 2 2
left_child=1 2 -1
right_child=-2 -3 -4
leaf_value=-0.020761508528456596 0.0089424185393013316 -0.020277460413125496 0.052401541090738593
leaf_weight=67.388043074861343 332.74898623901572 256.49105703007808 68.734610692232309
leaf_count=169116 726741 693801 175199
internal_value=0 -0.00762657 0.0162037
internal_weight=0 392.614 136.123
internal_count=1764857 1038116 344315
is_linear=0
shrinkage=0.1


Tree=88
num_leaves=4
num_cat=0
split_feature=9 4 7
split_gain=4.83913 5.12821 15.4371
threshold=24.216666666645327 35.870111465454109 -84.178695678710923
decision_type=2 2 2
left_child=1 2 -1
right_child=-2 -3 -4
leaf_value=0.30038554566293435 -0.085527390795955935 -0.00097958897483499201 0.021123175112645078
leaf_weight=1.9359025779194805 6.3536786901040605 690.89494813356214 26.32160179436687
leaf_count=3738 7179 1693592 60348
internal_value=0 0.000733591 0.0423295
internal_weight=0 719.152 28.2575
internal_count=1764857 1757678 64086
is_linear=0
shrinkage=0.1


Tree=89
num_leaves=4
num_cat=0
split_feature=3 5 7
split_gain=4.45396 6.71474 7.87175
threshold=0.11989584325867948 -84.101379394531236 -84.414230346679673
decision_type=2 2 2
left_child=-1 -2 -3
right_child=1 2 -4
leaf_value=0.0030089339950861208 0.021379333012876311 0.13144020383014687 -0.043673746332722412
leaf_weight=629.64008757826196 27.595900007559976 2.4714250459946916 65.685021771067113
leaf_count=1490618 69625 6539 198075
internal_value=0 -0.020118 -0.0369377
internal_weight=0 95.7523 68.1564
internal_count=1764857 274239 204614
is_linear=0
shrinkage=0.1


Tree=90
num_leaves=4
num_cat=0
split_feature=8 1 5
split_gain=4.57208 10.8851 10.7956
threshold=5.5000000000000009 12.141666666666667 -83.983940124511705
decision_type=2 2 2
left_child=-1 2 -2
right_child=1 -3 -4
leaf_value=0.002256369295428007 0.10469426905991364 -0.098646990415603097 -0.02511197582384438
leaf_weight=668.94408497615223 7.7051829699812506 15.324542891219606 33.433202405096381
leaf_count=1446439 21155 192443 104820
internal_value=0 -0.0273255 -0.000386759
internal_weight=0 56.4629 41.1384
internal_count=1764857 318418 125975
is_linear=0
shrinkage=0.1


Tree=91
num_leaves=4
num_cat=0
split_feature=8 5 4
split_gain=4.90683 12.6108 21.493
threshold=1.0000000180025095e-35 -83.919277191162095 35.948457717895515
decision_type=2 2 2
left_child=1 -1 -3
right_child=-2 2 -4
leaf_value=-0.039418317528581902 0.0023844455109953504 0.35891858756778366 0.0031180258070110617
leaf_weight=68.061658060432819 647.63996114723159 1.9678122059995056 7.7387837353671785
leaf_count=183610 1551453 4196 25421
internal_value=0 -0.0241674 0.0813209
internal_weight=0 77.7683 9.7066
internal_count=1764680 213227 29617
is_linear=0
shrinkage=0.1


Tree=92
num_leaves=4
num_cat=0
split_feature=10 10 6
split_gain=4.56759 5.86478 5.55097
threshold=23.399999999994183 20.208333333313934 36.001945495605476
decision_type=2 2 2
left_child=1 2 -1
right_child=-2 -3 -4
leaf_value=0.0024702938144708017 -0.075387366754930699 0.15459367393231638 -0.03000349294505103
leaf_weight=658.02634870267684 7.8316383561250396 2.2493515723908777 57.004712913709227
leaf_count=1603763 4663 1590 154664
internal_value=0 0.000403451 -0.000126276
internal_weight=0 717.28 715.031
internal_count=1764680 1760017 1758427
is_linear=0
shrinkage=0.1


Tree=93
num_leaves=4
num_cat=0
split_feature=4 1 4
split_gain=4.72615 15.2835 16.7959
threshold=35.962301254272468 16.008333333333336 35.968875885009773
decision_type=2 2 2
left_child=-1 -2 -3
right_child=1 2 -4
leaf_value=-0.0086719861320944201 -0.0089529403147789437 0.056512252027654246 -0.014969540954268765
leaf_weight=353.59835972441397 224.1715632700998 97.63126004226433 49.383383258837057
leaf_count=965327 434213 210777 154363
internal_value=0 0.00747833 0.032512
internal_weight=0 371.186 147.015
internal_count=1764680 799353 365140
is_linear=0
shrinkage=0.1


Tree=94
num_leaves=4
num_cat=0
split_feature=10 8 10
split_gain=4.3641 11.3606 9.9079
threshold=1.1583333333255725 1.0000000180025095e-35 2.6000000000058212
decision_type=2 2 2
left_child=1 -1 -2
right_child=2 -3 -4
leaf_value=-0.048094827646124494 0.040941377507324128 4.8064752863686851e-05 -0.0079510378581351456
leaf_weight=54.097297106913175 74.309702313927119 503.05634074079353 93.252809061856169
leaf_count=174106 204128 1224476 161970
internal_value=0 -0.00464223 0.013754
internal_weight=0 557.154 167.563
internal_count=1764680 1398582 366098
is_linear=0
shrinkage=0.1


Tree=95
num_leaves=4
num_cat=0
split_feature=9 6 6
split_gain=4.18973 4.59617 14.5302
threshold=24.216666666645327 35.883184432983406 35.922502517700202
decision_type=2 2 2
left_child=1 -1 -3
right_child=-2 2 -4
leaf_value=0.033166467153481594 -0.083516344672539072 -0.062275437040345577 0.001910669656603702
leaf_weight=40.032251373475447 5.8004309819843902 37.110186258556496 641.64394130472647
leaf_count=80642 7185 107357 1569496
internal_value=0 0.000329571 -0.00161635
internal_weight=0 718.786 678.754
internal_count=1764680 1757495 1676853
is_linear=0
shrinkage=0.1


Tree=96
num_leaves=4
num_cat=0
split_feature=2 1 7
split_gain=4.15325 13.2298 17.5142
threshold=1.9249999999883587 10.875000000000002 -83.927936553955064
decision_type=2 2 2
left_child=-1 -2 -3
right_child=1 2 -4
leaf_value=-0.0011226509893998288 -0.069537906458666671 0.042627233334664574 0.4803721664710156
leaf_weight=717.09748785405463 3.379016227721876 2.7344175080033897 1.2013685151287061
leaf_count=1755855 3309 4026 1490
internal_value=0 0.0735634 0.193795
internal_weight=0 7.3148 3.93579
internal_count=1764680 8825 5516
is_linear=0
shrinkage=0.1


Tree=97
num_leaves=4
num_cat=0
split_feature=10 5 6
split_gain=3.84396 6.85408 8.22324
threshold=23.399999999994183 -83.877750396728501 36.016656875610359
decision_type=2 2 2
left_child=-1 -2 -3
right_child=1 2 -4
leaf_value=0.00041304516216302174 -0.099609180864387373 -0.061847355820809469 0.62444206533662661
leaf_weight=717.10843578115418 6.6865595234994544 0.33083694253582407 0.095349471201188862
leaf_count=1760017 4355 251 57
internal_value=0 -0.0724128 0.246241
internal_weight=0 7.11275 0.426186
internal_count=1764680 4663 308
is_linear=0
shrinkage=0.1


Tree=98
num_leaves=4
num_cat=0
split_feature=7 9 5
split_gain=4.77561 6.96904 9.79572
threshold=-83.906948089599595 2.4916666666686074 -83.877750396728501
decision_type=2 2 2
left_child=-1 -2 -3
right_child=1 2 -4
leaf_value=0.0016191736704076832 -0.068233958830977076 -0.048154080115997588 0.15321129977632716
leaf_weight=691.82032104417522 22.369564945325692 5.8756721078207192 3.8112207196281798
leaf_count=1660400 84445 12760 6934
internal_value=0 -0.0377395 0.0326078
internal_weight=0 32.0565 9.68689
internal_count=1764539 104139 19694
is_linear=0
shrinkage=0.1


Tree=99
num_leaves=4
num_cat=0
split_feature=10 10 8
split_gain=4.85618 5.23961 9.98213
threshold=23.399999999994183 1.1583333333255725 5.5000000000000009
decision_type=2 2 2
left_child=1 -1 -3
right_child=-2 2 -4
leaf_value=-0.0039551196375879347 -0.084526669430752863 0.022431099721384077 -0.086484565059408547
leaf_weight=555.25738027920306 6.5456559217927852 153.25899402354116 8.6984470134375425
leaf_count=1398599 4658 311970 49312
internal_value=0 0.000661594 0.0164759
internal_weight=0 717.215 161.957
internal_count=1764539 1759881 361282
is_linear=0
shrinkage=0.1


Tree=100
num_leaves=4
num_cat=0
split_feature=6 4 10
split_gain=4.33562 16.3344 12.715
threshold=36.001945495605476 36.076534271240241 1.6166666666686071
decision_type=2 2 2
left_child=-1 -2 -3
right_child=1 2 -4
leaf_value=0.0021288905224358893 -0.052444469877331805 0.16801907120604653 -0.051032880475604961
leaf_weight=666.727281082236 46.206275767493935 6.5800431771222048 4.2148783880838891
leaf_count=1608316 142933 9040 4250
internal_value=0 -0.0265564 0.0831219
internal_weight=0 57.0012 10.7949
internal_count=1764539 156223 13290
is_linear=0
shrinkage=0.1


Tree=101
num_leaves=4
num_cat=0
split_feature=9 0 0
split_gain=4.28733 25.4748 16.4462
threshold=0.041666666686069227 0.77500000000000013 6.4750000000000005
decision_type=2 2 2
left_child=1 -1 -3
right_child=-2 2 -4
leaf_value=0.63272866731512689 -0.0014964074278515939 -0.045607493098655985 0.13499781613229533
leaf_weight=0.5014045017160268 702.31101346089963 13.026957215573931 7.9436941823041698
leaf_count=948 1724664 23186 15741
internal_value=0 0.0436531 0.0234508
internal_weight=0 21.4721 20.9707
internal_count=1764539 39875 38927
is_linear=0
shrinkage=0.1


Tree=102
num_leaves=4
num_cat=0
split_feature=10 10 7
split_gain=4.2575 4.67309 8.46625
threshold=23.399999999994183 17.825000000011645 -84.113761901855455
decision_type=2 2 2
left_child=1 -1 -3
right_child=-2 2 -4
leaf_value=-0.00013056800808975658 -0.082720937998667185 0.25505172537688764 -0.0030348583739520925
leaf_weight=712.53977286900408 5.9804772289280654 1.8137426979956215 3.401934408764645
leaf_count=1756450 4658 696 2735
internal_value=0 0.000572967 0.0930359
internal_weight=0 717.755 5.21568
internal_count=1764539 1759881 3431
is_linear=0
shrinkage=0.1


Tree=103
num_leaves=4
num_cat=0
split_feature=8 2 4
split_gain=4.23597 20.4068 11.5584
threshold=4.5000000000000009 0.68333333331975166 35.949998855590827
decision_type=2 2 2
left_child=-1 -2 -3
right_child=1 2 -4
leaf_value=0.0036724578541795917 -0.025062109552048184 0.30185127364803027 0.051672511569846549
leaf_weight=580.42325107010038 134.51884671874177 2.5720498868577106 5.8480497215277865
leaf_count=1178455 558540 8986 18558
internal_value=0 -0.0155335 0.133584
internal_weight=0 142.939 8.4201
internal_count=1764539 586084 27544
is_linear=0
shrinkage=0.1


Tree=104
num_leaves=4
num_cat=0
split_feature=3 5 4
split_gain=4.38298 6.53062 13.9911
threshold=0.23346912889969798 -84.150684356689439 35.690221786499031
decision_type=2 2 2
left_child=-1 2 -2
right_child=1 -3 -4
leaf_value=0.0022988343479681274 0.55735469688478056 -0.043555044652632442 0.013286937843119465
leaf_weight=659.37504748027641 0.27871116406095353 47.883185360704374 15.813098965765674
leaf_count=1584113 771 141343 38312
internal_value=0 -0.025075 0.0297521
internal_weight=0 63.975 16.0918
internal_count=1764539 180426 39083
is_linear=0
shrinkage=0.1


Tree=105
num_leaves=4
num_cat=0
split_feature=10 2 5
split_gain=4.0841 15.6058 19.8949
threshold=0.050000000017462305 0.27500000002328312 -83.946624755859361
decision_type=2 2 2
left_child=1 -1 -3
right_child=-2 2 -4
leaf_value=0.0093324063051364332 -0.0022070270621222104 0.39892863730620942 0.005426609775197622
leaf_weight=54.791235792288717 663.37104003140485 2.2273881311466539 2.7336038113480745
leaf_count=103364 1652385 4266 4842
internal_value=0 0.0250449 0.191137
internal_weight=0 59.7522 4.96099
internal_count=1764857 112472 9108
is_linear=0
shrinkage=0.1


Tree=106
num_leaves=4
num_cat=0
split_feature=6 1 4
split_gain=4.09709 21.1559 22.607
threshold=36.055479049682624 0.82500000000000007 36.055639266967781
decision_type=2 2 2
left_child=-1 2 -2
right_child=1 -3 -4
leaf_value=-0.0013200731306177306 -0.06651068555660293 0.020030344321645806 0.84005237176997971
leaf_weight=700.84815931364574 0.4219114943152843 21.515250078438839 0.45114580629888223
leaf_count=1717576 1469 45161 651
internal_value=0 0.0419411 0.473489
internal_weight=0 22.3883 0.873057
internal_count=1764857 47281 2120
is_linear=0
shrinkage=0.1


Tree=107
num_leaves=4
num_cat=0
split_feature=8 9 2
split_gain=4.00128 11.3461 6.75654
threshold=1.0000000180025095e-35 1.4916666666686071 0.01666666669188999
decision_type=2 2 2
left_child=1 -1 -3
right_child=-2 2 -4
leaf_value=-0.044609910750512433 0.0025359775864983651 0.13956269222280304 0.0070765201252699673
leaf_weight=55.479824407819251 649.18356055924596 5.2000376755895585 13.449947426692232
leaf_count=174760 1551735 7760 30602
internal_value=0 -0.0219562 0.0451678
internal_weight=0 74.1298 18.65
internal_count=1764857 213122 38362
is_linear=0
shrinkage=0.1


Tree=108
num_leaves=4
num_cat=0
split_feature=10 7 7
split_gain=3.66975 10.3274 7.92338
threshold=0.99166666666860703 -83.915809631347642 -83.934478759765611
decision_type=2 2 2
left_child=1 2 -1
right_child=-2 -3 -4
leaf_value=-0.015128860257876207 0.012079849320101572 -0.077455996922809647 0.0096939966199995013
leaf_weight=235.14493964049143 186.58268253925235 18.366348128749451 283.25593289981225
leaf_count=695627 416202 68615 584413
internal_value=0 -0.00419293 -0.00156663
internal_weight=0 536.767 518.401
internal_count=1764857 1348655 1280040
is_linear=0
shrinkage=0.1


Tree=109
num_leaves=4
num_cat=0
split_feature=4 4 10
split_gain=3.91108 10.4509 18.668
threshold=36.002710342407234 36.055639266967781 12.875000000000002
decision_type=2 2 2
left_child=-1 2 -2
right_child=1 -3 -4
leaf_value=0.0021698482468922742 -0.080108364605478669 0.022257440774251781 0.25823357051173618
leaf_weight=665.09472327163712 30.780653541451102 26.037698958676629 1.5199143270983757
leaf_count=1611760 103887 47494 1716
internal_value=0 -0.0247895 -0.0626216
internal_weight=0 58.3383 32.3006
internal_count=1764857 153097 105603
is_linear=0
shrinkage=0.1


Tree=110
num_leaves=4
num_cat=0
split_feature=3 3 2
split_gain=3.62389 7.02154 16.9429
threshold=0.78939429602907796 0.59288075738668311 0.72499999997671705
decision_type=2 2 2
left_child=1 -1 -3
right_child=-2 2 -4
leaf_value=-0.00021957528617869856 -0.059139043619824416 0.31086270712688441 -0.0054673339669068614
leaf_weight=705.93633102288004 10.015073314605614 2.2737770378043924 5.2970202028282074
leaf_count=1721759 23288 5732 14078
internal_value=0 0.000821244 0.0953039
internal_weight=0 713.507 7.5708
internal_count=1764857 1741569 19810
is_linear=0
shrinkage=0.1


Tree=111
num_leaves=4
num_cat=0
split_feature=1 9 1
split_gain=3.40376 14.1491 17.3687
threshold=5.0250000000000012 6.8166666666802493 1.8083333333333336
decision_type=2 2 2
left_child=1 -1 -3
right_child=-2 2 -4
leaf_value=-0.01532348038031397 0.0042545802341740309 -0.053348887148803807 0.30524013632975727
leaf_weight=198.28612300828172 520.13074233673797 2.3142735196815911 2.8606709124724148
leaf_count=493904 1268531 1126 1296
internal_value=0 -0.0109945 0.148983
internal_weight=0 203.461 5.17494
internal_count=1764857 496326 2422
is_linear=0
shrinkage=0.1


Tree=112
num_leaves=4
num_cat=0
split_feature=9 5 2
split_gain=3.87088 4.01452 13.106
threshold=24.216666666645327 -83.989753723144517 0.01666666669188999
decision_type=2 2 2
left_child=1 2 -1
right_child=-2 -3 -4
leaf_value=0.074702517532200127 -0.082121484642798823 -0.0030097582745426924 -8.9717719194141397e-05
leaf_weight=29.584663568162796 5.485026023718091 579.35788628541195 109.6422668217092
leaf_count=67179 7189 1406045 284699
internal_value=0 0.000655171 0.0158894
internal_weight=0 718.585 139.227
internal_count=1765112 1757923 351878
is_linear=0
shrinkage=0.1


Tree=113
num_leaves=4
num_cat=0
split_feature=4 1 8
split_gain=3.74902 11.4042 16.5513
threshold=35.962301254272468 15.108333333333336 1.5000000000000002
decision_type=2 2 2
left_child=-1 -2 -3
right_child=1 2 -4
leaf_value=-0.0074390570400881071 -0.0086449412875294167 0.067656786876540795 0.0022729717256567659
leaf_weight=350.37202343293575 207.86856067758436 61.299623431834334 104.54507244045089
leaf_count=965619 398872 103178 297443
internal_value=0 0.00695535 0.0264965
internal_weight=0 373.713 165.845
internal_count=1765112 799493 400621
is_linear=0
shrinkage=0.1


Tree=114
num_leaves=4
num_cat=0
split_feature=9 0 0
split_gain=3.75856 13.7071 14.973
threshold=0.050000000017462305 0.54166666666666685 6.041666666666667
decision_type=2 2 2
left_child=1 -1 -3
right_child=-2 2 -4
leaf_value=0.3284407549285896 -0.0021344602540649218 -0.036710791461775284 0.066766644108442907
leaf_weight=1.2388412348445843 667.43723347102787 26.956418833324278 28.627928819789304
leaf_count=2248 1653057 56566 53241
internal_value=0 0.024611 0.0166296
internal_weight=0 56.8232 55.5843
internal_count=1765112 112055 109807
is_linear=0
shrinkage=0.1


Tree=115
num_leaves=4
num_cat=0
split_feature=5 5 2
split_gain=3.69378 3.97511 23.7481
threshold=-84.552288055419908 -84.180557250976548 1.0000000180025095e-35
decision_type=2 2 2
left_child=-1 2 -2
right_child=1 -3 -4
leaf_value=-0.09502272230450233 0.48652530270865157 -0.00082137805965696925 0.0178646862063199
leaf_weight=3.8621460150698104 0.93243594319210643 698.58831773247584 20.937523385726308
leaf_count=6601 320 1711599 46592
internal_value=0 0.000498354 0.0422748
internal_weight=0 720.458 21.87
internal_count=1765112 1758511 46912
is_linear=0
shrinkage=0.1


Tree=116
num_leaves=4
num_cat=0
split_feature=6 7 6
split_gain=3.45394 12.5656 39.4387
threshold=35.956212997436531 -84.009853363037095 36.001945495605476
decision_type=2 2 2
left_child=-1 2 -2
right_child=1 -3 -4
leaf_value=-0.0091164644073946696 0.18903762725678644 0.00086953531823548153 -0.041505633263334035
leaf_weight=265.12938771872541 13.927350367446708 429.50075818286405 15.487146178047622
leaf_count=755011 28903 943914 37284
internal_value=0 0.00521531 0.0682082
internal_weight=0 458.915 29.4145
internal_count=1765112 1010101 66187
is_linear=0
shrinkage=0.1


Tree=117
num_leaves=4
num_cat=0
split_feature=9 6 8
split_gain=3.44652 3.43276 12.8374
threshold=32.708333333343042 36.069278717041023 3.5000000000000004
decision_type=2 2 2
left_child=1 -1 -3
right_child=-2 2 -4
leaf_value=-0.00073899411123303578 -0.098033385671625714 -0.012416138580283349 0.16110228932002438
leaf_weight=701.12547879779959 3.3641442533216823 13.674468685043395 5.9675589431644758
leaf_count=1722450 5214 21839 15609
internal_value=0 0.000421486 0.0414297
internal_weight=0 720.768 19.642
internal_count=1765112 1759898 37448
is_linear=0
shrinkage=0.1


Tree=118
num_leaves=4
num_cat=0
split_feature=10 1 1
split_gain=3.43805 7.57037 9.82563
threshold=0.041666666686069227 0.69166666666666676 0.40833333333333338
decision_type=2 2 2
left_child=1 2 -1
right_child=-2 -3 -4
leaf_value=-0.056572653723243986 -0.0013459806546304352 0.027186931825119165 0.67388857689035164
leaf_weight=0.27710837386985332 700.32383931445383 23.366760188482658 0.20516615130327409
leaf_count=556 1725139 39111 306
internal_value=0 0.0371006 0.3636
internal_weight=0 23.849 0.482275
internal_count=1765112 39973 862
is_linear=0
shrinkage=0.1


Tree=119
num_leaves=4
num_cat=0
split_feature=3 2 3
split_gain=3.95098 5.32726 9.88785
threshold=0.23346912889969798 0.57500000001164164 0.33778482410592714
decision_type=2 2 2
left_child=-1 -2 -3
right_child=1 2 -4
leaf_value=0.0024183892759570263 -0.051352186487251032 0.31316098185222596 -0.0038890866317043528
leaf_weight=660.8050927924287 32.986819830859531 0.80888819169468007 29.081205922392655
leaf_count=1584229 102320 2322 75910
internal_value=0 -0.0237743 0.00679748
internal_weight=0 62.8769 29.8901
internal_count=1764781 180552 78232
is_linear=0
shrinkage=0.1


Tree=120
num_leaves=4
num_cat=0
split_feature=4 5 4
split_gain=4.10666 8.53407 34.8675
threshold=35.968875885009773 -84.115642547607408 36.001867294311531
decision_type=2 2 2
left_child=-1 2 -2
right_child=1 -3 -4
leaf_value=0.0034936533495224091 0.274447493552398 -0.027335145904696479 -0.041524542742812851
leaf_weight=602.83088078025321 4.6839691339519076 104.24192210379624 12.049885409891429
leaf_count=1426049 3971 312578 22183
internal_value=0 -0.01668 0.0491985
internal_weight=0 120.976 16.7339
internal_count=1764781 338732 26154
is_linear=0
shrinkage=0.1


Tree=121
num_leaves=4
num_cat=0
split_feature=8 10 0
split_gain=3.56342 11.096 12.4302
threshold=1.0000000180025095e-35 1.5083333333313933 10.025000000000002
decision_type=2 2 2
left_child=1 -1 -3
right_child=-2 2 -4
leaf_value=-0.044213029949072474 0.0024501583537101658 0.2557930293959127 0.013599328551047432
leaf_weight=53.902124567706778 650.00782586111836 2.2045929064770489 17.630406226831838
leaf_count=183916 1551588 1118 28159
internal_value=0 -0.0207165 0.042918
internal_weight=0 73.7371 19.835
internal_count=1764781 213193 29277
is_linear=0
shrinkage=0.1


Tree=122
num_leaves=4
num_cat=0
split_feature=4 5 7
split_gain=3.50576 8.19405 12.9726
threshold=35.968875885009773 -83.918033599853501 -84.333808898925767
decision_type=2 2 2
left_child=1 -1 -3
right_child=-2 2 -4
leaf_value=0.00047329785967391459 -0.015610237369254744 0.46764135452237965 0.043049025959287085
leaf_weight=574.44742863386728 118.95415088418758 0.531915492345436 29.753222797447961
leaf_count=1353681 338732 976 71392
internal_value=0 0.00315541 0.0536692
internal_weight=0 604.733 30.2851
internal_count=1764781 1426049 72368
is_linear=0
shrinkage=0.1


Tree=123
num_leaves=4
num_cat=0
split_feature=9 0 8
split_gain=3.51268 18.7415 19.9793
threshold=0.12500000000000003 23.408333333333335 2.5000000000000004
decision_type=2 2 2
left_child=1 -1 -3
right_child=-2 2 -4
leaf_value=0.0057612464211757482 -0.0044479521808249945 0.34315368390212414 -0.021908722603826845
leaf_weight=207.73278838017541 510.14897690197176 3.2216845556395119 2.6183269270240999
leaf_count=439830 1310760 4846 9345
internal_value=0 0.0108209 0.184336
internal_weight=0 213.573 5.84001
internal_count=1764781 454021 14191
is_linear=0
shrinkage=0.1


Tree=124
num_leaves=4
num_cat=0
split_feature=10 6 0
split_gain=3.24546 8.54811 6.46619
threshold=0.083333333343034624 35.965459823608406 23.208333333333336
decision_type=2 2 2
left_child=1 2 -1
right_child=-2 -3 -4
leaf_value=0.02293446029996914 -0.0031701835392160347 -0.031021009066715108 0.15208734507000685
leaf_weight=98.94627319700885 589.21568653124905 31.940524404819371 3.8368057586849309
leaf_count=189009 1490750 77854 7168
internal_value=0 0.0140224 0.028057
internal_weight=0 134.724 102.783
internal_count=1764781 274031 196177
is_linear=0
shrinkage=0.1


Tree=125
num_leaves=4
num_cat=0
split_feature=5 5 4
split_gain=3.20163 3.70081 15.5656
threshold=-84.552288055419908 -83.979236602783189 35.924907684326179
decision_type=2 2 2
left_child=-1 2 -2
right_child=1 -3 -4
leaf_value=-0.094279660883454006 -0.024068400887162805 -0.0033554823891668618 0.039268107302552986
leaf_weight=3.3735192696076401 64.667055029830408 559.601105711331 96.388331471397578
leaf_count=6603 170485 1349131 238562
internal_value=0 0.000489384 0.0138374
internal_weight=0 720.656 161.055
internal_count=1764781 1758178 409047
is_linear=0
shrinkage=0.1


Tree=126
num_leaves=4
num_cat=0
split_feature=8 0 9
split_gain=3.1935 10.8951 19.8253
threshold=5.5000000000000009 4.6250000000000009 0.26666666669189004
decision_type=2 2 2
left_child=-1 2 -2
right_child=1 -3 -4
leaf_value=0.0018980850851725269 0.10493000436918576 -0.061300115248890369 -0.086481863526529187
leaf_weight=670.49339425681319 13.552453625023192 31.304103674334328 8.7209473050788784
leaf_count=1446558 46793 243171 28488
internal_value=0 -0.0234268 0.0298656
internal_weight=0 53.5775 22.2734
internal_count=1765010 318452 75281
is_linear=0
shrinkage=0.1


Tree=127
num_leaves=4
num_cat=0
split_feature=9 9 0
split_gain=3.0642 3.69533 13.1079
threshold=32.708333333343042 0.99166666666860703 10.025000000000002
decision_type=2 2 2
left_child=1 -1 -3
right_child=-2 2 -4
leaf_value=-0.0037937284584411827 -0.097141103150779326 0.054733130220992979 -0.0041181372347955129
leaf_weight=535.15158645614611 3.024247638813903 52.596895471328025 133.47701178280568
leaf_count=1339879 5208 63004 356919
internal_value=0 0.000427155 0.0125585
internal_weight=0 721.225 186.074
internal_count=1765010 1759802 419923
is_linear=0
shrinkage=0.1


Tree=128
num_leaves=4
num_cat=0
split_feature=9 0 3
split_gain=3.2252 12.5103 14.2963
threshold=0.13333333333139311 23.408333333333335 0.0012517782695848632
decision_type=2 2 2
left_child=1 -1 -3
right_child=-2 2 -4
leaf_value=0.0054526596884269347 -0.004506937474579943 0.044731530777693443 0.3444109009884101
leaf_weight=217.80804591906781 498.8402642666033 5.4546214016518197 2.0871303743642784
leaf_count=460912 1289153 10501 4444
internal_value=0 0.00990187 0.134751
internal_weight=0 225.35 7.54175
internal_count=1765010 475857 14945
is_linear=0
shrinkage=0.1


Tree=129
num_leaves=4
num_cat=0
split_feature=1 1 5
split_gain=3.0988 10.6931 15.0878
threshold=3.1083333333333338 1.8916666666666668 -83.929027557373033
decision_type=2 2 2
left_child=1 2 -1
right_child=-2 -3 -4
leaf_value=-0.023071730084486916 0.0031377462566025884 -0.048099112338718719 0.065180198324868224
leaf_weight=53.276381085730463 586.78672146060671 54.034087804207957 30.168000750290958
leaf_count=147211 1411170 139277 67352
internal_value=0 -0.0135311 0.0089144
internal_weight=0 137.478 83.4444
internal_count=1765010 353840 214563
is_linear=0
shrinkage=0.1


Tree=130
num_leaves=4
num_cat=0
split_feature=5 2 8
split_gain=2.92295 7.58393 5.01582
threshold=-83.845424652099595 2.6916666666511451 2.5000000000000004
decision_type=2 2 2
left_child=-1 -2 -3
right_child=1 2 -4
leaf_value=0.00077788998709238367 -0.064729158430777964 -0.045903928311963216 0.56068115789817841
leaf_weight=712.57746541601682 11.490905715457298 0.18009452181286256 0.12484731234144419
leaf_count=1728721 36158 66 65
internal_value=0 -0.0489797 0.328959
internal_weight=0 11.7958 0.304942
internal_count=1765010 36289 131
is_linear=0
shrinkage=0.1


Tree=131
num_leaves=4
num_cat=0
split_feature=3 2 3
split_gain=3.0088 6.22463 24.1301
threshold=0.78939429602907796 2.6916666666511451 1.8126238324498447
decision_type=2 2 2
left_child=-1 -2 -3
right_child=1 2 -4
leaf_value=0.00070724598207387395 -0.085864125104864741 0.91203171188815169 -0.082450725262249155
leaf_weight=715.04019186717505 8.2337240103406639 0.10740995200467185 0.94201428413362009
leaf_count=1741689 21808 23 1490
internal_value=0 -0.0559658 0.153708
internal_weight=0 9.28315 1.04942
internal_count=1765010 23321 1513
is_linear=0
shrinkage=0.1


Tree=132
num_leaves=4
num_cat=0
split_feature=8 1 2
split_gain=2.91982 24.2829 22.7936
threshold=2.5000000000000004 10.125000000000002 1.9249999999883587
decision_type=2 2 2
left_child=-1 -2 -3
right_child=1 2 -4
leaf_value=0.0060463803991212817 0.017925094375517561 -0.040332741164159171 0.23892105637497277
leaf_weight=378.40027316299165 185.76671206454375 157.27207187775093 2.7723645853839107
leaf_count=682186 373887 705604 3333
internal_value=0 -0.00666197 -0.0351884
internal_weight=0 345.811 160.044
internal_count=1765010 1082824 708937
is_linear=0
shrinkage=0.1


Tree=133
num_leaves=4
num_cat=0
split_feature=6 6 6
split_gain=3.3356 10.6203 8.42954
threshold=36.055479049682624 36.001945495605476 35.996494293212898
decision_type=2 2 2
left_child=1 2 -1
right_child=-2 -3 -4
leaf_value=0.00048217049757212096 0.037270603432787652 -0.058072454573795257 0.12659219891194159
leaf_weight=665.07741576031822 23.112214832488462 31.128336291189044 5.1339773138324736
leaf_count=1594121 47300 108928 14548
internal_value=0 -0.00117191 0.00148776
internal_weight=0 701.34 670.211
internal_count=1764897 1717597 1608669
is_linear=0
shrinkage=0.1


Tree=134
num_leaves=4
num_cat=0
split_feature=6 1 6
split_gain=3.24156 10.0165 24.3962
threshold=35.962301254272468 16.008333333333336 35.968875885009773
decision_type=2 2 2
left_child=-1 -2 -3
right_child=1 2 -4
leaf_value=-0.0068969805280453189 -0.0070160721011420226 0.0527369456967288 -0.033816560917877297
leaf_weight=348.60209198865596 223.18094421719798 105.9295160702095 46.806093778671311
leaf_count=965478 435714 212135 151570
internal_value=0 0.00648638 0.0262008
internal_weight=0 375.917 152.736
internal_count=1764897 799419 363705
is_linear=0
shrinkage=0.1


Tree=135
num_leaves=4
num_cat=0
split_feature=9 0 1
split_gain=3.10952 7.58321 10.2678
threshold=0.99166666666860703 0.091666666666666688 2.8916666666666671
decision_type=2 2 2
left_child=-1 -2 -3
right_child=1 2 -4
leaf_value=-0.003863777856894859 0.26807269399547645 -0.047609745310072199 0.019062637551887203
leaf_weight=536.55030428697864 0.93245507716346665 26.770415342532942 160.52684746622344
leaf_count=1339864 1528 55965 367540
internal_value=0 0.0110676 0.00948931
internal_weight=0 188.23 187.297
internal_count=1764897 425033 423505
is_linear=0
shrinkage=0.1


Tree=136
num_leaves=4
num_cat=0
split_feature=10 10 1
split_gain=2.88185 3.14152 6.38494
threshold=32.441666666651152 0.99166666666860703 1.6083333333333336
decision_type=2 2 2
left_child=1 -1 -3
right_child=-2 2 -4
leaf_value=-0.003446118276622659 -0.094452973491254019 -0.051440549601286162 0.017101816856865265
leaf_weight=536.66578733005827 3.006411421501979 14.562611630679383 170.52065265660076
leaf_count=1348664 2998 32066 381169
internal_value=0 0.000428382 0.0116555
internal_weight=0 721.749 185.083
internal_count=1764897 1761899 413235
is_linear=0
shrinkage=0.1


Tree=137
num_leaves=4
num_cat=0
split_feature=8 1 0
split_gain=2.85935 10.9654 22.0844
threshold=1.0000000180025095e-35 4.6583333333333341 7.6750000000000016
decision_type=2 2 2
left_child=1 -1 -3
right_child=-2 2 -4
leaf_value=-0.098595601156213505 0.0020970189718472611 0.47208781806833056 -0.0078210161296752775
leaf_weight=13.717356934430425 651.89993430081722 0.76581544542568636 58.393332699168241
leaf_count=57572 1551730 44 155551
internal_value=0 -0.0187616 2.72784e-05
internal_weight=0 72.8765 59.1591
internal_count=1764897 213167 155595
is_linear=0
shrinkage=0.1


Tree=138
num_leaves=4
num_cat=0
split_feature=8 0 7
split_gain=2.88917 21.2067 14.2931
threshold=2.5000000000000004 10.158333333333335 -84.145633697509751
decision_type=2 2 2
left_child=-1 -2 -3
right_child=1 2 -4
leaf_value=0.0059846154842539525 0.015524134678084032 0.076118339077702213 -0.042888929242834883
leaf_weight=381.09206988200094 191.09772588380292 10.674380338969057 141.71849322908201
leaf_count=682057 367569 40087 675184
internal_value=0 -0.00665786 -0.0344585
internal_weight=0 343.491 152.393
internal_count=1764897 1082840 715271
is_linear=0
shrinkage=0.1


Tree=139
num_leaves=4
num_cat=0
split_feature=5 3 6
split_gain=2.90826 8.61846 8.60966
threshold=-83.934116363525376 0.16546959997191016 35.690551757812507
decision_type=2 2 2
left_child=-1 -2 -3
right_child=1 2 -4
leaf_value=-0.0066122034886189592 0.010289494433042114 0.25839396328067393 -0.057977239014628437
leaf_weight=348.49530734293512 349.11071476914094 0.6847408273897625 26.405412334976972
leaf_count=958450 722698 1584 82165
internal_value=0 0.00606316 -0.0480538
internal_weight=0 376.201 27.0902
internal_count=1764897 806447 83749
is_linear=0
shrinkage=0.1


Tree=140
num_leaves=4
num_cat=0
split_feature=6 10 6
split_gain=2.89075 11.1536 8.70632
threshold=36.055479049682624 2.5083333333313935 36.002740859985359
decision_type=2 2 2
left_child=2 -2 -1
right_child=1 -3 -4
leaf_value=0.00065833201067465731 0.077884845443839279 -0.070863483185755513 -0.056401512973394068
leaf_weight=673.32378852146849 16.706967243715557 6.9918490592071967 27.637175327112345
leaf_count=1613409 36077 11175 103950
internal_value=0 0.033753 -0.00160717
internal_weight=0 23.6988 700.961
internal_count=1764611 47252 1717359
is_linear=0
shrinkage=0.1


Tree=141
num_leaves=4
num_cat=0
split_feature=5 4 2
split_gain=2.89882 3.48449 8.96353
threshold=-84.552288055419908 36.076534271240241 0.050000000017462305
decision_type=2 2 2
left_child=-1 -2 -3
right_child=1 2 -4
leaf_value=-0.093790230593006632 -0.0011541309175381945 0.17306072145071771 0.0069493176141943837
leaf_weight=3.1004520582346222 701.70886527887978 3.8902776857139569 15.762416433658471
leaf_count=6603 1726857 2781 28370
internal_value=0 1.42927e-05 0.0413196
internal_weight=0 721.362 19.6527
internal_count=1764611 1758008 31151
is_linear=0
shrinkage=0.1


Tree=142
num_leaves=4
num_cat=0
split_feature=8 5 4
split_gain=2.79106 10.2967 12.0643
threshold=1.0000000180025095e-35 -83.919277191162095 35.968666076660163
decision_type=2 2 2
left_child=1 -1 -3
right_child=-2 2 -4
leaf_value=-0.034405046231824325 0.0016787038005632625 0.16670936359758712 -0.051305404192102756
leaf_weight=61.646843612586963 652.55641516806372 5.7169667456182633 4.301096859973768
leaf_count=183552 1551439 12700 16920
internal_value=0 -0.0190838 0.0739473
internal_weight=0 71.6649 10.0181
internal_count=1764611 213172 29620
is_linear=0
shrinkage=0.1


Tree=143
num_leaves=4
num_cat=0
split_feature=9 9 0
split_gain=2.81398 3.20677 9.82121
threshold=24.216666666645327 0.99166666666860703 10.025000000000002
decision_type=2 2 2
left_child=1 -1 -3
right_child=-2 2 -4
leaf_value=-0.003787967344030284 -0.077256191929437834 0.04752387676095958 -0.0031870635170632815
leaf_weight=533.90706252729706 4.518467828926986 53.493262538759154 132.11448493092485
leaf_count=1339541 7180 62722 355168
internal_value=0 0.00014823 0.0114638
internal_weight=0 719.515 185.608
internal_count=1764611 1757431 417890
is_linear=0
shrinkage=0.1


Tree=144
num_leaves=4
num_cat=0
split_feature=7 7 10
split_gain=2.75262 13.7839 24.2568
threshold=-83.865016937255845 -83.871658325195298 5.283333333354677
decision_type=2 2 2
left_child=1 -1 -3
right_child=-2 2 -4
leaf_value=-0.00012036086982170993 -0.044250982575914956 0.00014352150795183884 0.82109204761163124
leaf_weight=708.56628505448043 13.786100304590944 0.99497351703393977 0.35550249805419298
leaf_count=1710039 49759 4302 511
internal_value=0 0.00053285 0.297505
internal_weight=0 709.917 1.35048
internal_count=1764611 1714852 4813
is_linear=0
shrinkage=0.1


Tree=145
num_leaves=4
num_cat=0
split_feature=10 5 2
split_gain=2.71961 5.3383 4.34669
threshold=23.399999999994183 -83.877750396728501 0.01666666669188999
decision_type=2 2 2
left_child=-1 -2 -3
right_child=1 2 -4
leaf_value=0.00025981060704562543 -0.10039794531529929 0.38907750594988511 -0.060665925353539318
leaf_weight=717.71054432359369 5.2157772962091258 0.23642302979715069 0.32077100699825678
leaf_count=1759964 4341 9 297
internal_value=0 -0.0674468 0.183908
internal_weight=0 5.77297 0.557194
internal_count=1764611 4647 306
is_linear=0
shrinkage=0.1


Tree=146
num_leaves=4
num_cat=0
split_feature=7 6 6
split_gain=2.84926 9.46939 5.93331
threshold=-83.713527679443345 35.988620758056648 35.954053878784187
decision_type=2 2 2
left_child=-1 2 -2
right_child=1 -3 -4
leaf_value=-0.0005323220723511883 -0.040587830144068207 -0.076794237638980592 0.64186191264442272
leaf_weight=722.19639381093975 0.14691902971753623 0.69990546909320983 0.21919685462125926
leaf_count=1760318 376 3535 382
internal_value=0 0.149086 0.452328
internal_weight=0 1.06602 0.366116
internal_count=1764611 4293 758
is_linear=0
shrinkage=0.1


Tree=147
num_leaves=4
num_cat=0
split_feature=7 1 1
split_gain=2.79548 17.3181 16.0478
threshold=-83.924224853515611 18.541666666666671 1.0750000000000002
decision_type=2 2 2
left_child=-1 2 -2
right_child=1 -3 -4
leaf_value=0.0034187182066368026 0.079965762573908208 0.037316188154141935 -0.039513262835910071
leaf_weight=528.09126412646356 12.122670103870403 54.233520223207051 128.44425473393494
leaf_count=1308140 27420 141113 288183
internal_value=0 -0.0105907 -0.029104
internal_weight=0 194.8 140.567
internal_count=1764856 456716 315603
is_linear=0
shrinkage=0.1


Tree=148
num_leaves=4
num_cat=0
split_feature=4 7 3
split_gain=2.91883 9.06586 16.3063
threshold=35.870111465454109 -84.221923828124986 0.15757921736296734
decision_type=2 2 2
left_child=1 2 -1
right_child=-2 -3 -4
leaf_value=0.45449833043984733 -0.0016729456898911912 0.01457951745734757 -0.08147026873451961
leaf_weight=1.0864422503291304 692.73484532407883 28.079190896497494 0.91206283091923968
leaf_count=913 1699237 62799 1907
internal_value=0 0.0300422 0.225226
internal_weight=0 30.0777 1.99851
internal_count=1764856 65619 2820
is_linear=0
shrinkage=0.1


Tree=149
num_leaves=4
num_cat=0
split_feature=1 1 8
split_gain=2.88478 9.86835 11.4404
threshold=3.1083333333333338 1.8916666666666668 1.5000000000000002
decision_type=2 2 2
left_child=1 2 -1
right_child=-2 -3 -4
leaf_value=-0.048333966162175175 0.0027329338685502702 -0.047739074670250251 0.031740957263650074
leaf_weight=25.315258405364148 586.30694367562637 51.6799588659851 59.086471503191206
leaf_count=66396 1411075 139310 148075
internal_value=0 -0.0134178 0.00766033
internal_weight=0 136.082 84.4017
internal_count=1764856 353781 214471
is_linear=0
shrinkage=0.1


Tree=150
num_leaves=4
num_cat=0
split_feature=5 5 0
split_gain=2.64023 2.93845 11.9938
threshold=-84.552288055419908 -83.979236602783189 15.975000000000001
decision_type=2 2 2
left_child=-1 2 -2
right_child=1 -3 -4
leaf_value=-0.093217380397084507 0.0328950070223063 -0.0033418158798086042 -0.023479131573657514
leaf_weight=2.8361093202156544 101.44008565225067 558.16927677658487 59.835525749093904
leaf_count=6604 231895 1349126 177231
internal_value=0 9.37091e-05 0.0119745
internal_weight=0 719.445 161.276
internal_count=1764856 1758252 409126
is_linear=0
shrinkage=0.1


Tree=151
num_leaves=4
num_cat=0
split_feature=6 0 8
split_gain=2.8473 10.7925 9.65088
threshold=35.956212997436531 18.908333333333335 3.5000000000000004
decision_type=2 2 2
left_child=1 -1 -2
right_child=2 -3 -4
leaf_value=0.0030629961706099764 0.01370634741084456 -0.043816083010175519 -0.018245976329139619
leaf_weight=197.58156242318637 326.55907249670963 65.130010413134187 132.79875382964428
leaf_count=521760 524258 233205 485633
internal_value=0 -0.00858362 0.00446438
internal_weight=0 262.712 459.358
internal_count=1764856 754965 1009891
is_linear=0
shrinkage=0.1


Tree=152
num_leaves=4
num_cat=0
split_feature=0 8 10
split_gain=2.6996 11.1966 15.2476
threshold=3.2750000000000004 1.5000000000000002 3.6000000000058212
decision_type=2 2 2
left_child=1 -1 -3
right_child=-2 2 -4
leaf_value=-0.058379484742069956 0.0027221832866545759 0.024620396606803003 -0.071007267204387978
leaf_weight=38.632951177620271 582.36240588009787 80.156577280242345 20.830248287787981
leaf_count=107771 1405988 207235 43862
internal_value=0 -0.0127505 0.00478708
internal_weight=0 139.62 100.987
internal_count=1764856 358868 251097
is_linear=0
shrinkage=0.1


Tree=153
num_leaves=4
num_cat=0
split_feature=4 4 2
split_gain=2.6792 7.57522 34.3202
threshold=36.350027084350593 36.24951362609864 0.42499999998835852
decision_type=2 2 2
left_child=1 -1 -3
right_child=-2 2 -4
leaf_value=-0.00056055515159209252 -0.09369384300582953 1.0778739835131881 0.035400344546913848
leaf_weight=716.06965997372845 2.8475076087506741 0.14806681584013803 2.8802856093498121
leaf_count=1755232 4710 189 4725
internal_value=0 0.000128937 0.152753
internal_weight=0 719.098 3.02835
internal_count=1764856 1760146 4914
is_linear=0
shrinkage=0.1


Tree=154
num_leaves=4
num_cat=0
split_feature=8 5 1
split_gain=3.18743 9.60263 34.7293
threshold=5.5000000000000009 -83.919006347656236 1.5416666666666667
decision_type=2 2 2
left_child=-1 -2 -3
right_child=1 2 -4
leaf_value=0.0021381407089589039 -0.040300046979045268 0.42070174732428306 -0.057676052439578879
leaf_weight=668.99555104681713 45.332448029437728 1.9428650134577754 5.0106503144334056
leaf_count=1446520 276133 4037 38245
internal_value=0 -0.0234512 0.0843267
internal_weight=0 52.286 6.95352
internal_count=1764935 318415 42282
is_linear=0
shrinkage=0.1


Tree=155
num_leaves=4
num_cat=0
split_feature=4 1 6
split_gain=2.57501 9.19183 15.2405
threshold=35.962301254272468 15.108333333333336 35.968875885009773
decision_type=2 2 2
left_child=-1 -2 -3
right_child=1 2 -4
leaf_value=-0.0060403826819848709 -0.0083383041135005921 0.039147139134309401 -0.031536728987054168
leaf_weight=343.53009639961874 205.9066287597725 132.80110494909513 39.405684892705267
leaf_count=965582 398825 270262 130266
internal_value=0 0.00591684 0.0229526
internal_weight=0 378.113 172.207
internal_count=1764935 799353 400528
is_linear=0
shrinkage=0.1


Tree=156
num_leaves=4
num_cat=0
split_feature=9 3 9
split_gain=2.64417 2.77214 15.6678
threshold=32.708333333343042 0.0051498080847673872 0.091666666674427702
decision_type=2 2 2
left_child=1 -1 -3
right_child=-2 2 -4
leaf_value=-0.0037987356235412366 -0.096022618330362797 0.078822893660591642 -8.6674546568430452e-05
leaf_weight=481.52262120881824 2.636575635961889 28.38807790973533 209.43399257358305
leaf_count=1098843 5210 71465 589417
internal_value=0 0.000563468 0.00939237
internal_weight=0 719.345 237.822
internal_count=1764935 1759725 660882
is_linear=0
shrinkage=0.1


Tree=157
num_leaves=4
num_cat=0
split_feature=8 1 10
split_gain=2.62388 8.97386 9.07743
threshold=5.5000000000000009 12.141666666666667 0.26666666669189004
decision_type=2 2 2
left_child=-1 2 -2
right_child=1 -3 -4
leaf_value=0.0018149591347821532 0.034252082379942525 -0.098213268121959962 -0.067590038362027968
leaf_weight=671.16036591779994 26.749213585776488 11.581108303669678 12.75014981714139
leaf_count=1446520 78920 192384 47111
internal_value=0 -0.0216513 0.0011888
internal_weight=0 51.0805 39.4994
internal_count=1764935 318415 126031
is_linear=0
shrinkage=0.1


Tree=158
num_leaves=4
num_cat=0
split_feature=7 6 7
split_gain=2.44026 6.64664 4.47888
threshold=-83.713527679443345 35.988620758056648 -83.846359252929673
decision_type=2 2 2
left_child=2 -2 -1
right_child=1 -3 -4
leaf_value=0.00070634445144648179 0.35298992862779699 -0.075080542770950415 -0.07409484359647707
leaf_weight=713.45763014426075 0.48191950890213664 0.63778524633016787 7.8866022346710443
leaf_count=1729175 761 3523 31476
internal_value=0 0.135511 -0.00013234
internal_weight=0 1.1197 721.344
internal_count=1764935 4284 1760651
is_linear=0
shrinkage=0.1


Tree=159
num_leaves=4
num_cat=0
split_feature=8 1 0
split_gain=2.55923 8.89736 14.6988
threshold=1.0000000180025095e-35 4.6583333333333341 7.6750000000000016
decision_type=2 2 2
left_child=1 -1 -3
right_child=-2 2 -4
leaf_value=-0.098272390987958425 0.0020516005428500811 0.39538708406217254 -0.0084832015232848938
leaf_weight=11.340804614184888 652.79744925039131 0.70638119924114917 57.668940150666458
leaf_count=57595 1551710 43 155587
internal_value=0 -0.0180776 -0.00219841
internal_weight=0 69.7161 58.3753
internal_count=1764935 213225 155630
is_linear=0
shrinkage=0.1


Tree=160
num_leaves=4
num_cat=0
split_feature=4 4 2
split_gain=2.41812 5.94934 14.8893
threshold=36.350027084350593 36.24951362609864 0.42499999998835852
decision_type=2 2 2
left_child=1 -1 -3
right_child=-2 2 -4
leaf_value=-0.00019178611743239543 -0.092954933715570481 0.57317842101576222 0.032675749022323536
leaf_weight=716.57922519128397 2.5733811570771641 0.41538812579528839 2.9430036316725818
leaf_count=1755348 4691 186 4710
internal_value=0 0.000449107 0.129268
internal_weight=0 719.938 3.35839
internal_count=1764935 1760244 4896
is_linear=0
shrinkage=0.1


Tree=161
num_leaves=4
num_cat=0
split_feature=7 7 9
split_gain=2.89793 8.97955 14.546
threshold=-83.865016937255845 -83.871658325195298 5.3999999999941801
decision_type=2 2 2
left_child=1 -1 -3
right_child=-2 2 -4
leaf_value=-2.5058012052021815e-05 -0.047311407542774339 -0.011270604580423419 0.53976819267824916
leaf_weight=708.44090956716764 12.662141131191218 1.1547971774443784 0.59863310091532174
leaf_count=1710298 49771 4252 561
internal_value=0 0.000566297 0.214179
internal_weight=0 710.194 1.75343
internal_count=1764882 1715111 4813
is_linear=0
shrinkage=0.1


Tree=162
num_leaves=4
num_cat=0
split_feature=5 9 0
split_gain=3.20166 2.89565 8.90484
threshold=-83.790412902832017 0.99166666666860703 8.4416666666666682
decision_type=2 2 2
left_child=1 -1 -3
right_child=-2 2 -4
leaf_value=-0.0034520865427340496 -0.077606045045161928 0.051624459554456409 -0.00071188467569314085
leaf_weight=530.87704558256883 5.1030997843408832 41.69340779416234 144.97409146886048
leaf_count=1331955 18178 60018 354731
internal_value=0 0.00031482 0.0110211
internal_weight=0 717.545 186.667
internal_count=1764882 1746704 414749
is_linear=0
shrinkage=0.1


Tree=163
num_leaves=4
num_cat=0
split_feature=5 3 3
split_gain=2.83827 3.46449 3.40652
threshold=-83.790412902832017 1.3673024129664493 0.78939429602907796
decision_type=2 2 2
left_child=2 -2 -1
right_child=1 -3 -4
leaf_value=0.0010291281266810225 -0.0958854384318827 0.22835975865036545 -0.062796407191895956
leaf_weight=709.43890859524845 4.5677527012012424 0.15719033118421055 8.2528870985406666
leaf_count=1724015 18005 173 22689
internal_value=0 -0.0758286 0.000276754
internal_weight=0 4.72494 717.692
internal_count=1764882 18178 1746704
is_linear=0
shrinkage=0.1


Tree=164
num_leaves=4
num_cat=0
split_feature=4 5 5
split_gain=2.57281 12.8687 9.89883
threshold=35.943176269531257 -84.04656600952147 -84.009937286376939
decision_type=2 2 2
left_child=1 -1 -3
right_child=-2 2 -4
leaf_value=-0.021042930165325741 -0.0031984802687001846 0.14647854225016146 0.027167019662125182
leaf_weight=65.253718283215221 578.47298876456216 7.526156735636504 71.013771517200439
leaf_count=174367 1373807 21609 195099
internal_value=0 0.0117388 0.0389619
internal_weight=0 143.794 78.5399
internal_count=1764882 391075 216708
is_linear=0
shrinkage=0.1


Tree=165
num_leaves=4
num_cat=0
split_feature=5 2 4
split_gain=2.52176 5.47778 4.99553
threshold=-83.845424652099595 2.6916666666511451 36.185655593872077
decision_type=2 2 2
left_child=-1 -2 -3
right_child=1 2 -4
leaf_value=0.00049272390528212642 -0.067821899458752818 -0.05665482483259237 0.4623400598036323
leaf_weight=712.22501098062457 9.4965899966227845 0.27506601728964675 0.18213291920983465
leaf_count=1728607 36142 106 27
internal_value=0 -0.0496745 0.229896
internal_weight=0 9.95379 0.457199
internal_count=1764882 36275 133
is_linear=0
shrinkage=0.1


Tree=166
num_leaves=4
num_cat=0
split_feature=1 1 4
split_gain=2.5226 9.3217 24.1408
threshold=5.0250000000000012 10.125000000000002 35.94615554809571
decision_type=2 2 2
left_child=-1 2 -2
right_child=1 -3 -4
leaf_value=-0.0097309423611464298 0.14033268776254168 -0.0032163029748282614 0.0091973443149327636
leaf_weight=200.00577500823965 16.504145938852162 417.5423142956738 87.969775883884722
leaf_count=496443 13196 1169087 86156
internal_value=0 0.0034713 0.0301546
internal_weight=0 522.016 104.474
internal_count=1764882 1268439 99352
