tree
version=v4
num_class=1
num_tree_per_iteration=1
label_index=0
max_feature_idx=11
objective=binary sigmoid:1
feature_names=Column_0 Column_1 Column_2 Column_3 Column_4 Column_5 Column_6 Column_7 Column_8 Column_9 Column_10 Column_11
feature_infos=[0.00029621715782817901:1.3232775866800428] [-0.0043765961011868332:0.93910862280822338] [-0.015530928690738077:0.90388788889182903] [470.51851851852552:73750139.034482762] [-1983541.7857142859:37599248.31034483] [-2103061.25:28967656.482758619] [0:185.06896551724139] [-0.31034482758620729:161.06896551724139] [-2.1379310344827589:42.413793103448278] [680.78571428571013:974760.59999999998] [-6202:584151.16666666663] [-106844.83333333334:190345.90909090909]
tree_sizes=550 560 552 551 553 553 551 563 553 550 554 561 557 553 560 560 562 558 557 556 561 558 556 560 563 554 554 553 562 556 557 555 557 558 559 555 560 560 557 557 558 557 555 558 557 557 552 557 556 555 556 559 554 558 560 559 555 558 562 559 551 556 555 553 554 559 556 557 557 558 554 560 557 559 560 546 553 557 556 555 557 556

Tree=0
num_leaves=4
num_cat=0
split_feature=9 5 0
split_gain=138.348 107.584 12.668
threshold=69528.997536945826 736791.80357142875 0.29683710672881197
decision_type=2 2 2
left_child=2 -2 -1
right_child=1 -3 -4
leaf_value=-5.9851616223101543 -1.0567450096025084 -5.4613762533459616 -5.848179182954925
leaf_weight=45.867816056124866 0.06996785500086744 0.14252711203880608 7.88304499676451
leaf_count=17700 27 55 3042
internal_value=-5.95035 -3.57379 -5.96501
internal_weight=0 0.212495 53.7509
internal_count=20824 82 20742
is_linear=0
shrinkage=1


Tree=1
num_leaves=4
num_cat=0
split_feature=11 11 9
split_gain=15.4275 7.90444 24.9367
threshold=1.0000000180025095e-35 17340.517241379315 19605.741379310351
decision_type=2 2 2
left_child=-1 2 -2
right_child=1 -3 -4
leaf_value=0.59130712039331335 -0.032885437259587216 -0.06834481391671661 0.16853849380304589
leaf_weight=0.3870180007070293 29.717851725872606 20.611696552485228 7.71573178237304
leaf_count=3 11726 6302 2793
internal_value=0 -0.0186572 0.00870645
internal_weight=0 58.0453 37.4336
internal_count=20824 20821 14519
is_linear=0
shrinkage=0.1


Tree=2
num_leaves=4
num_cat=0
split_feature=11 9 5
split_gain=11.3641 114.621 10.4147
threshold=7258.7068965517328 19605.741379310351 8926187.0480295587
decision_type=2 2 2
left_child=1 2 -1
right_child=-2 -3 -4
leaf_value=-0.029895913560316796 -0.032911912348328326 1.2344519153327047 1.0675119115902176
leaf_weight=8.5571719806175626 48.319133732002228 0.76655195048078972 0.056781056569889965
leaf_count=3509 17263 29 23
internal_value=0 0.0871824 -0.01879
internal_weight=0 9.3805 8.61395
internal_count=20824 3561 3532
is_linear=0
shrinkage=0.1


Tree=3
num_leaves=4
num_cat=0
split_feature=11 9 8
split_gain=9.41357 86.5022 30.858
threshold=8152.8275862068995 19605.741379310351 1.8733421750663137
decision_type=2 2 2
left_child=1 -1 -3
right_child=-2 2 -4
leaf_value=-0.014339525481153581 -0.034638293565075952 0.068724361725463964 1.2884006072757248
leaf_weight=11.658339424757285 43.609495175303891 0.29662613244727143 0.70460532931610942
leaf_count=4875 15908 10 31
internal_value=0 0.0632027 0.940838
internal_weight=0 12.6596 1.00123
internal_count=20824 4916 41
is_linear=0
shrinkage=0.1


Tree=4
num_leaves=4
num_cat=0
split_feature=0 9 9
split_gain=7.91461 28.4807 19.5559
threshold=0.29683710672881197 27399.586206896554 23236.068965517243
decision_type=2 2 2
left_child=-1 2 -2
right_child=1 -3 -4
leaf_value=-0.029408517141738994 0.17032552461679606 -0.072707788237618073 0.75462525299145022
leaf_weight=45.370720137842 3.3027288429439055 5.7221293416805565 0.67341929115355004
leaf_count=17753 1228 1612 231
internal_value=0 0.0699686 0.274554
internal_weight=0 9.69828 3.97615
internal_count=20824 3071 1459
is_linear=0
shrinkage=0.1


Tree=5
num_leaves=4
num_cat=0
split_feature=0 11 7
split_gain=31.3891 97.1357 9.52847
threshold=0.66304997737461213 18480.72413793104 31.396551724137936
decision_type=2 2 2
left_child=2 -2 -1
right_child=1 -3 -4
leaf_value=-0.016907892275070505 3.2660562435558549 0.077392676016460563 0.52988219636810319
leaf_weight=53.636811278294772 0.088859044946729138 0.48951370571739972 0.28997107222676177
leaf_count=20544 28 63 112
internal_value=0 0.70835 -0.0136494
internal_weight=0 0.578373 53.9268
internal_count=20747 91 20656
is_linear=0
shrinkage=0.1


Tree=6
num_leaves=4
num_cat=0
split_feature=0 1 9
split_gain=9.16616 31.2521 77.0485
threshold=0.24643386091372238 0.19137126372874577 19732.931034482757
decision_type=2 2 2
left_child=-1 2 -2
right_child=1 -3 -4
leaf_value=-0.036053634410069667 1.6691876962613943 0.0023809550897365582 0.12033689949888765
leaf_weight=37.68161567253992 0.36549216206185819 15.970128376036881 1.7399718414526431
leaf_count=15926 76 4280 465
internal_value=0 0.0505014 0.40974
internal_weight=0 18.0756 2.10546
internal_count=20747 4821 541
is_linear=0
shrinkage=0.1


Tree=7
num_leaves=4
num_cat=0
split_feature=10 11 4
split_gain=7.13653 5.44121 15.8799
threshold=1.0000000180025095e-35 13058.419950738922 8236680.6607142882
decision_type=2 2 2
left_child=-1 2 -2
right_child=1 -3 -4
leaf_value=0.77763229496462971 -0.00057541768299933054 -0.040833975077214091 0.28223294451997533
leaf_weight=0.08464985340833564 25.285469429101799 28.39130451856181 2.1234018639661363
leaf_count=1 10072 9954 720
internal_value=0 -0.0101598 0.0215847
internal_weight=0 55.8002 27.4089
internal_count=20747 20746 10792
is_linear=0
shrinkage=0.1


Tree=8
num_leaves=4
num_cat=0
split_feature=0 1 10
split_gain=6.94223 25.24 36.9828
threshold=0.18653615798764422 0.18535781001526824 16379.603448275864
decision_type=2 2 2
left_child=-1 2 -2
right_child=1 -3 -4
leaf_value=-0.041238935692672896 0.5855826152395025 -0.015414627003188753 0.0051744885227210831
leaf_weight=29.382215121528134 1.835494994418698 21.604469636222348 2.6772191503550857
leaf_count=13063 214 6663 807
internal_value=0 0.029572 0.243837
internal_weight=0 26.1172 4.51271
internal_count=20747 7684 1021
is_linear=0
shrinkage=0.1


Tree=9
num_leaves=4
num_cat=0
split_feature=1 10 9
split_gain=6.00776 10.2575 35.5931
threshold=0.022496883383988201 7615.7586206896531 10114.344827586212
decision_type=2 2 2
left_child=1 2 -1
right_child=-2 -3 -4
leaf_value=0.16157317080894684 -0.013894251967804919 0.037790442318048574 2.569631324418693
leaf_weight=0.35900593874975939 53.311038987245411 1.4313539062859488 0.045066018821671605
leaf_count=172 19915 652 8
internal_value=0 0.168628 0.59438
internal_weight=0 1.83543 0.404072
internal_count=20747 832 180
is_linear=0
shrinkage=0.1


Tree=10
num_leaves=4
num_cat=0
split_feature=5 3 1
split_gain=8.34339 13.6724 40.9783
threshold=266687.32573891629 537358.4107142858 0.2145552649976615
decision_type=2 2 2
left_child=-1 2 -2
right_child=1 -3 -4
leaf_value=-0.080506004259937758 -0.087492046888068858 0.023020627921049565 1.9399394104267771
leaf_weight=8.2585900308331457 0.2950377082452168 46.114072075113654 0.11746363283600658
leaf_count=3012 145 17747 46
internal_value=0 0.0283723 0.581368
internal_weight=0 46.5266 0.412501
internal_count=20950 17938 191
is_linear=0
shrinkage=0.1


Tree=11
num_leaves=4
num_cat=0
split_feature=5 8 0
split_gain=6.92826 10.6397 7.01867
threshold=266687.32573891629 0.37931034482758591 0.12084744303221338
decision_type=2 2 2
left_child=-1 -2 -3
right_child=1 2 -4
leaf_value=-0.078343751198226202 1.1779527327026644 -0.031452797106621265 0.049158222018578168
leaf_weight=7.6693452851613975 0.049234549864194288 16.295696986489929 31.841529826866463
leaf_count=3012 21 7339 10578
internal_value=0 0.0237936 0.0218443
internal_weight=0 48.1865 48.1372
internal_count=20950 17938 17917
is_linear=0
shrinkage=0.1


Tree=12
num_leaves=4
num_cat=0
split_feature=9 0 3
split_gain=6.22172 11.384 7.65526
threshold=61762.878078817739 0.20015425973219392 1040173.2142857144
decision_type=2 2 2
left_child=1 -1 -3
right_child=-2 2 -4
leaf_value=-0.01901794008926749 -0.073236874875539815 0.22470306381811983 0.052998501932309032
leaf_weight=28.229710322804749 7.9590536698233327 3.0437986425822627 17.197706596110947
leaf_count=13540 1267 889 5254
internal_value=0 0.0219876 0.0791714
internal_weight=0 48.4712 20.2415
internal_count=20950 19683 6143
is_linear=0
shrinkage=0.1


Tree=13
num_leaves=4
num_cat=0
split_feature=11 9 7
split_gain=6.5035 30.3913 37.7728
threshold=8152.8275862068995 12107.086206896553 21.948275862068968
decision_type=2 2 2
left_child=1 2 -1
right_child=-2 -3 -4
leaf_value=-0.02544763755223959 -0.010964762618846645 0.40879280275424662 1.322176843372904
leaf_weight=10.669339109095741 44.10554350912571 2.1639530026586717 0.18155950331129211
leaf_count=4563 16098 247 42
internal_value=0 0.0693931 0.000651034
internal_weight=0 13.0149 10.8509
internal_count=20950 4852 4605
is_linear=0
shrinkage=0.1


Tree=14
num_leaves=4
num_cat=0
split_feature=5 11 0
split_gain=5.63651 5.47323 9.671
threshold=266687.32573891629 30052.379310344837 0.20015425973219392
decision_type=2 2 2
left_child=-1 2 -2
right_child=1 -3 -4
leaf_value=-0.076072994037421751 -0.011823011726272984 -0.075159448242576546 0.081687815358457233
leaf_weight=7.27804394904524 24.944294148357585 5.5822984478436402 19.806050590239465
leaf_count=3012 11387 1449 5102
internal_value=0 0.0178923 0.0295674
internal_weight=0 50.3326 44.7503
internal_count=20950 17938 16489
is_linear=0
shrinkage=0.1


Tree=15
num_leaves=4
num_cat=0
split_feature=0 2 11
split_gain=6.72104 12.7472 11.4072
threshold=0.06825353122952306 0.056587264808224132 10350.810344827589
decision_type=2 2 2
left_child=-1 2 -2
right_child=1 -3 -4
leaf_value=-0.088379799119953778 0.40004766255662755 -0.006541607784819394 0.018957095091679997
leaf_weight=8.6849561205599439 1.4776553636183956 45.271284562302753 1.6587908496148882
leaf_count=4391 258 15486 650
internal_value=0 0.00699928 0.200966
internal_weight=0 48.4077 3.13645
internal_count=20785 16394 908
is_linear=0
shrinkage=0.1


Tree=16
num_leaves=4
num_cat=0
split_feature=0 2 5
split_gain=5.98138 8.71547 9.34693
threshold=0.06825353122952306 0.030844156600043807 523505.83928571432
decision_type=2 2 2
left_child=-1 2 -2
right_child=1 -3 -4
leaf_value=-0.087259945305926526 -0.029524610474738623 -0.0018368239928135653 0.44428219827486803
leaf_weight=7.9546856794040641 0.74662683613132574 47.001771707320586 0.88948707468807697
leaf_count=4391 203 15947 244
internal_value=0 0.00610795 0.23084
internal_weight=0 48.6379 1.63611
internal_count=20785 16394 447
is_linear=0
shrinkage=0.1


Tree=17
num_leaves=4
num_cat=0
split_feature=5 4 7
split_gain=5.68315 20.3637 20.3353
threshold=1317185.0000000002 1584292.7321428575 4.7931034482758639
decision_type=2 2 2
left_child=-1 2 -2
right_child=1 -3 -4
leaf_value=-0.037521152347672254 0.92685294148290387 0.010965384562337145 -0.090612742445974392
leaf_weight=28.892781259608455 0.45774517208338039 26.648454341222532 0.31722173583693802
leaf_count=10455 182 10055 93
internal_value=0 0.0259931 0.521389
internal_weight=0 27.4234 0.774967
internal_count=20785 10330 275
is_linear=0
shrinkage=0.1


Tree=18
num_leaves=4
num_cat=0
split_feature=5 11 9
split_gain=4.54202 10.5935 16.5847
threshold=1317185.0000000002 10985.965517241379 21562.155172413793
decision_type=2 2 2
left_child=-1 2 -2
right_child=1 -3 -4
leaf_value=-0.034988298630551605 0.046823915517515101 -0.031857499128271349 0.39453835694743172
leaf_weight=27.939549461589195 10.803407000959853 15.99658630217891 1.5448916241293762
leaf_count=10455 3987 6279 64
internal_value=0 0.0217892 0.0912799
internal_weight=0 28.3449 12.3483
internal_count=20785 10330 4051
is_linear=0
shrinkage=0.1


Tree=19
num_leaves=4
num_cat=0
split_feature=0 2 2
split_gain=5.63278 10.0137 30.0501
threshold=0.32896800247570906 0.26808443647255648 0.25180992984602807
decision_type=2 2 2
left_child=-1 2 -2
right_child=1 -3 -4
leaf_value=-0.021813037795186781 0.10120708133163298 -0.0039336418976622751 1.1051143206616463
leaf_weight=44.845662211882882 2.9848871395224692 7.8324509551748633 0.30239133024588216
leaf_count=18413 614 1677 81
internal_value=0 0.0575945 0.203206
internal_weight=0 11.1197 3.28728
internal_count=20785 2372 695
is_linear=0
shrinkage=0.1


Tree=20
num_leaves=4
num_cat=0
split_feature=2 2 1
split_gain=3.10576 18.3022 34.4771
threshold=0.076355413181382586 0.074480108645951268 0.094491941743460289
decision_type=2 2 2
left_child=1 -1 -3
right_child=-2 2 -4
leaf_value=-0.0051128529910611934 -0.04051186053547088 0.20503522970861324 2.6510385022877476
leaf_weight=14.053968762164001 41.911704510450363 0.30341508006677109 0.042856028187088668
leaf_count=6083 14302 153 11
internal_value=0 0.0132405 0.701023
internal_weight=0 14.4002 0.346271
internal_count=20549 6247 164
is_linear=0
shrinkage=0.1


Tree=21
num_leaves=4
num_cat=0
split_feature=11 6 3
split_gain=3.49295 12.9864 25.608
threshold=10985.965517241379 5.0172413793103461 1481107.4821428575
decision_type=2 2 2
left_child=1 -1 -3
right_child=-2 2 -4
leaf_value=-0.090781492301827804 -0.047053913542942735 0.81573333868209108 0.038257456121272231
leaf_weight=9.0028574451571348 31.443770178826526 0.40635808126535167 14.378655425505711
leaf_count=3991 12134 109 4315
internal_value=0 0.00367764 0.0613369
internal_weight=0 23.7879 14.785
internal_count=20549 8415 4424
is_linear=0
shrinkage=0.1


Tree=22
num_leaves=4
num_cat=0
split_feature=9 0 8
split_gain=2.96866 3.21887 11.4507
threshold=59194.732142857152 0.40128193611335528 1.1403940886699508
decision_type=2 2 2
left_child=1 -1 -3
right_child=-2 2 -4
leaf_value=-0.023894894117660603 -0.081218683549354354 0.52142730268365967 0.012908140518871299
leaf_weight=40.675261477939785 7.6428409572690716 0.45372376567684014 5.2569699916057289
leaf_count=18150 1489 96 814
internal_value=0 -0.013998 0.0560584
internal_weight=0 46.386 5.71069
internal_count=20549 19060 910
is_linear=0
shrinkage=0.1


Tree=23
num_leaves=4
num_cat=0
split_feature=11 8 2
split_gain=3.03233 9.43727 14.3833
threshold=10985.965517241379 3.7370689655172424 0.39161592002607054
decision_type=2 2 2
left_child=1 -1 -3
right_child=-2 2 -4
leaf_value=-0.071194766342611071 -0.043112883164537458 0.039881930157756339 0.64520038724195528
leaf_weight=9.5759365092962998 29.513173557352275 13.511817118036557 0.37436430994421321
leaf_count=4275 12134 4055 85
internal_value=0 0.00499801 0.0576591
internal_weight=0 23.4621 13.8862
internal_count=20549 8415 4140
is_linear=0
shrinkage=0.1


Tree=24
num_leaves=4
num_cat=0
split_feature=9 11 7
split_gain=2.62388 2.81523 2.49087
threshold=59194.732142857152 1.0000000180025095e-35 0.17549261083743842
decision_type=2 2 2
left_child=2 -2 -1
right_child=1 -3 -4
leaf_value=0.30118126742983675 0.16639772184896051 -0.093520576268421071 -0.013140834202015207
leaf_weight=0.2227801286499006 0.41458022594451804 6.5536475273547694 44.781739560188726
leaf_count=112 3 1486 18948
internal_value=0 -0.0772436 -0.0113577
internal_weight=0 6.96823 45.0045
internal_count=20549 1489 19060
is_linear=0
shrinkage=0.1


Tree=25
num_leaves=4
num_cat=0
split_feature=4 9 6
split_gain=7.11708 10.4735 32.4926
threshold=32451.924603174604 14320.017241379306 4.8774630541871931
decision_type=2 2 2
left_child=1 2 -1
right_child=-2 -3 -4
leaf_value=-0.073495735395968806 -0.0057643837991478188 -0.086718999848443473 2.5572989482799313
leaf_weight=0.11655676428927009 50.616966894012876 0.18616876780288294 0.045451196026988328
leaf_count=50 20782 60 18
internal_value=0 0.429335 0.947618
internal_weight=0 0.348177 0.162008
internal_count=20910 128 68
is_linear=0
shrinkage=0.1


Tree=26
num_leaves=4
num_cat=0
split_feature=7 8 0
split_gain=5.12716 21.691 4.22716
threshold=31.396551724137936 20.189655172413797 0.12084744303221338
decision_type=2 2 2
left_child=2 -2 -1
right_child=1 -3 -4
leaf_value=-0.051311467000598326 1.3999022214156063 -0.089647689637630992 0.012354348713590795
leaf_weight=14.622350386809556 0.1040610030759116 0.34112120210193098 36.111134147038683
leaf_count=8670 22 74 12144
internal_value=0 0.32381 -0.00599394
internal_weight=0 0.445182 50.7335
internal_count=20910 96 20814
is_linear=0
shrinkage=0.1


Tree=27
num_leaves=4
num_cat=0
split_feature=3 3 7
split_gain=4.7679 17.5614 39.7423
threshold=5252892.5714285728 5392856.5357142864 8.3860837438423665
decision_type=2 2 2
left_child=-1 2 -2
right_child=1 -3 -4
leaf_value=-0.027246425489868095 -0.084141885554590859 0.022353179987550421 2.0372697994215172
leaf_weight=31.291226139408536 0.22707283939235168 19.527342915069312 0.11070932215079665
leaf_count=13438 126 7306 40
internal_value=0 0.035349 0.719544
internal_weight=0 19.8651 0.337782
internal_count=20910 7472 166
is_linear=0
shrinkage=0.1


Tree=28
num_leaves=4
num_cat=0
split_feature=0 9 11
split_gain=4.00265 4.60911 7.33579
threshold=0.093598145352998832 12402.310344827596 11201.116995073893
decision_type=2 2 2
left_child=-1 -2 -3
right_child=1 2 -4
leaf_value=-0.060619168078599343 -0.045747594184713747 0.12026641264602247 0.003475102288911808
leaf_weight=9.8725182614289206 10.867360518081112 6.9251379511551958 23.812346857273951
leaf_count=6458 4056 1348 9048
internal_value=0 0.0101077 0.0299165
internal_weight=0 41.6048 30.7375
internal_count=20910 14452 10396
is_linear=0
shrinkage=0.1


Tree=29
num_leaves=4
num_cat=0
split_feature=0 0 1
split_gain=3.43521 9.45889 18.465
threshold=0.12084744303221338 0.12738968173971046 0.10320699903793057
decision_type=2 2 2
left_child=-1 2 -2
right_child=1 -3 -4
leaf_value=-0.046734927007675196 1.4203021901730999 0.004097656717769192 0.13887916140173531
leaf_weight=13.393190606671849 0.10225822229403903 36.852689437626395 0.81374759820755571
leaf_count=8684 43 11744 439
internal_value=0 0.0121478 0.324296
internal_weight=0 37.7687 0.916006
internal_count=20910 12226 482
is_linear=0
shrinkage=0.1


Tree=30
num_leaves=4
num_cat=0
split_feature=9 9 11
split_gain=3.89532 12.8098 34.2264
threshold=29839.344827586214 29053.017241379315 17215.051724137931
decision_type=2 2 2
left_child=1 -1 -3
right_child=-2 2 -4
leaf_value=0.0086006532060750856 -0.046195176026890633 1.6636341241607426 -0.087998477795909802
leaf_weight=37.314527757291216 14.164221679617183 0.14062003022991021 0.30911521124653518
leaf_count=15582 4865 56 195
internal_value=0 0.015242 0.528433
internal_weight=0 37.7643 0.449735
internal_count=20698 15833 251
is_linear=0
shrinkage=0.1


Tree=31
num_leaves=4
num_cat=0
split_feature=8 0 11
split_gain=3.49851 5.31854 5.26121
threshold=0.1379310344827587 0.49685215147598122 6451.9655172413777
decision_type=2 2 2
left_child=1 2 -1
right_child=-2 -3 -4
leaf_value=0.55224175373943785 -0.0056471128703504134 0.53614517308562959 -0.095941798287813254
leaf_weight=0.12538286455673997 51.221152133541182 0.26849901210516691 0.60297712637111545
leaf_count=21 20525 3 149
internal_value=0 0.180713 0.0319585
internal_weight=0 0.996859 0.72836
internal_count=20698 173 170
is_linear=0
shrinkage=0.1


Tree=32
num_leaves=4
num_cat=0
split_feature=9 8 2
split_gain=3.25914 6.20278 7.99268
threshold=29839.344827586214 0.68965517241379304 0.093075267784374541
decision_type=2 2 2
left_child=-1 2 -2
right_child=1 -3 -4
leaf_value=0.01305809808154005 0.66388730860000644 -0.063787866910739038 0.029614902449419805
leaf_weight=38.463813195703551 0.2334613874554623 12.510852466453796 0.83196030429098755
leaf_count=15833 119 4541 205
internal_value=0 -0.0438761 0.184217
internal_weight=0 13.5763 1.06542
internal_count=20698 4865 324
is_linear=0
shrinkage=0.1


Tree=33
num_leaves=4
num_cat=0
split_feature=11 5 9
split_gain=2.87582 7.57891 3.96814
threshold=4205.3103448275879 2702778.2037037043 29839.344827586214
decision_type=2 2 2
left_child=1 -1 -2
right_child=2 -3 -4
leaf_value=0.012463636875671882 0.010425460821522223 0.60304664041572331 -0.054566170310525255
leaf_weight=0.95468723675003164 38.446064528136048 0.25283067824784666 12.394135707931126
leaf_count=218 15594 31 4855
internal_value=0 0.148821 -0.00542066
internal_weight=0 1.20752 50.8402
internal_count=20698 249 20449
is_linear=0
shrinkage=0.1


Tree=34
num_leaves=4
num_cat=0
split_feature=0 10 3
split_gain=2.31819 6.7621 11.9454
threshold=0.093598145352998832 7615.7586206896531 2339287.7857142864
decision_type=2 2 2
left_child=1 2 -1
right_child=-2 -3 -4
leaf_value=0.33371692922138441 0.008155936019836307 -0.099907339011032881 -0.097704062059632155
leaf_weight=1.1053001031395964 42.761010522430297 6.6772984085255302 1.4465132959303444
leaf_count=685 14338 4901 774
internal_value=0 -0.0470239 0.0904828
internal_weight=0 9.22911 2.55181
internal_count=20698 6360 1459
is_linear=0
shrinkage=0.1


Tree=35
num_leaves=4
num_cat=0
split_feature=6 3 4
split_gain=5.97391 12.5151 25.8622
threshold=2.2142857142857144 1040173.2142857144 915111.98214285739
decision_type=2 2 2
left_child=-1 2 -2
right_child=1 -3 -4
leaf_value=-0.087494205303216013 0.15162375072002543 0.00040950815402542007 1.7063065336061225
leaf_weight=6.4912030651466912 2.9375401674187738 40.597710089175962 0.081245560490060487
leaf_count=3594 859 16305 39
internal_value=0 0.0151119 0.210496
internal_weight=0 43.6165 3.01879
internal_count=20797 17203 898
is_linear=0
shrinkage=0.1


Tree=36
num_leaves=4
num_cat=0
split_feature=6 3 9
split_gain=5.17412 10.4117 5.33229
threshold=2.2142857142857144 252513.41071428574 8460.5862068965525
decision_type=2 2 2
left_child=-1 -2 -3
right_child=1 2 -4
leaf_value=-0.085961660826394351 0.62408207434849028 -0.082554147305303138 0.022263665251755365
leaf_weight=5.9734867757360908 0.24653759563807298 5.5183725651586419 38.589840640721377
leaf_count=3594 52 2440 14711
internal_value=0 0.0129473 0.00907743
internal_weight=0 44.3548 44.1082
internal_count=20797 17203 17151
is_linear=0
shrinkage=0.1


Tree=37
num_leaves=4
num_cat=0
split_feature=2 8 1
split_gain=5.06198 8.60448 8.27378
threshold=0.26808443647255648 1.0000000180025095e-35 0.26773111487569595
decision_type=2 2 2
left_child=2 -2 -1
right_child=1 -3 -4
leaf_value=0.0060945245611194127 0.8171890396735062 -0.069440699905979369 0.20394454224805592
leaf_weight=37.56845624151174 0.080023766844532385 10.544929287338162 2.2103162498096927
leaf_count=17723 4 2584 486
internal_value=0 -0.0603377 0.0172633
internal_weight=0 10.625 39.7788
internal_count=20797 2588 18209
is_linear=0
shrinkage=0.1


Tree=38
num_leaves=4
num_cat=0
split_feature=6 5 5
split_gain=4.45232 6.11598 59.7084
threshold=2.2142857142857144 544096.85714285739 523505.83928571432
decision_type=2 2 2
left_child=-1 2 -2
right_child=1 -3 -4
leaf_value=-0.084077562462414351 0.017515365248949481 -0.0042921188479884149 1.1950438951626678
leaf_weight=5.4915867836098178 6.2152359337778753 38.337399900599848 0.4323806875036097
leaf_count=3594 1882 15203 118
internal_value=0 0.0110616 0.0993837
internal_weight=0 44.985 6.64762
internal_count=20797 17203 2000
is_linear=0
shrinkage=0.1


Tree=39
num_leaves=4
num_cat=0
split_feature=2 1 8
split_gain=4.18497 11.709 7.06805
threshold=0.26808443647255648 0.57387885422562579 0.62068965517241426
decision_type=2 2 2
left_child=1 -1 -2
right_child=2 -3 -4
leaf_value=0.011833127507067658 0.31815640590968469 1.2657401423033685 -0.076164565581125318
leaf_weight=40.622947307478171 0.44627864385256444 0.044079296523704126 9.6393019456299935
leaf_count=18202 141 7 2447
internal_value=0 0.0141679 -0.0577014
internal_weight=0 40.667 10.0856
internal_count=20797 18209 2588
is_linear=0
shrinkage=0.1


Tree=40
num_leaves=4
num_cat=0
split_feature=7 7 2
split_gain=4.90858 14.9948 35.8007
threshold=2.1403940886699515 2.3158866995073888 0.034804962689506343
decision_type=2 2 2
left_child=-1 2 -2
right_child=1 -3 -4
leaf_value=-0.074386508388715716 1.7379186401293543 -0.0035897720775770457 0.11977793367053957
leaf_weight=9.2993148679670394 0.13365296425763418 41.98049728362821 0.86235277575906366
leaf_count=4698 64 15813 298
internal_value=0 0.00561572 0.383226
internal_weight=0 42.9765 0.996006
internal_count=20873 16175 362
is_linear=0
shrinkage=0.1


Tree=41
num_leaves=4
num_cat=0
split_feature=7 7 4
split_gain=4.2027 6.20414 6.03049
threshold=2.1403940886699515 2.3158866995073888 743654.2857142858
decision_type=2 2 2
left_child=-1 2 -2
right_child=1 -3 -4
leaf_value=-0.071653480309078837 0.39173946286180317 -0.0032423810216754495 0.010080632492525873
leaf_weight=8.7201769182283879 0.76843284076312446 41.841453712724615 0.87505962612340227
leaf_count=4698 125 15813 237
internal_value=0 0.00428257 0.193066
internal_weight=0 43.4849 1.64349
internal_count=20873 16175 362
is_linear=0
shrinkage=0.1


Tree=42
num_leaves=4
num_cat=0
split_feature=1 1 0
split_gain=3.94267 11.4942 9.08228
threshold=0.1104692600988043 0.1096242911701482 0.16331333583402952
decision_type=2 2 2
left_child=1 -1 -3
right_child=-2 2 -4
leaf_value=0.022982927407747895 -0.025989260668852439 -0.065670000193139344 1.1612982987769429
leaf_weight=15.553340105456297 36.072427179838996 0.089446637080983105 0.12899423146154732
leaf_count=8614 12186 63 10
internal_value=0 0.0338915 0.708142
internal_weight=0 15.7718 0.218441
internal_count=20873 8687 73
is_linear=0
shrinkage=0.1


Tree=43
num_leaves=4
num_cat=0
split_feature=7 10 10
split_gain=3.65982 4.55199 15.8229
threshold=2.1403940886699515 13235.810344827589 13050.534482758625
decision_type=2 2 2
left_child=-1 2 -2
right_child=1 -3 -4
leaf_value=-0.068516811953967138 0.023110712359025273 -0.025909116958655873 0.53375318827886153
leaf_weight=8.1542531063605548 19.65697650262155 23.116930435993709 0.59608642040984605
leaf_count=4698 6911 9143 121
internal_value=0 0.00437166 0.0389744
internal_weight=0 43.37 20.2531
internal_count=20873 16175 7032
is_linear=0
shrinkage=0.1


Tree=44
num_leaves=4
num_cat=0
split_feature=7 6 4
split_gain=3.15607 4.50878 7.39787
threshold=2.1403940886699515 3.701970443349754 743654.2857142858
decision_type=2 2 2
left_child=-1 2 -2
right_child=1 -3 -4
leaf_value=-0.065626370763860548 0.26923537182088403 -0.0087676568848736869 0.015550497887119997
leaf_weight=7.6879965114349025 1.5662482461775642 37.86484048870625 4.1558256322750822
leaf_count=4698 428 13988 1759
internal_value=0 0.00373157 0.0862378
internal_weight=0 43.5869 5.72207
internal_count=20873 16175 2187
is_linear=0
shrinkage=0.1


Tree=45
num_leaves=4
num_cat=0
split_feature=9 0 8
split_gain=4.67284 6.07967 12.178
threshold=32469.258620689663 0.20015425973219392 1.350985221674877
decision_type=2 2 2
left_child=1 -1 -3
right_child=-2 2 -4
leaf_value=-0.015048286391317859 -0.056092938137755469 0.27796429142611462 0.032491814471579339
leaf_weight=20.825239476660499 9.5953076390142069 2.2931953366496627 15.744379179901442
leaf_count=12041 4103 644 3844
internal_value=0 0.0217166 0.0641767
internal_weight=0 38.8628 18.0376
internal_count=20632 16529 4488
is_linear=0
shrinkage=0.1


Tree=46
num_leaves=4
num_cat=0
split_feature=9 3 8
split_gain=3.87633 5.63514 11.3343
threshold=32469.258620689663 537358.4107142858 2.4211822660098528
decision_type=2 2 2
left_child=-1 2 -2
right_child=1 -3 -4
leaf_value=0.018958669389112743 0.08657920664137507 -0.073352827036738566 1.5180782269519701
leaf_weight=39.634920189739205 0.51197489752666925 8.5879765490826667 0.032445888326037675
leaf_count=16529 319 3778 6
internal_value=0 -0.0531956 0.249901
internal_weight=0 9.1324 0.544421
internal_count=20632 4103 325
is_linear=0
shrinkage=0.1


Tree=47
num_leaves=4
num_cat=0
split_feature=9 9 10
split_gain=3.24876 4.71581 10.7556
threshold=32469.258620689663 32144.603448275866 28794.833128078822
decision_type=2 2 2
left_child=1 -1 -3
right_child=-2 2 -4
leaf_value=0.014613183982139254 -0.050368612811825544 -0.066571585877513703 1.6328527936491088
leaf_weight=40.226234759844374 8.7470376892306358 0.092292743327560767 0.028293921117438003
leaf_count=16445 4103 62 22
internal_value=0 0.0167467 0.574511
internal_weight=0 40.3468 0.120587
internal_count=20632 16529 84
is_linear=0
shrinkage=0.1


Tree=48
num_leaves=4
num_cat=0
split_feature=6 0 11
split_gain=2.92516 32.9787 7.01882
threshold=1.017241379310345 0.5347356232750452 35557.275862068971
decision_type=2 2 2
left_child=1 2 -1
right_child=-2 -3 -4
leaf_value=-0.057660569772937126 -1.4863830350730443e-05 1.8777018482067331 0.73942195428290203
leaf_weight=1.2405685478588555 47.976203232683474 0.071476561512099468 0.090397414402104803
leaf_count=1041 19534 12 45
internal_value=0 0.144955 0.011062
internal_weight=0 1.40244 1.33097
internal_count=20632 1098 1086
is_linear=0
shrinkage=0.1


Tree=49
num_leaves=4
num_cat=0
split_feature=9 5 7
split_gain=2.81162 4.30915 18.0133
threshold=29839.344827586214 1878803.6250000002 2.7721674876847291
decision_type=2 2 2
left_child=1 -1 -3
right_child=-2 2 -4
leaf_value=-0.01359890039775951 -0.044682315704191705 1.0692788085573683 0.042243453680643646
leaf_weight=22.591330581664806 9.7367598909768258 0.1421195956645559 17.231099334079772
leaf_count=10021 4762 78 5771
internal_value=0 0.0151567 0.0525693
internal_weight=0 39.9645 17.3732
internal_count=20632 15870 5849
is_linear=0
shrinkage=0.1


Tree=50
num_leaves=4
num_cat=0
split_feature=8 8 6
split_gain=3.5878 17.0241 17.0268
threshold=3.8774630541871931 4.140394088669952 5.0689655172413808
decision_type=2 2 2
left_child=-1 2 -2
right_child=1 -3 -4
leaf_value=-0.028739833708484409 -0.09171831020719845 0.0087165759282993496 0.67669094229054361
leaf_weight=22.017401962730219 0.44719070137944317 27.896032294549514 0.73854427877813578
leaf_count=10136 238 10111 295
internal_value=0 0.0247334 0.390981
internal_weight=0 29.0818 1.18573
internal_count=20780 10644 533
is_linear=0
shrinkage=0.1


Tree=51
num_leaves=4
num_cat=0
split_feature=2 3 10
split_gain=3.17491 6.69492 5.85414
threshold=0.077219323167464674 35589113.551724151 8804.0172413793061
decision_type=2 2 2
left_child=1 2 -1
right_child=-2 -3 -4
leaf_value=0.1228285592189719 -0.014161961492530382 0.81389351508782404 -0.012133266007705062
leaf_weight=4.9154421724670074 37.202290166897001 0.080964474123903396 9.1302623881056189
leaf_count=1759 14418 30 4573
internal_value=0 0.0414715 0.0351855
internal_weight=0 14.1267 14.0457
internal_count=20780 6362 6332
is_linear=0
shrinkage=0.1


Tree=52
num_leaves=4
num_cat=0
split_feature=5 5 0
split_gain=2.98001 20.4828 21.2484
threshold=2066563.5357142859 2163765.089285715 0.13457679653450186
decision_type=2 2 2
left_child=-1 2 -2
right_child=1 -3 -4
leaf_value=-0.018404264960607816 1.1609561780272835 0.010362965619036301 0.098598734792980744
leaf_weight=31.184711738285841 0.28812225122237833 19.408647129603196 0.4817955408943817
leaf_count=13748 150 6702 180
internal_value=0 0.0308815 0.526644
internal_weight=0 20.1786 0.769918
internal_count=20780 7032 330
is_linear=0
shrinkage=0.1


Tree=53
num_leaves=4
num_cat=0
split_feature=9 11 7
split_gain=3.20997 10.4257 12.5622
threshold=8460.5862068965525 8152.8275862068995 21.948275862068968
decision_type=2 2 2
left_child=-1 2 -2
right_child=1 -3 -4
leaf_value=-0.060752692412043875 0.085652061578819993 -0.011876097502004145 0.66844959594412934
leaf_weight=7.3399451513250815 7.4390864306478752 36.576635442004772 0.36069300700910378
leaf_count=3099 1745 15914 22
internal_value=0 0.0105066 0.115244
internal_weight=0 44.3764 7.79978
internal_count=20780 17681 1767
is_linear=0
shrinkage=0.1


Tree=54
num_leaves=4
num_cat=0
split_feature=9 10 1
split_gain=2.72978 8.37929 22.8165
threshold=8460.5862068965525 7010.2413793103487 0.065754556827741409
decision_type=2 2 2
left_child=-1 2 -2
right_child=1 -3 -4
leaf_value=-0.058175024746110131 0.88234366400459907 0.00093900062914603838 0.0087465159395889638
leaf_weight=6.9220352140546302 0.3748243615264063 43.222508118356927 1.1511432059342039
leaf_count=3099 60 17521 100
internal_value=0 0.00917368 0.237129
internal_weight=0 44.7485 1.52597
internal_count=20780 17681 160
is_linear=0
shrinkage=0.1


Tree=55
num_leaves=4
num_cat=0
split_feature=6 1 10
split_gain=4.44702 3.54093 7.13695
threshold=13.912561576354681 0.24465067564900866 11373.965517241386
decision_type=2 2 2
left_child=1 -1 -3
right_child=-2 2 -4
leaf_value=-0.0089629747545897556 -0.060505592744086692 -0.067772532633179949 0.11490561054975892
leaf_weight=30.067857713467674 12.276486850751096 3.040011521370614 7.0095154000737239
leaf_count=14267 3647 821 2049
internal_value=0 0.00819259 0.0595
internal_weight=0 40.1174 10.0495
internal_count=20784 17137 2870
is_linear=0
shrinkage=0.1


Tree=56
num_leaves=4
num_cat=0
split_feature=6 9 7
split_gain=3.8192 2.9609 7.56385
threshold=13.912561576354681 16801.362068965533 12.386083743842367
decision_type=2 2 2
left_child=1 -1 -3
right_child=-2 2 -4
leaf_value=-0.020659398402130762 -0.057815032907776745 0.025707991187140053 0.50797119806590685
leaf_weight=19.587889262998942 11.600164090195902 20.517670409666611 0.30036675208248098
leaf_count=8694 3647 8318 125
internal_value=0 0.0071976 0.0334521
internal_weight=0 40.4059 20.818
internal_count=20784 17137 8443
is_linear=0
shrinkage=0.1


Tree=57
num_leaves=4
num_cat=0
split_feature=6 5 3
split_gain=3.27509 2.68404 7.2318
threshold=13.912561576354681 178950.78571428571 252513.41071428574
decision_type=2 2 2
left_child=1 -1 -3
right_child=-2 2 -4
leaf_value=-0.07487333409843093 -0.055100199602404948 0.82318443904943295 0.012021384267129799
leaf_weight=3.6653349506814257 10.988429125864057 0.07974122345331025 36.915020872387686
leaf_count=2205 3647 28 14904
internal_value=0 0.00634557 0.0144768
internal_weight=0 40.6601 36.9948
internal_count=20784 17137 14932
is_linear=0
shrinkage=0.1


Tree=58
num_leaves=4
num_cat=0
split_feature=6 1 10
split_gain=2.80468 2.53145 4.87275
threshold=13.912561576354681 0.24465067564900866 9576.034482758625
decision_type=2 2 2
left_child=1 -1 -3
right_child=-2 2 -4
leaf_value=-0.0092463206574676087 -0.052374135220284015 -0.099608581275835037 0.077679178385172409
leaf_weight=30.114748316278565 10.435274083662078 1.841696758812758 8.9488588059903105
leaf_count=14267 3647 545 2325
internal_value=0 0.00562176 0.0471248
internal_weight=0 40.9053 10.7906
internal_count=20784 17137 2870
is_linear=0
shrinkage=0.1


Tree=59
num_leaves=4
num_cat=0
split_feature=6 7 8
split_gain=2.43057 9.03636 2.92865
threshold=12.596674876847294 12.386083743842367 2.482758620689657
decision_type=2 2 2
left_child=1 2 -1
right_child=-2 -3 -4
leaf_value=-0.034671173340197863 -0.045182449620583418 0.98657876737143979 0.023338322296695791
leaf_weight=13.02810845641943 11.912831872323293 0.06327522557694365 26.040207681799075
leaf_count=6498 4236 21 10029
internal_value=0 0.00633921 0.00395435
internal_weight=0 39.1316 39.0683
internal_count=20784 16548 16527
is_linear=0
shrinkage=0.1


Tree=60
num_leaves=4
num_cat=0
split_feature=10 3 10
split_gain=4.46891 11.5019 3.82459
threshold=68013.18965517242 6402030.9470899487 41556.741379310355
decision_type=2 2 2
left_child=2 -2 -1
right_child=1 -3 -4
leaf_value=0.011617264040391713 -0.10160956728507105 0.49050564445359424 -0.1033070637014266
leaf_weight=46.399369822480367 0.64113579900003859 0.6184317966690287 3.057035690493648
leaf_count=19286 63 18 1398
internal_value=0 0.193007 0.00443229
internal_weight=0 1.25957 49.4564
internal_count=20765 81 20684
is_linear=0
shrinkage=0.1


Tree=61
num_leaves=4
num_cat=0
split_feature=5 5 9
split_gain=2.62189 6.84865 8.13985
threshold=2811191.464285715 2020447.2321428573 4582.7586206896531
decision_type=2 2 2
left_child=1 -1 -3
right_child=-2 2 -4
leaf_value=0.0011268183987558518 -0.031117137291770364 1.0762700156838063 0.097589402496190469
leaf_weight=31.306880544449086 12.705491758533752 0.056122291483915343 6.9772922970296349
leaf_count=13571 4878 19 2297
internal_value=0 0.0212308 0.110173
internal_weight=0 38.3403 7.03341
internal_count=20765 15887 2316
is_linear=0
shrinkage=0.1


Tree=62
num_leaves=4
num_cat=0
split_feature=11 3 11
split_gain=2.34094 7.29717 2.49556
threshold=66733.682266009884 6402030.9470899487 19821.586206896562
decision_type=2 2 2
left_child=2 -2 -1
right_child=1 -3 -4
leaf_value=0.013474056542829144 -0.099901933035858231 0.4206756417256366 -0.048603923316938934
leaf_weight=42.872044249423197 0.53021430285298154 0.4927382449968718 7.5934820828115326
leaf_count=15979 69 17 4700
internal_value=0 0.154755 0.00408815
internal_weight=0 1.02295 50.4655
internal_count=20765 86 20679
is_linear=0
shrinkage=0.1


Tree=63
num_leaves=4
num_cat=0
split_feature=10 3 10
split_gain=2.85999 5.78416 3.21408
threshold=68013.18965517242 6402030.9470899487 41556.741379310355
decision_type=2 2 2
left_child=2 -2 -1
right_child=1 -3 -4
leaf_value=0.00858242952898358 -0.099138148053702857 0.31374199377864004 -0.10265395316192849
leaf_weight=47.592300413569319 0.54476764950959367 0.80863472149940208 2.7163733402412609
leaf_count=19286 63 18 1398
internal_value=0 0.148252 0.00249624
internal_weight=0 1.3534 50.3087
internal_count=20765 81 20684
is_linear=0
shrinkage=0.1


Tree=64
num_leaves=4
num_cat=0
split_feature=10 3 10
split_gain=2.28383 4.3511 2.86547
threshold=68013.18965517242 6402030.9470899487 41556.741379310355
decision_type=2 2 2
left_child=2 -2 -1
right_child=1 -3 -4
leaf_value=0.0076605073297641053 -0.097911090460977429 0.26466291770271516 -0.10213369702482454
leaf_weight=47.970442544712569 0.4991564908705175 0.86486123292706907 2.4699131655215742
leaf_count=19286 63 18 1398
internal_value=0 0.131969 0.00220428
internal_weight=0 1.36402 50.4404
internal_count=20765 81 20684
is_linear=0
shrinkage=0.1


Tree=65
num_leaves=4
num_cat=0
split_feature=4 6 4
split_gain=3.88884 6.43334 5.96237
threshold=10341164.861111114 39.724137931034491 8236680.6607142882
decision_type=2 2 2
left_child=1 2 -1
right_child=-2 -3 -4
leaf_value=0.00030486093920502967 -0.10203967342900143 0.73546068179657587 0.16940712021111343
leaf_weight=46.769951532696723 3.2945985553960773 0.091318491991841166 2.152461258287075
leaf_count=18876 1160 20 644
internal_value=0 0.00970294 0.00786804
internal_weight=0 49.0137 48.9224
internal_count=20700 19540 19520
is_linear=0
shrinkage=0.1


Tree=66
num_leaves=4
num_cat=0
split_feature=2 1 10
split_gain=3.6719 10.9566 12.9002
threshold=0.26808443647255648 0.25510537233956954 15543.8275862069
decision_type=2 2 2
left_child=1 -1 -3
right_child=-2 2 -4
leaf_value=-0.0012467638328174499 -0.053947001078834669 -0.046372434924773893 0.3229516246145509
leaf_weight=39.096741776185809 9.4888102355762367 1.5667914902733167 2.3122330697369762
leaf_count=17195 2601 295 609
internal_value=0 0.0146861 0.174304
internal_weight=0 42.9758 3.87902
internal_count=20700 18099 904
is_linear=0
shrinkage=0.1


Tree=67
num_leaves=4
num_cat=0
split_feature=4 8 0
split_gain=3.45621 7.29269 9.12623
threshold=10341164.861111114 17.438423645320203 0.26773522417754708
decision_type=2 2 2
left_child=1 -1 -3
right_child=-2 2 -4
leaf_value=0.0011934402622264556 -0.10169247652544651 0.0099331607436655683 0.50129136862456003
leaf_weight=48.1650549582846 3.0119911860965649 0.88822481292299815 0.63515896812896244
leaf_count=19026 1160 344 170
internal_value=0 0.00809584 0.221322
internal_weight=0 49.6884 1.52338
internal_count=20700 19540 514
is_linear=0
shrinkage=0.1


Tree=68
num_leaves=4
num_cat=0
split_feature=8 9 8
split_gain=3.21857 7.26457 8.65477
threshold=4.807266009852218 19605.741379310351 4.7586206896551726
decision_type=2 2 2
left_child=1 2 -1
right_child=-2 -3 -4
leaf_value=-0.027382301985047014 -0.024841575780349776 0.080826761092021221 0.89410890923028097
leaf_weight=15.405660259595606 24.771812972379848 12.614723619844879 0.07201000954955894
leaf_count=6925 8863 4878 34
internal_value=0 0.0245742 -0.0212725
internal_weight=0 28.0924 15.4777
internal_count=20700 11837 6959
is_linear=0
shrinkage=0.1


Tree=69
num_leaves=4
num_cat=0
split_feature=2 1 6
split_gain=3.2654 6.58404 9.85103
threshold=0.26808443647255648 0.25510537233956954 10.482758620689658
decision_type=2 2 2
left_child=1 -1 -3
right_child=-2 2 -4
leaf_value=-0.00095689007807753961 -0.052706319365339704 0.23926987655451601 -0.053846731931532603
leaf_weight=38.859842095364002 9.2463099078449869 2.8645606796198981 1.874190961680142
leaf_count=17195 2601 553 351
internal_value=0 0.0126241 0.123513
internal_weight=0 43.5986 4.73875
internal_count=20700 18099 904
is_linear=0
shrinkage=0.1


Tree=70
num_leaves=4
num_cat=0
split_feature=2 2 4
split_gain=10.0948 9.29248 21.401
threshold=0.18511421627599195 0.1837665971066817 960573.50000000012
decision_type=2 2 2
left_child=1 -1 -3
right_child=-2 2 -4
leaf_value=0.018060246110726999 -0.068485730875388173 1.6498204534943703 -0.058020948662942599
leaf_weight=31.974700803635642 18.962200129913981 0.084585924807469293 0.19371809402946383
leaf_count=14565 6014 18 58
internal_value=0 0.0233855 0.569413
internal_weight=0 32.253 0.278304
internal_count=20655 14641 76
is_linear=0
shrinkage=0.1


Tree=71
num_leaves=4
num_cat=0
split_feature=2 0 5
split_gain=8.59375 7.50642 12.0695
threshold=0.18511421627599195 0.12084744303221338 1456280.0000000002
decision_type=2 2 2
left_child=1 -1 -3
right_child=-2 2 -4
leaf_value=-0.035782794339703231 -0.065892098989006609 -0.022258044157273837 0.13641218228919397
leaf_weight=13.833723658681263 17.799948989384575 9.133618592211862 10.019285427610155
leaf_count=8575 6014 3211 2855
internal_value=0 0.0202526 0.0607745
internal_weight=0 32.9866 19.1529
internal_count=20655 14641 6066
is_linear=0
shrinkage=0.1


Tree=72
num_leaves=4
num_cat=0
split_feature=1 0 3
split_gain=7.37136 7.3047 8.11698
threshold=0.18535781001526824 0.12084744303221338 2620869.1250000005
decision_type=2 2 2
left_child=1 -1 -3
right_child=-2 2 -4
leaf_value=-0.033425887428745991 -0.056322110823181462 -0.043087157315826324 0.109279823734712
leaf_weight=13.356109896980344 20.03234793964657 4.8850771837605889 12.073307458893394
leaf_count=8575 6673 2173 3234
internal_value=0 0.0217923 0.0653266
internal_weight=0 30.3145 16.9584
internal_count=20655 13982 5407
is_linear=0
shrinkage=0.1


Tree=73
num_leaves=4
num_cat=0
split_feature=1 0 5
split_gain=6.38673 9.60714 19.7581
threshold=0.15284129051708598 0.15192556059480314 3255785.5357142868
decision_type=2 2 2
left_child=1 -1 -3
right_child=-2 2 -4
leaf_value=-0.0092690994047316816 -0.044405496654300887 0.041097789068206533 0.47142269711143686
leaf_weight=18.542996786825828 24.939785476613906 5.0435924443445392 1.3276281140861099
leaf_count=10841 8760 869 185
internal_value=0 0.0271261 0.132759
internal_weight=0 24.9142 6.37122
internal_count=20655 11895 1054
is_linear=0
shrinkage=0.1


Tree=74
num_leaves=4
num_cat=0
split_feature=2 0 5
split_gain=5.78586 6.12399 9.0006
threshold=0.15260303632227071 0.12084744303221338 1456280.0000000002
decision_type=2 2 2
left_child=1 -1 -3
right_child=-2 2 -4
leaf_value=-0.030504449631468464 -0.048446041175812513 -0.028688609998162674 0.12414138633623445
leaf_weight=12.807458985975247 20.665179765594075 6.4477803996414869 9.4760339724889473
leaf_count=8575 8018 2166 1896
internal_value=0 0.0208795 0.0622543
internal_weight=0 28.7313 15.9238
internal_count=20655 12637 4062
is_linear=0
shrinkage=0.1


Tree=75
num_leaves=4
num_cat=0
split_feature=7 7 11
split_gain=4.80992 8.4688 12.5008
threshold=1.350985221674877 1.3158866995073895 22754.741379310351
decision_type=2 2 2
left_child=1 -1 -3
right_child=-2 2 -4
leaf_value=0.06633382375583545 -0.0084059872811593703 -0.075800841519733139 1.2738602295885295
leaf_weight=3.6649218510283386 45.785341811701073 0.12048276615678322 0.1157772448787
leaf_count=2612 18138 68 14
internal_value=0 0.106846 0.651681
internal_weight=0 3.90118 0.23626
internal_count=20832 2694 82
is_linear=0
shrinkage=0.1


Tree=76
num_leaves=4
num_cat=0
split_feature=4 8 9
split_gain=2.99788 9.83421 6.7756
threshold=1787482.7321428575 19.175492610837441 17305.052339901486
decision_type=2 2 2
left_child=1 2 -1
right_child=-2 -3 -4
leaf_value=-0.040127585299579223 -0.01984053598226513 1.1095799061376554 0.076532988987338957
leaf_weight=8.8095653606869799 29.495214611873962 0.053557887062196552 11.352917728567261
leaf_count=4913 11308 9 4602
internal_value=0 0.0301189 0.0255237
internal_weight=0 20.216 20.1625
internal_count=20832 9524 9515
is_linear=0
shrinkage=0.1


Tree=77
num_leaves=4
num_cat=0
split_feature=7 0 0
split_gain=3.21411 7.6177 4.64934
threshold=1.0344827586206902 0.48382132804575451 0.10062566107255157
decision_type=2 2 2
left_child=1 2 -1
right_child=-2 -3 -4
leaf_value=0.19635706630374505 -0.0061225051949067898 0.37343402866263026 -0.098712404490064021
leaf_weight=0.80434124375460658 46.634733619328472 0.73279919986089215 1.4498789459030375
leaf_count=733 19086 33 980
internal_value=0 0.100366 0.00731891
internal_weight=0 2.98702 2.25422
internal_count=20832 1746 1713
is_linear=0
shrinkage=0.1


Tree=78
num_leaves=4
num_cat=0
split_feature=7 10 3
split_gain=2.55014 4.56155 4.48257
threshold=1.350985221674877 16379.603448275864 213815.69642857145
decision_type=2 2 2
left_child=1 -1 -3
right_child=-2 2 -4
leaf_value=-0.033796616687875654 -0.0068861025376315364 -0.093761440131658602 0.23896537196285786
leaf_weight=2.1072767969453698 45.005485819274327 0.493542175725452 1.8390158341499043
leaf_count=1656 18138 383 655
internal_value=0 0.0723012 0.167806
internal_weight=0 4.43983 2.33256
internal_count=20832 2694 1038
is_linear=0
shrinkage=0.1


Tree=79
num_leaves=4
num_cat=0
split_feature=7 1 1
split_gain=2.24122 3.02878 8.60229
threshold=10.772167487684731 0.058954366278598715 0.056052375728800181
decision_type=2 2 2
left_child=-1 2 -2
right_child=1 -3 -4
leaf_value=0.011514955833029325 0.032155784923086135 -0.059278742832795751 1.056860932247619
leaf_weight=38.45545032407972 1.2428300075553114 9.6087095773982565 0.057572996505768859
leaf_count=16599 480 3720 33
internal_value=0 -0.0397785 0.101552
internal_weight=0 10.9091 1.3004
internal_count=20832 4233 513
is_linear=0
shrinkage=0.1


Tree=80
num_leaves=4
num_cat=0
split_feature=5 4 7
split_gain=3.26403 10.9251 4.16485
threshold=178950.78571428571 205756.83928571432 31.396551724137936
decision_type=2 2 2
left_child=-1 -2 -3
right_child=1 2 -4
leaf_value=-0.097287728057673356 0.63830392677083425 -0.001643661328467503 0.2818616568869638
leaf_weight=3.2912840570934341 0.24054563566460174 45.311822748160921 0.4935708740958934
leaf_count=2236 39 18321 95
internal_value=0 0.00534428 0.00157353
internal_weight=0 46.0459 45.8054
internal_count=20691 18455 18416
is_linear=0
shrinkage=0.1


Tree=81
num_leaves=4
num_cat=0
split_feature=11 11 0
split_gain=3.29675 14.4291 23.5554
threshold=6451.9655172413777 6333.1724137931024 0.12516079588885703
decision_type=2 2 2
left_child=1 -1 -3
right_child=-2 2 -4
leaf_value=0.026091518318327452 -0.011926942432113799 1.4212597874610409 -0.084976208364622219
leaf_weight=6.481605674896854 42.442043171962723 0.16782708981190797 0.20842440397245809
leaf_count=2240 18277 91 83
internal_value=0 0.0626492 0.640513
internal_weight=0 6.85786 0.376251
internal_count=20691 2414 174
is_linear=0
shrinkage=0.1


end of trees

feature_importances:
Column_9=31
Column_0=30
Column_11=24
Column_7=22
Column_5=21
Column_1=19
Column_10=19
Column_2=18
Column_8=18
Column_3=17
Column_6=15
Column_4=12

parameters:
[boosting: gbdt]
[objective: binary]
[metric: binary_logloss]
[tree_learner: serial]
[device_type: cpu]
[data_sample_strategy: bagging]
[data: ]
[valid: ]
[num_iterations: 1000]
[learning_rate: 0.1]
[num_leaves: 4]
[num_threads: 0]
[seed: 0]
[deterministic: 0]
[force_col_wise: 0]
[force_row_wise: 0]
[histogram_pool_size: -1]
[max_depth: -1]
[min_data_in_leaf: 20]
[min_sum_hessian_in_leaf: 0.001]
[bagging_fraction: 0.598898]
[pos_bagging_fraction: 1]
[neg_bagging_fraction: 1]
[bagging_freq: 5]
[bagging_seed: 3]
[feature_fraction: 0.852]
[feature_fraction_bynode: 1]
[feature_fraction_seed: 2]
[extra_trees: 0]
[extra_seed: 6]
[early_stopping_round: 0]
[first_metric_only: 0]
[max_delta_step: 0]
[lambda_l1: 0.0107828]
[lambda_l2: 0.0305524]
[linear_lambda: 0]
[min_gain_to_split: 0]
[drop_rate: 0.1]
[max_drop: 50]
[skip_drop: 0.5]
[xgboost_dart_mode: 0]
[uniform_drop: 0]
[drop_seed: 4]
[top_rate: 0.2]
[other_rate: 0.1]
[min_data_per_group: 100]
[max_cat_threshold: 32]
[cat_l2: 10]
[cat_smooth: 10]
[max_cat_to_onehot: 4]
[top_k: 20]
[monotone_constraints: ]
[monotone_constraints_method: basic]
[monotone_penalty: 0]
[feature_contri: ]
[forcedsplits_filename: ]
[refit_decay_rate: 0.9]
[cegb_tradeoff: 1]
[cegb_penalty_split: 0]
[cegb_penalty_feature_lazy: ]
[cegb_penalty_feature_coupled: ]
[path_smooth: 0]
[interaction_constraints: ]
[verbosity: -1]
[saved_feature_importance_type: 0]
[use_quantized_grad: 0]
[num_grad_quant_bins: 4]
[quant_train_renew_leaf: 0]
[stochastic_rounding: 1]
[linear_tree: 0]
[max_bin: 255]
[max_bin_by_feature: ]
[min_data_in_bin: 3]
[bin_construct_sample_cnt: 200000]
[data_random_seed: 1]
[is_enable_sparse: 1]
[enable_bundle: 1]
[use_missing: 1]
[zero_as_missing: 0]
[feature_pre_filter: 0]
[pre_partition: 0]
[two_round: 0]
[header: 0]
[label_column: ]
[weight_column: ]
[group_column: ]
[ignore_column: ]
[categorical_feature: ]
[forcedbins_filename: ]
[precise_float_parser: 0]
[parser_config_file: ]
[objective_seed: 5]
[num_class: 1]
[is_unbalance: 0]
[scale_pos_weight: 1]
[sigmoid: 1]
[boost_from_average: 1]
[reg_sqrt: 0]
[alpha: 0.9]
[fair_c: 1]
[poisson_max_delta_step: 0.7]
[tweedie_variance_power: 1.5]
[lambdarank_truncation_level: 30]
[lambdarank_norm: 1]
[label_gain: ]
[lambdarank_position_bias_regularization: 0]
[eval_at: ]
[multi_error_top_k: 1]
[auc_mu_weights: ]
[num_machines: 1]
[local_listen_port: 12400]
[time_out: 120]
[machine_list_filename: ]
[machines: ]
[gpu_platform_id: -1]
[gpu_device_id: -1]
[gpu_use_dp: 0]
[num_gpu: 1]

end of parameters

pandas_categorical:null
